725 20
509 -0.7387686 -0.82590926 -0.6797513 -0.06646978 -0.6153181 -0.4025455 0.17686504 -0.5953407 -0.07850021 0.9327786 -0.8161524 -0.054507487 0.642832 -0.65567935 -0.7785543 -0.56520027 -0.8041268 0.18369907 0.4649198 -0.82278436
673 -1.0517454 -1.0128443 -0.8352619 0.017197672 -0.09203944 -0.3413215 -0.077779494 -0.41829634 -0.087762564 0.6664737 -0.75293875 0.12602143 0.5273665 -0.75523895 -0.7989797 -0.61154634 -0.59917414 0.41875517 0.44585502 -0.74388355
662 -0.06585421 -0.9189087 -0.7502925 0.10448116 -0.8942453 0.2029923 -0.6056964 0.42610487 -0.41161963 -0.26616913 -0.8055596 -0.039060026 1.5684681 -0.20771636 -0.24553926 0.51337034 -0.2263596 -0.06536162 -0.7414353 -1.4115983
232 -1.352547 -1.1210557 -0.15712295 0.37461329 0.07023256 -0.59479785 -0.06825382 -0.62655884 -0.13389666 0.60007644 0.12391382 0.34193245 0.1844301 -1.138243 -0.7158258 -0.19476701 -0.47197044 0.5610269 0.1483853 -0.73595786
635 -1.0419393 0.5434983 -0.4544177 0.84310406 0.06363854 -0.97827667 -0.10262571 0.53095245 -0.3945677 1.1587952 0.20508751 0.07059515 1.1438416 -0.04502411 -1.3545038 -0.05590181 0.27837345 -0.04613623 0.50402004 -0.47303116
607 -0.61526453 -0.12591855 0.090246774 1.7010206 0.18709633 0.12912461 -0.6429175 -1.7248495 0.18823831 -0.5004258 -0.02552066 0.6708274 -0.03399316 -0.74093896 -1.0065569 0.62723756 0.72825676 -0.08877407 0.20018923 -1.5896791
275 0.36075586 -0.18089108 0.7223251 1.0134953 -0.71551615 0.8607848 0.06338009 0.25013253 0.2734153 0.6601812 -0.19752088 -0.21798989 1.8888475 -0.17201677 -0.6529211 -0.37087134 1.1549138 0.98655105 -0.8452635 -0.93604445
217 -0.17250748 -0.36382124 -0.38897082 -0.04675539 -0.5072315 -0.17308831 -0.76416385 0.7300148 -0.3923873 0.11783608 -0.28912708 0.39899692 1.8556257 0.012416099 -0.11905042 0.70504034 -0.1732708 0.17355025 -1.2781119 -1.3803896
491 -0.64425707 0.44100764 0.21749875 0.2316635 0.21384245 -1.0225439 -0.27443486 -0.09497082 -0.25847477 0.7927703 -0.11579441 0.32906416 0.5047222 0.6516992 -1.6783333 -0.046756495 -0.33692294 -0.4528261 0.3403523 -0.95442444
198 0.3069761 -0.055235304 0.63431215 1.2539123 -0.8042237 0.6431385 -0.3760313 -0.19942467 0.21569239 0.3807881 -0.44739464 -0.8197372 1.5647876 0.3888794 -0.7148499 -0.7919629 0.9367665 1.1137661 -0.30731696 -0.86825055
665 -0.33704394 -0.3689924 -0.31677446 -0.256289 -0.94765353 -0.7830276 1.1172206 -0.00945411 -0.04541266 0.094684534 -1.884345 -0.12238877 0.79011893 -0.103040814 0.0073050223 0.23905715 0.19882298 -0.78162736 -0.6882464 -1.3558
549 -0.7694719 -0.2736266 -0.51170105 0.41242337 -0.33101422 -0.45741704 0.0051499805 -0.63591725 -0.29978675 1.108245 -0.78028 0.06334628 0.27872163 -0.73644423 -1.0695511 -0.4767909 -0.918275 0.40265676 0.53458166 -0.5266893
528 0.632873 -0.48483723 -0.23452093 1.4045544 -1.2016009 0.035644904 -0.58029956 0.1056715 1.403746 -0.33864927 -1.6671407 0.67977154 1.5588908 0.2820469 0.048573468 0.0105884215 0.16502596 0.07399726 -0.0347543 -1.0405777
538 -0.52260184 0.34995896 1.0060741 0.5833323 0.6119195 -0.63699925 -0.72533506 -1.2357801 0.115134545 -0.7106987 -0.36184892 0.9376254 0.65710735 0.13347813 -0.60210186 -0.62853634 -0.40086928 0.24394703 0.17165431 -1.5681357
531 -1.2331755 -0.55203146 -1.1395105 0.33481383 -0.2856987 0.015005155 -0.10270738 -0.8748986 -0.5353185 0.60330653 -0.93314785 -0.238909 1.0166866 -0.87474734 -0.84895444 -0.4743121 -0.61076033 0.2814773 0.4634903 -0.49821445
469 0.22188416 -0.518184 0.41884786 -0.04186999 -0.29391447 0.005637795 -0.7539373 0.09079411 -0.29020467 0.11944038 -0.27791166 0.42079532 2.0838752 0.3802473 0.034832336 0.52648747 0.31002387 0.33841822 -1.145098 -1.1618185
488 -0.63846236 0.12376606 0.4201514 1.1838523 0.42309976 -1.4059416 -0.5886254 -0.18138312 0.33662274 0.69746196 -0.17921612 -0.13824123 -0.18319952 0.30049673 -1.2286955 0.3159974 -0.010650385 -0.57783926 -0.14953871 -0.712306
203 -0.33884448 -1.1681476 -0.6562814 0.44439092 -1.3717023 -0.11768637 -0.11987434 0.33718333 0.10264655 -0.18039067 -1.3123276 0.032283336 1.1686271 -0.07093361 0.079122335 0.48170865 -0.33422053 -0.81363374 -0.24249534 -1.2038618
428 -0.016678007 -0.38091558 0.3686698 1.4293965 0.2507828 -1.2595593 0.061788615 -0.28764576 1.0802943 0.45905563 -0.88861364 -0.10330865 0.4488416 -1.0225885 -1.053043 0.17081504 -0.38983718 -0.43027228 -1.6195089 0.05454443
380 0.48182657 -0.15987737 0.08068455 1.1650062 -1.3460162 0.14487195 -0.5700531 0.057755988 1.4183239 -0.36869445 -1.2336676 0.17036211 1.6575218 0.18272573 -0.08058514 0.12547067 -0.07969844 -0.03602299 -0.07318754 -1.1297506
405 -0.23043376 -1.0963123 -0.5985447 0.22902386 -0.89686584 0.29734316 -0.67067957 0.23489869 0.1432519 -0.11942865 -1.261881 -0.29253942 1.5345148 -0.037680123 -0.34048554 1.0479181 -0.2833642 0.039392482 -0.24673523 -1.1281276
267 0.09571109 -0.3652178 1.009539 -0.20293677 -0.13863635 -0.3413049 -0.5536077 -0.4597332 0.015631914 0.11963092 -0.6463589 0.8762406 1.9261874 0.5503289 0.054339144 0.103574775 0.8454389 -0.13016336 -1.021056 -0.86665887
449 -0.7640515 1.0826415 -0.7941741 0.86775506 -0.52195245 -1.0402801 0.7245871 0.08462402 -0.48438257 0.9932667 0.029733658 0.39499396 1.4307487 -0.56175417 -1.4376116 0.2430845 0.26651695 0.37724015 0.13651745 -0.28433043
448 -0.94350004 -0.5904495 0.19238831 0.4594103 -0.444544 -0.9406081 -0.6044443 -1.9176885 0.63912416 0.87808836 -0.5496573 0.2812848 0.020951176 0.08463723 -0.44381285 0.35044464 0.6487002 -0.021027932 -1.6884063 0.021349123
326 -0.06780087 0.3165008 0.64822876 0.47585586 -1.1874261 0.6693057 -0.71676683 -0.80478114 1.2093346 0.6415225 -0.4533033 0.20593113 1.7911088 0.3561301 0.36463982 0.023833226 0.77192694 0.5046431 -0.65231013 -1.4107015
48 -0.8505387 -0.5480642 0.08331272 0.2118094 0.031246496 -1.2451991 -0.45785183 -1.4938732 0.12313443 0.30249515 -0.5185491 0.060763933 -0.11573193 0.20973352 -1.0108522 1.0645671 0.8051346 0.42607006 -0.89663535 -0.23823884
93 -1.136358 -0.56602514 -0.0023878724 1.6173724 0.43413988 -0.8805576 -0.50498337 -0.40786797 0.17588496 0.5401275 0.4793044 0.50458324 0.061316125 -0.53531235 -0.14650895 0.3401291 -1.1219276 0.17352325 0.15942736 -1.5112666
366 -0.7001398 -0.5991792 0.24730906 0.80881506 0.43364462 -0.76762635 -1.1745148 -1.0380431 -0.116873816 -0.11115146 -0.04332645 0.70655984 -0.2361904 -0.7995453 -0.4868747 -0.72990996 -0.044283625 0.05816898 -0.11324141 -1.5476662
389 -0.8581015 0.22810264 -0.30165234 0.8725763 0.0076265032 -0.1086142 -0.2881704 -0.009437057 0.38376796 0.10916005 -0.83671314 -1.1074022 1.8610287 0.78888476 -0.9297343 -1.200215 0.5374533 0.36124423 0.0010377924 0.04640979
15 0.5162126 0.43781742 0.7712813 1.0804956 -0.5450556 0.8853851 -0.025629966 -0.13220118 0.526876 0.7203895 -0.335389 -0.5489357 1.672907 -0.36068335 -0.37799832 -0.44530714 0.9057242 0.6442694 -0.59306914 -1.6979634
92 -1.4940066 -0.39121744 -0.25171039 1.8969483 0.18055573 0.08435197 -0.31656712 -0.6731151 0.56895393 0.5162536 0.19768955 0.9521497 -0.058495417 -0.11225795 -0.28540134 0.9467357 -0.37007457 0.11897246 0.47308868 -1.7005014
28 -0.5277041 -1.3756545 -1.1801122 0.5050521 -0.49979946 -0.5830448 -0.09599482 -0.24284577 -0.34557924 0.4523943 -0.93107414 -0.02644021 0.55889434 -0.74711365 -0.8089554 -0.35974255 -0.84655046 -0.13661765 0.043767978 -0.36457166
454 -0.72053725 -0.16418333 1.3184102 0.09385066 0.23189084 -0.7070483 -0.4926641 -0.60621864 -0.17486092 -0.5019355 -0.30894846 0.3317791 2.0499752 1.0198904 -0.6326627 -0.1304954 0.417923 -0.2573211 -0.046906076 -0.7675977
311 -0.994776 0.124325104 0.6720095 1.1956518 0.38374212 -0.40863505 0.055187985 -1.0446287 0.43839473 0.68210834 -0.80032027 -0.70322806 0.12270474 -0.78535885 -1.192352 0.3168995 -0.654679 -0.46062693 -0.7809441 -0.070154175
568 -0.52662605 0.18650612 0.57521284 0.64777875 0.53945357 -1.4666713 -0.11273921 -0.12277292 0.20126283 0.0898116 -0.12989995 -0.084578075 0.5265654 0.9710123 -1.4704192 -0.08764471 -0.18960439 -0.2774061 -0.15891038 -0.7400607
668 -0.34045684 -0.20677981 1.118563 0.6434571 0.37489745 -1.210558 -0.18617328 -0.5101612 -0.062294632 -0.25993037 -0.36440638 0.08321762 0.9268846 1.3010967 -1.1704236 -0.06330788 0.005260476 -0.012274936 0.15964302 -0.60563594
634 -0.021148449 -0.83275336 0.036485374 -0.05046655 -0.663154 0.1279804 -0.58269376 0.46229646 -0.23610198 -0.04616537 -0.4496581 -0.06392666 1.9588205 0.034372408 0.018265475 0.6803911 0.070808366 0.55189204 -1.1042963 -1.4272013
444 -0.70796776 0.14149377 0.25311562 0.92406285 0.4995372 -1.1049782 -0.56753266 -0.40425855 -0.03325197 1.2909222 0.13687828 -0.3770288 -0.37309897 -0.66159576 -0.7688942 -0.065288454 0.2641539 0.19426769 -1.1070304 -1.1975343
170 -0.69002825 -0.46094027 -0.35134426 -0.6389315 -0.66215485 -0.89559996 0.6054363 0.3445553 0.13973854 0.9451822 -1.5483055 -0.32751685 0.9891634 0.19927894 -0.09484104 0.32323763 0.018525787 -0.5226352 -0.7255282 -1.5065604
381 0.808547 -0.6954217 0.30722937 1.13661 -0.9823198 -0.0088145705 -0.4719984 -0.021014111 0.8042874 -0.073996775 -1.0714566 -0.008315907 1.9031864 0.47582003 -0.25393695 0.37223095 -0.3333541 -0.070093505 0.1942773 -1.0923501
111 0.0638933 -0.29340494 0.7015721 0.22760169 -0.34783626 0.046776466 -0.8163297 -0.6464713 0.2518495 0.7085457 -0.6179235 0.7049042 1.9815965 0.6265155 0.5010375 0.482348 0.7089826 -0.27379522 -0.9700813 -0.8744745
639 -0.674988 -0.50693 0.061650634 1.5576097 0.53489906 0.072254926 -0.46685058 -1.8401897 -0.14155035 -0.76108193 -0.30617818 0.95965624 -0.25397107 -0.45140517 -0.92949075 0.47670522 0.9379795 0.19195724 -0.28324324 -1.4606766
309 -0.91564864 0.4072907 0.5193539 1.3317503 0.73706 -0.89616585 -0.3741002 -0.64986825 0.19583204 1.3257082 -0.43640992 -0.6079204 -0.06815745 -0.3548778 -0.7237337 0.33333054 -0.52264243 -0.3841034 -0.9014031 -0.58104265
200 -0.45591986 -0.6735667 -0.61448026 0.20210236 -1.400048 -0.04047294 0.029765964 0.3023027 0.15783648 -0.052008 -2.0724213 -0.074302234 0.7599255 0.28867513 -0.21244657 0.8607527 0.10464917 -0.5463474 -0.31681666 -1.3430424
310 -0.9449972 -0.11306627 0.8411184 0.83452463 0.42037344 -1.0734069 0.60302675 -0.76628286 -0.24860205 0.4326084 -1.1914992 -0.2722892 0.07495932 -0.7573188 -1.1008863 0.11106081 -0.49638632 -0.3489816 -0.7556659 0.03579652
318 -0.8540038 0.13944602 0.54424936 0.97562474 0.5573337 -1.468583 -0.35113513 -0.20641024 0.24994719 0.4835245 -0.56414765 -0.18178008 0.032128476 0.36050594 -1.510138 0.5604841 0.17971478 -0.5542737 -0.31774864 -0.30382314
17 0.5574534 0.5962719 0.64509225 1.089748 -1.0666631 0.51020235 -0.26635143 -0.13634394 0.8602861 0.5477173 -0.21420698 -0.5300369 1.7908485 -0.40107027 -0.171975 -0.14801022 0.9547128 0.47526035 -0.6518114 -1.5701741
314 -0.22630045 0.31178337 1.0558752 0.33236527 0.18331863 -0.94485277 -0.23025393 -0.68850076 -0.109301195 -0.42768794 -0.5064917 0.53499746 1.0152171 1.1903104 -1.159677 -0.23521951 -0.07904702 0.08142374 0.22881103 -1.0209036
313 -0.050418653 0.04279116 1.1754668 0.19034508 0.3570256 -0.7840809 -0.19201009 -0.82099164 -0.019176576 -0.41356885 -0.35001716 0.5403644 1.3391418 0.98515093 -0.7751657 -0.19340496 0.03301354 0.09155226 0.32867873 -1.1415678
95 -1.0574557 -0.98503417 -0.16439909 0.90429986 0.07003779 -0.75572455 -0.5766774 -0.58129233 0.15361997 0.3883807 0.12063837 0.6118017 -0.21351132 -0.92022616 -0.23022325 -0.38868546 -0.52938867 0.4363065 0.41563943 -1.4053233
467 -0.7215648 -0.34946123 -0.8652599 -0.46631795 -0.2606249 -0.43206948 1.187395 -0.0025486953 0.3089089 0.75417936 -1.1895083 0.0006856431 0.8623267 -0.40345713 -0.6603076 -0.21949404 -0.0007779944 -0.4891046 0.14359695 -1.6773125
227 -1.9989034 0.61489695 0.80695766 0.9435398 -0.032518562 -0.64644486 -0.3538568 0.31673872 0.20402128 -1.3520492 -0.97726375 0.39812666 1.7372745 0.20783088 -0.5266369 -0.65289235 -0.1650074 0.6464963 -0.2707434 -0.48634726
308 -1.0002533 -0.23524061 0.61136204 1.0610561 0.66897446 -1.2040048 0.09943285 -0.61868185 -0.28301635 0.1696554 -0.97591496 -0.7492571 0.119517945 0.24286748 -1.2075502 0.30808356 0.12518872 -0.46576524 -0.52034 -0.09208267
623 -0.33991253 -0.88177127 -0.3428569 -0.021065028 -0.8418693 0.39248055 -0.48034942 0.6449552 -0.30392528 -0.15141065 -1.1634408 0.25955722 1.736351 -0.22093147 -0.18279347 0.5389166 -0.6624772 0.23643182 -1.2028989 -1.1921539
422 -0.9838981 0.082994066 0.24947283 1.2127175 0.31227267 -0.71284837 -0.21836407 -0.97604084 1.2807696 1.0854344 -0.6929007 -0.3100202 0.41461667 -0.78712976 -0.8309009 0.34798422 -0.5247747 -0.51678723 -1.5287272 0.14505464
565 -0.6645982 -0.66847086 -0.6480177 2.5290995 0.5485117 -0.03336412 0.7799991 -1.3252362 0.48745844 -0.99462336 -1.3220264 0.7803789 2.2397354 -0.5935072 0.8841889 0.27766833 0.87535816 1.4565889 -0.45532507 -0.84620017
279 -1.0836213 -0.41905126 -0.103035234 0.20826718 -0.45414293 -0.92665964 -0.25575855 -1.5312576 0.06820699 0.95248944 -0.5328623 0.33313912 -0.38768476 0.1005727 -0.7505124 0.4197762 0.61389226 0.7085065 -1.3373566 -0.1516409
329 -0.04999465 0.1340783 -0.3019256 0.98140466 -0.9894398 -0.76492405 0.09367147 -0.6916587 -1.0249943 1.4110203 -0.66132176 0.15712658 0.2606454 -0.5900657 -0.8511341 -0.32267734 0.057915825 0.31147996 0.00033448273 -0.071079366
436 -0.20463145 0.0818343 0.40536532 1.3184828 0.83464116 -1.6669462 -0.26447198 -0.04437595 0.5688598 0.6977704 -0.737163 -0.17285486 -0.11653021 -0.17191216 -1.059818 0.7291887 0.32418397 -0.24488673 -0.6724253 -0.73171985
564 -0.45645958 -0.7359103 -0.4537413 2.4856951 0.4389432 -0.15904917 0.86830735 -1.1574458 0.3468745 -0.93466353 -1.4479803 0.85649633 2.2397802 -0.67843205 0.79656816 0.3670851 0.7720505 1.3391541 -0.28177583 -0.7705154
29 -0.6536776 -0.8211224 -0.4683391 0.30075005 -0.9267406 -0.7409064 0.04480493 -0.23916845 -0.48381275 0.6372254 -0.32437155 0.19818692 0.4902187 -0.98915267 -1.662062 -0.12669392 -0.53348863 -0.015590361 0.12805243 -0.18492785
44 -0.25732124 0.15446046 0.962191 0.4047596 0.10393598 -0.7201264 -0.012130466 -0.5070061 0.054240026 -0.28326067 -0.13235952 0.6976409 0.6867371 1.3149043 -1.5511241 -0.09961854 -0.08729684 -0.040158812 0.28972504 -0.9720974
205 -0.33360228 -0.7635495 -0.57434535 0.5506059 -1.3989766 0.15119413 -0.06479591 0.42850047 0.39121717 -0.30959505 -1.5303837 0.10271058 1.0986235 0.33714634 -0.07308634 0.45933345 -0.24627124 -0.8587312 -0.20239483 -1.315366
75 -1.1495392 0.8282033 0.88517314 0.97223014 0.14082552 -0.8351306 -0.4668067 -0.63789505 -0.046539318 -0.92479575 -1.0878223 1.0944968 0.5005848 -0.40183198 -0.2508139 -0.7458491 -0.38468692 0.5480429 0.29401457 -1.2707088
243 -1.7854404 0.6054976 0.44986656 0.92446715 0.27056134 -0.7288644 -0.24664643 0.38697544 0.078465596 -1.1453346 -0.61539614 -0.06564793 2.0069244 0.5121441 -0.5731526 -0.69494796 -0.35167354 0.5512808 -0.61297894 -0.3866258
715 -0.6266185 -0.25285944 0.14267144 1.1845168 0.58115697 -0.30785275 -0.5659667 -1.7186244 0.05636132 -0.6632117 -0.22732313 0.9367559 -0.24139434 -0.58619267 -0.85568464 0.46736997 0.91764104 0.018634992 -0.22459844 -1.6802917
384 0.7755995 -0.5699419 0.43386 1.3861618 -1.0674721 0.34886873 -0.05019313 -0.20455283 0.732076 0.2195224 -0.81623966 0.052850172 1.6220808 1.0898073 -0.67303216 0.21594954 -0.22080828 -0.19908416 0.03869549 -0.67331344
585 -1.041918 -0.63792276 0.028258193 0.5715242 0.22350833 -0.7940997 -1.1051962 -0.7359499 -0.15178062 0.68247074 0.1472899 0.53834695 -0.17068332 -1.0498835 -0.5293842 -0.6337557 -0.40073884 0.24553993 -0.05093587 -1.3887383
598 -0.1912135 -1.0348983 -1.175009 0.13189591 -0.5493357 0.2829865 -0.79058325 0.42462766 -0.34671408 -0.10200982 -1.4507957 0.1861133 1.468531 -0.6524406 -0.41069114 0.39926192 -0.15922292 0.20195602 -0.670942 -1.1050963
262 -1.5952626 0.03993736 -0.21956174 0.56137025 -0.004202196 -0.11017822 -0.48531172 -0.09659308 -0.100049846 -0.08260826 -0.6662525 -0.63194454 2.103544 0.6923581 -0.73139244 -0.9112867 0.5845438 -0.08611321 0.28928387 -0.08455875
569 -0.6996318 -0.5374476 -0.14722964 -0.2166746 -1.1403401 -0.7466151 0.8139276 0.061748344 -0.08297484 0.13736896 -1.9019068 -0.4993618 0.92289364 0.2988648 -0.117806055 0.6007667 0.14452063 -0.95672375 -0.7252604 -1.4301975
272 0.35355076 -0.011175765 0.7646857 0.7546917 -0.60427827 1.0680181 -0.058722902 0.13956994 0.5756332 0.5576869 -0.13570574 -0.35326076 1.7691356 -0.24257171 -0.56687516 -0.2581978 0.7942298 0.6858536 -1.1707354 -1.4909351
702 -1.3618077 -0.48924693 -1.30951 0.006285394 -0.0762765 0.0254017 -0.06940269 -0.6856001 -0.9041742 0.26427868 -0.9735944 -0.6658904 1.3871266 -0.54251355 -0.69280654 -0.41331184 0.005544447 0.6465795 0.04700784 -0.5803562
445 -0.8591496 0.8418309 -0.9162584 1.0640295 -0.49699414 -0.7934535 0.6672786 0.089640826 -0.74150556 1.1124152 0.16962375 1.1380737 1.4844012 -0.22409782 -1.4714059 0.15599875 0.1731227 -0.045003727 -0.2659629 -0.15672374
123 -0.44670853 -1.2738495 -1.0268499 0.10418944 -0.81052643 -0.3882238 -0.03142276 -0.14235923 0.09835491 0.58138305 -0.7409708 -0.02573475 0.7584213 -1.1190825 -0.91741014 -0.033892624 -0.38898775 -0.14909948 0.3539672 -0.75668824
186 -0.7441548 -0.5750739 -0.05610826 0.7136456 0.25333008 -0.96962243 -1.0125855 -0.90978545 -0.12131695 0.3538476 -0.1912293 0.16114883 -0.53143364 -1.0825404 -0.59959793 -0.6288233 0.14768955 0.0043254723 -0.38697857 -1.4348865
216 -0.41475564 -0.55857176 -0.20379546 -0.10437819 -0.6387383 0.25624886 -0.98334926 0.66442597 -0.4121949 0.19312128 -0.6715763 0.46937975 2.1249309 -0.045393657 -0.2210094 0.8129027 -0.08100385 -0.010388769 -1.3462524 -1.0969613
253 -1.5515504 1.0814996 0.7870517 0.9122944 -0.046829075 -0.65145624 -0.74150884 -0.19268143 -0.082393214 -1.1073138 -1.360289 0.7992695 0.66795707 -0.2862278 -0.63051546 -0.6772342 -0.15603651 0.65370274 0.13737366 -0.9370601
658 -0.61541593 0.10222877 -1.3956555 -0.058353864 -0.09095217 -0.56536305 1.7803161 -0.4066484 0.19863066 0.842974 -0.6360855 0.37716627 0.7667003 -0.9593956 -1.1314293 0.3975314 0.28652024 0.097559854 -0.38162708 -1.5733683
492 -0.3228112 0.7348012 -0.12659506 1.8010142 -1.6718565 0.60294604 0.8480022 -0.9587818 -0.3353226 0.040572576 0.10574835 -0.035396174 0.8267764 -0.15154046 -0.06545938 -1.4917572 0.46140587 0.21479204 -1.2775809 -2.2490444
624 0.28938246 -0.27979064 0.5223904 1.3547647 -0.9137381 0.5868381 -0.23151219 -0.21768308 0.07256579 0.48443794 -0.47298378 -0.7085476 1.5973086 0.66992795 -0.6735812 -0.8183165 1.0516016 1.2926987 -0.4225673 -0.84169513
411 0.4968926 -0.7064011 -0.5086528 1.1033248 -0.2032376 0.25848413 -0.22451746 -0.24736847 0.93116534 -0.32190004 -1.495194 0.7997784 1.9938598 -0.26291493 -0.18162508 -0.021486668 1.489514 0.48538947 0.18712232 -0.8053636
112 -0.08175709 -0.15083553 0.6474547 0.40944752 -0.73590803 0.5639614 -0.979499 -0.9406473 0.80645007 0.7840958 -0.6273489 0.31275904 1.9593773 0.52212274 0.5928525 0.3151248 0.717039 0.16202763 -0.44526643 -1.3254346
603 -0.39354944 -0.121506296 0.23509051 0.92735755 0.28184536 -1.4763461 -0.8391361 -0.6863125 -0.0428839 0.75878114 -0.09723315 -0.45682764 -0.5915788 -0.9341365 -0.70431656 -0.21700597 0.3679068 0.15725547 -0.8960625 -1.5752236
358 -1.500427 -0.32891545 -0.06835621 1.9107826 0.2309264 0.47849062 -0.015823819 -0.84068817 0.3011286 0.6481293 0.08708532 0.83450097 -0.24064739 0.19842894 -0.32581645 1.0507891 -0.056367517 0.025479816 0.40678737 -1.9965235
115 -0.0632103 0.3256905 0.49681017 0.387257 -0.8671809 0.6813622 -0.98761874 -0.9585446 0.96807444 0.6262065 -0.89189065 0.74293625 1.7741325 0.2770061 0.6041112 0.044348408 1.0251124 0.60338193 -0.36502555 -1.3001465
535 -0.82935065 -0.05714787 0.54164577 0.9246678 0.7565341 -0.60861963 -0.9895054 -1.3533267 -0.3218091 -0.67964077 -0.07087537 0.9110694 0.33330405 -0.520899 -0.28884026 -0.42920533 -0.16703208 0.2741769 0.0619481 -1.7084913
355 -1.3141986 0.028229604 1.5241959 0.56499034 0.14527786 -0.8350028 -0.47013324 -0.4277523 -0.16248731 -0.532744 -0.4669205 -0.028518895 2.053784 1.1602898 -0.7308743 0.028271282 0.3080508 0.08856621 -0.20592856 -0.19934148
33 -1.37367 -0.84532374 -0.7428221 0.25092542 0.065717496 -0.31117573 0.3186562 -1.0894415 0.14662693 0.25992584 -0.03834596 0.15796718 -0.0015001269 -1.3559805 -1.0661954 0.3402658 0.0933424 0.5001109 -0.16079159 -0.82179695
120 0.16748025 -0.19535097 0.47916067 0.570055 -0.7506483 0.4419606 -1.0648211 -0.7728193 0.74412715 0.9262913 -0.5939673 0.2794664 2.0654984 0.77758944 0.5687153 0.24571948 0.40996087 -0.006695909 -0.4382741 -1.3563889
12 -0.074652866 -0.19103925 0.6507103 1.5093054 0.8267931 -1.6753877 0.13805774 0.08269382 0.69357693 0.75208086 -0.9793596 0.06415313 0.069102585 -0.7655095 -0.70658535 0.44298255 0.4362333 -0.28895107 -1.075484 -0.5420245
222 -1.9204274 0.8985702 0.6809174 1.2562324 -0.1660449 -0.51385003 -0.6015499 0.012275303 -0.091849834 -1.3772521 -0.98408335 0.57979727 1.241459 -0.13555458 -0.7019051 -0.57442987 -0.1236609 0.7707214 0.28769282 -0.6718999
45 -0.92893326 -0.48950487 0.49853715 0.7641812 0.5004202 -1.5568234 -0.14221992 -0.99850845 -0.058424838 -0.026058279 -0.49552667 -0.159379 -0.07302011 0.27641937 -1.2771854 0.3181891 0.8847528 -0.30090094 -0.51667297 -0.17714617
466 -0.7211166 -0.12167459 -0.7435893 -0.68984884 -0.35132414 -0.7710545 0.7278752 0.13856448 0.20099169 0.97720873 -1.1000633 -0.11397999 0.82692796 0.060555793 -0.86035806 0.15817134 -0.16648662 -0.55821484 0.034349393 -1.5683224
645 -0.8016192 -0.67234993 0.23398922 0.45441496 -0.27506572 -1.2101485 -0.8034701 -1.8709296 0.90506524 0.46301574 -0.34511766 0.0990353 -0.07845276 0.13320015 -0.6501666 0.19610779 1.0583632 -0.31056374 -1.0871077 -0.37242368
122 0.6579442 -0.5872432 0.4791587 0.98479337 -0.83833843 0.0381235 -0.8128251 -0.45001554 0.6639074 0.72062474 -0.4097325 -0.12992588 2.0743458 0.98636156 0.11764611 0.30535412 -0.08501381 -0.37680689 -0.26187444 -1.2056512
91 -1.7195274 -0.23647879 -0.12596662 1.4976336 0.3810922 0.2936072 -0.17655243 -0.5532526 0.72626096 0.6986405 -0.043803647 1.1553254 -0.38523945 -0.041808493 0.110542774 0.57290405 -0.3847394 0.5217847 -0.096925005 -1.8847344
73 -0.8212351 0.7921582 0.9049176 0.79603475 0.2325233 -0.7329582 -0.665877 -0.7573889 0.01579856 -0.88762563 -0.8441315 0.9911871 0.5865064 -0.081827514 -0.5837878 -0.8079581 -0.8116477 0.5353707 0.09574957 -1.4129318
542 -0.64983135 0.15543585 -0.3898492 0.36154714 -0.21147017 -0.9661988 0.10003439 0.15284039 -0.6542454 1.0350387 -0.31367537 0.76902336 0.7448265 0.18745758 -1.8055843 -0.12661198 -0.39867958 -0.3714262 0.31544048 -0.4236937
479 -1.4798484 -0.46194872 -0.017280245 1.6812361 0.45808107 -0.60457414 -0.57287073 -0.072877906 -0.30009 0.76159227 0.45717227 0.72420263 0.14165075 -0.28145656 0.47459695 0.26321566 -0.7234634 0.47828522 -0.52517664 -1.7756876
581 -0.81067055 0.46550575 0.22448485 0.86309355 -0.3759324 -0.86554664 -0.3604696 -1.2094582 -0.5881759 1.5380874 -0.8311007 0.52498066 -0.3042173 -0.5894973 -0.4495862 -0.2170823 0.09662317 0.5050322 -0.22736475 -0.0060934587
8 -1.03137 -0.036425665 -0.2422498 1.0411435 0.65599424 -0.6305372 -0.07584058 -0.08367863 0.21795385 -0.23193043 -1.1768566 -1.2320821 1.508044 0.6905731 -0.96784526 -1.160715 0.47467974 0.036197647 -0.25882155 -0.057326153
83 -1.395641 -0.85736835 0.5055404 0.79063493 -0.870024 0.2667562 0.24448016 -1.0727562 -0.36607108 -0.36264807 -0.38152722 1.5510268 -0.26796412 1.0783106 -1.4766123 0.7552162 0.8079386 0.79862136 -0.5624573 -1.1391478
400 -1.7435505 0.4875411 -0.5425712 0.9714517 -0.73947287 -0.13792498 -0.6775899 0.6402261 0.06438468 -0.6911247 -1.0110853 -0.09773008 1.5099906 -0.062200937 -0.74874634 -0.13058168 0.49262145 -0.040090095 0.48766598 -0.16895114
514 -0.71099436 0.47157812 -0.7782694 0.8274764 0.2315879 -0.92174333 0.40145507 0.80188084 -0.45744088 1.2007328 0.12867509 0.89951676 1.2960916 -0.09164205 -1.496144 -0.11097901 -0.13278754 0.12882364 -0.031179508 -0.61909187
319 -0.45494917 -0.1956468 0.6111504 0.5765735 0.6703069 -1.584276 -0.07628194 -0.528972 -0.020930968 -0.09452544 -0.5450792 -0.32957515 0.69355094 0.86421907 -1.4245586 0.13224785 0.36454532 -0.16588742 -0.10874321 -0.31168
249 -0.60625184 -0.37617484 -0.38073418 -0.28860536 -1.1711816 -0.6305952 0.6151698 0.14769422 0.23324038 0.39323905 -2.1221788 -0.07338188 0.8903285 0.2411342 -0.04976621 0.72555125 0.123798154 -0.8621344 -0.5104279 -1.3286425
109 -0.11944647 -0.10700284 0.9956203 -0.039230075 -0.5838881 -0.010237506 -0.645002 -0.98194176 0.507714 0.5104033 -0.71974915 0.6491673 1.8702583 0.42851326 0.49501246 0.37304527 0.8807289 -0.00490809 -0.7087789 -0.97561026
555 -1.0007336 -0.32279077 0.13341641 1.5925403 0.17637783 0.7536956 -0.5035726 -1.5800654 0.27587777 -0.4186754 -0.28587124 0.33981448 -0.34574074 -0.40570605 -1.1551281 0.679513 0.60527146 -0.29808155 -0.13503957 -1.7063268
35 -1.2166268 -0.8711085 -0.6759057 0.31421328 0.33736804 -0.53845924 -0.35256094 -0.81547135 -0.0061485483 0.41132057 -0.19618958 0.42894274 -0.17299025 -1.184907 -0.7197544 -0.5339807 -0.32234815 0.51039916 -0.12463958 -1.0595881
447 -1.510503 -0.031529162 0.025622739 1.500273 0.39853138 -0.32348156 -0.62148964 -0.16262268 -0.038116302 1.011256 0.37476707 1.0183392 -0.2328693 -0.08687397 0.2757905 0.20962846 -0.5442572 0.1590637 -0.82281643 -1.7937988
110 -0.03606157 -0.25284028 0.7453279 -0.107247524 -0.26887518 -0.4149371 -0.47062483 -1.0306286 0.11851786 0.63784975 -0.9123852 0.66754854 1.6413838 0.43021724 0.5303676 0.48971534 0.9677458 -0.26582664 -1.1930884 -0.7145656
600 -1.0306702 -0.47721013 0.26800278 1.0146035 0.3080865 -1.0592834 -1.0178938 -0.7790462 -0.13124043 0.0758531 0.10010838 0.8039625 0.006252103 -0.7749519 0.011162289 -0.3386722 -0.64804506 0.30612877 0.2722586 -1.6048548
71 -1.1874516 1.0674671 -1.1312698 1.089621 -1.0134165 -0.9035045 0.7873167 0.27173662 -0.5057013 0.8532751 0.065190285 1.2208439 1.4599036 -0.06112129 -1.3897842 0.4063151 0.18438236 0.16942821 -0.256634 -0.27066523
386 -0.73173124 0.15875968 -0.02537529 0.8045014 -0.00512591 -1.2961054 -0.64453024 -0.7917029 -0.35977945 1.6378002 -0.14420575 -0.0635959 -0.4309709 -0.613015 -0.22098304 -0.119420566 0.33071867 0.35777855 -0.85898024 -0.99590486
36 -1.4410584 -0.9492928 -0.5615333 0.30039704 -0.077950045 -0.7778116 0.36018342 -0.6380808 0.08432905 0.44035557 -0.057135727 0.2219363 -0.24912289 -1.5443492 -0.98206705 -0.029202959 0.2658614 0.6635278 -0.3141725 -0.80581194
613 -0.8978854 0.3676944 0.07629152 1.2262516 0.41512975 -0.75329983 -0.62748194 -0.41352296 -0.2424865 1.310787 0.39872962 0.12051169 -0.14645936 0.13171324 -1.1426052 0.761351 -0.24080868 -0.14750108 -0.07407435 -1.0749294
202 -0.8297145 -0.6566138 -1.0167174 0.5313419 -0.45634776 0.49974632 -0.6966109 0.53806794 -0.21548297 -0.064676695 -2.0337603 0.111077994 1.3918619 -0.16267106 -0.112983316 0.8437643 0.21464115 0.12843686 0.097636536 -0.97404146
654 -0.9946353 -0.5586901 0.058352027 1.4124607 0.62834245 -0.8549339 0.24001555 -0.66645116 -1.0194492 0.0038234058 -1.3308705 -1.306735 0.55403477 0.4836868 -0.52952445 0.033882104 0.060741343 -0.5756102 -0.4195404 -0.15655844
38 -1.692303 -1.0532001 -0.43549025 0.29990968 0.07484104 -0.73445666 0.012316339 -0.8165141 -0.12282172 0.55865914 0.2915735 0.49853298 0.08670089 -1.1155206 -0.96868944 0.21202919 -0.08726627 0.77788985 -0.45088077 -0.545201
554 -0.61709017 -0.39143845 -0.13551217 1.4798163 0.39168975 0.06686584 -0.78812903 -1.4309564 0.15899776 -0.5815053 -0.21528205 0.50673866 -0.4435797 -0.4336281 -1.0131326 0.3326161 0.92385715 -0.27455667 -0.20311306 -1.7842627
419 -1.0765392 -0.38464543 0.3378394 1.2498498 0.15618668 -0.50775677 -0.14535113 -1.3391874 1.4078052 0.9254931 -0.9674078 -0.38724855 0.5487169 -0.75872606 -0.82391864 0.1950265 -0.20626017 -0.34366947 -1.6752993 0.37985328
385 -1.1827009 0.14414395 0.23523496 1.0226719 0.3763247 -0.7309344 -0.8090853 -0.21286094 -0.43985447 1.6462522 0.45027402 0.3190711 -0.16925609 -0.31806943 -0.43791518 0.106430754 0.09293842 0.09786471 -0.6812032 -1.159905
119 0.44949695 -0.6398163 0.66101325 0.64971626 -0.7743636 -0.09462309 -0.73575056 -0.47877392 0.85016984 0.07220392 -0.67074275 -0.16343063 2.2354295 0.6984365 0.010626944 0.26556182 -0.37546125 -0.090156145 -0.06533953 -1.1224922
81 -1.5421826 -0.20459306 0.55096555 1.8676445 -0.27378753 -0.11666387 0.2867798 -0.7805537 0.96079177 0.19606717 -0.3853712 2.57035 -0.08721616 0.0371517 -0.17226219 0.56503 -0.47943857 1.0859463 -0.5588044 -0.9023765
201 -0.022552283 -1.2503815 -0.6283013 0.41054907 -1.2984926 -0.0119681265 -0.20885384 0.3880758 -0.06250161 -0.14643459 -1.226953 0.0073054316 1.2581584 -0.01006101 -0.24116215 0.7589953 -0.6028306 -0.24778272 -0.35329974 -1.0931983
77 -1.5529016 0.98891455 0.84289056 0.87527984 -0.19139773 -0.7577603 -0.96287316 -0.4254311 0.011572231 -1.027164 -1.0830718 0.74606574 0.6900703 -0.111488745 -0.6587216 -0.85304546 -0.5434974 0.7150936 0.076627865 -1.0301019
496 -0.32492125 0.54182667 0.15509772 1.8322364 -1.6826385 0.13858327 1.0688611 -0.61135155 -0.13238439 0.16490552 0.19248669 -0.19475111 0.81133264 -0.09090285 -0.022845889 -1.5964476 0.32087097 0.36521557 -1.1366154 -1.9834261
42 -0.48351854 0.87862533 0.78096944 0.24323824 -0.009798997 -1.1969074 -0.48448485 -0.2055506 -0.3130879 -0.41381338 -0.5531882 0.63156754 0.6337139 0.86246306 -1.5057908 -0.28617862 -0.16885133 0.098140076 0.01918553 -1.1263661
376 -1.2679974 -0.70601994 0.77897406 0.9429773 -0.1331389 0.8673164 0.05276915 -0.748016 -0.051849358 -0.28331655 -0.43699098 1.4622681 0.027279254 0.8698939 -1.9029983 0.9265635 0.6432541 0.68695533 0.009982756 -1.2315025
669 -0.42167678 0.304176 0.5754923 0.50050133 0.6392199 -1.6489315 -0.29651543 -0.300281 -0.0016829827 -0.05971743 -0.48932764 -0.01321801 0.6390992 0.96050745 -1.3001809 0.20033234 0.19653758 0.12903313 -0.18060724 -0.4972116
287 -1.495441 -0.1275094 -0.2192188 1.5746552 0.18076172 -0.55592674 -0.7298818 0.111250386 -0.5237202 0.6254158 0.7113449 0.8024525 0.28731143 -0.25079516 0.34165892 0.2435841 -0.7914865 0.29938504 -1.1708161 -1.743248
273 0.47119644 -0.2166019 0.801685 1.2029177 -0.8275109 0.8491785 -0.1432741 0.07821301 0.035140038 0.610668 -0.31010315 -0.39497173 1.708683 -0.11880864 -0.7686357 -0.2382664 1.3418362 0.96345526 -0.73674196 -0.89244497
174 -0.9485148 0.011992081 -0.48146573 -0.0062656472 -0.06711326 -1.2474792 0.14403354 0.23025382 -0.085477695 1.1853187 -0.7390833 0.27555606 0.69994813 0.4761109 -1.3985034 -0.021360101 -0.5533476 -0.45537013 0.48573628 -0.5873228
337 -1.0371511 0.40513012 -0.35946432 0.8286744 0.3167351 -0.6760757 -0.6972397 0.46575883 -0.28179505 1.1974379 0.88720906 0.09374864 0.68921477 0.12036146 -1.5413132 0.2951919 -0.09758145 0.1448603 -0.37797147 -1.0533688
382 0.60842115 -0.72037494 -0.027833141 1.089086 -1.3995545 0.1551439 -0.35770756 -0.02365819 0.84035254 -0.22865283 -1.1987294 0.1077244 1.5191525 0.61561173 -0.41121122 0.31834412 -0.19114023 -0.23172256 0.09367011 -1.0470283
231 -1.2017279 -0.8907975 -0.31758782 0.23503563 -0.14741202 -0.639695 -0.29850104 -0.58094585 0.071911134 0.5231748 -0.59512246 0.48693314 0.00028301333 -0.8120131 -0.5542419 -0.42725998 -0.6145868 0.9928811 0.6191091 -0.83056575
270 -1.9006256 0.6017859 1.1863707 0.8416433 0.1391931 -0.9599067 -0.21994025 -0.07777597 0.11875452 -1.0408859 -0.7399045 0.02655551 2.3505623 0.65654474 -0.31353238 -0.15582237 -0.12696576 0.55566806 -0.41532925 -0.39740032
643 0.29792836 -0.55549896 0.0044942605 -0.07587656 -0.6835639 -0.14426528 -0.55008745 0.6022378 0.20171794 0.15199496 -0.68205726 -0.17191334 1.98178 0.071657695 -0.06301234 0.51808435 -0.21241918 0.4498367 -0.9825984 -1.5370048
597 -0.21936563 -0.9742457 -1.2163563 0.2116551 -0.7135253 0.18816884 -0.81409526 0.07163208 -0.83737856 -0.008398417 -1.5573502 -0.13406059 1.357929 -0.6375265 -0.41226935 0.08734454 0.0034088683 0.27763832 -0.2082521 -0.9604835
49 -0.72583854 -0.41403762 0.068150274 0.37490356 -0.36053306 -1.1185324 -0.48199686 -1.7676666 0.13038401 0.6168637 -0.54824 0.34542713 -0.16159719 0.31435645 -0.7056046 0.6343831 0.9389275 0.11599662 -1.3311082 -0.14006338
176 -1.1531454 -0.6556123 -0.5684867 -0.25926882 -0.04799355 -0.5930782 0.23525356 0.10427401 -0.3562855 0.9990306 -0.82669723 -0.27343518 1.2093976 0.054410044 -1.1083246 -0.5482525 -0.7019406 0.51764053 0.51787597 -0.7361004
397 0.78069454 -0.63020927 0.2553231 1.194739 -1.0017651 -0.0017363562 -0.39102668 -0.5365565 0.49444956 0.0854343 -0.6400625 -0.3823745 1.8437129 1.1084518 -0.4080497 0.05083022 -0.21971479 0.014559361 0.21760054 -0.9445307
567 -0.89516073 -0.87386173 -0.5063031 2.659177 0.58034784 0.07204283 0.9548111 -1.2794753 0.23327212 -0.8711668 -1.2130189 0.4959597 2.2222304 -0.5072234 1.0012019 0.4614367 0.7026019 1.5544364 -0.41114533 -1.0166063
264 -0.06572547 -0.43844172 0.66742194 0.6395478 -1.1585758 0.8248191 -0.07630286 -0.5392821 0.80917394 0.81311184 -0.024602693 -0.2744216 1.6496345 0.33606854 -0.57176226 -0.75736886 1.3781174 1.2918352 -0.68726707 -1.3074592
82 -1.7060106 -0.9383342 0.09204941 0.30541053 -0.9452286 0.011420499 0.5846908 -1.0126244 0.3966378 0.08022975 -0.5168776 1.0445353 -0.5629457 0.7124066 -1.2957724 0.42594245 -0.04244455 1.3405066 -1.0979266 -0.9028981
695 -0.68323004 0.52584183 -0.578362 0.86486864 -0.83836114 -0.94604576 0.33478335 -0.094633944 -0.8575547 1.162258 0.112488665 0.59649485 1.1750538 -0.63825864 -1.4870191 -0.034793336 0.19289742 -0.31886968 0.1303695 -0.11682506
333 -0.2619263 -0.35012892 -0.013659701 0.5578337 -0.9011617 -0.33711454 0.33802918 -0.5234125 -0.45498976 1.5175338 -0.6878784 -0.21075802 0.45412838 -0.68838495 -1.0460303 -0.55857027 -0.6814519 0.36114648 0.46145818 -0.39723548
714 -0.5495837 -0.19589145 0.31542516 1.182766 0.6294487 -0.29924986 -0.8700883 -1.505593 -0.026035976 -0.6103043 -0.040962067 0.80752414 -0.16966718 -0.7854286 -0.81480515 0.014221909 0.6622027 0.02182113 -0.21288697 -1.698886
587 -0.925885 -0.38919836 -0.05653254 1.1096921 0.48908657 0.024726937 -0.18036734 -0.8854805 1.3445325 0.97183216 -1.1406217 -0.5758129 0.5286413 -0.83911085 -1.0980831 -0.055327583 -0.513738 -0.5408716 -1.3045361 0.119016945
347 -0.90681744 0.50480384 -0.8110248 0.95135313 -0.30222613 -0.9956466 -0.71026003 0.76243246 -0.41011146 -0.24829191 0.70290387 0.9036865 1.4507313 0.3454634 -0.42183566 0.41368255 -0.14381954 0.5742501 -1.3520988 -1.3197073
482 -1.2294323 -0.3994661 0.57347995 0.93464565 -0.43737346 -0.7961474 -0.14200887 -1.2048217 1.1010846 0.4930885 -0.79657733 -0.41884562 0.39108837 -0.84379804 -0.7697651 0.22831169 0.32496706 -0.3447233 -1.6722699 0.5704573
500 -1.3553874 -1.0582615 0.10446267 0.5536311 -0.14366181 -0.6632571 0.43371022 -0.7063425 -0.21834512 0.3340416 -0.06377738 0.13920534 0.1423462 -1.5202348 -1.2593188 0.048010483 -0.3307533 0.023688994 -0.29009864 -0.16804807
135 0.120767236 -0.29098848 0.44396055 0.1892102 -0.021607162 -0.32293582 -0.06661027 -0.9605086 0.12638488 0.5400583 -1.0536624 1.0543857 1.9705744 0.60882705 0.5928177 0.27280143 0.8977872 -0.24259381 -0.9778221 -0.4938686
34 -1.0438683 -0.5265863 -1.5358285 0.06191184 -0.11556713 -0.4237777 0.88983476 -0.91010934 0.3841544 0.34839568 -0.30251592 -0.10744471 0.49945801 -1.3035685 -0.84156513 0.017221222 0.30710527 0.41816092 -0.29375666 -1.0290657
490 -0.65064865 0.20826462 0.3083797 0.48838466 0.44583213 -1.4250182 -0.26841432 0.026640778 0.19246551 0.8572016 -0.23314913 -0.027597161 0.3992597 0.57343066 -1.4974641 0.27083427 -0.19954206 -0.5674951 0.11561482 -0.7737504
495 -0.3976581 0.3159945 0.21280882 1.7595987 -1.8468013 -0.10260684 0.9383906 -0.6112507 0.038941603 0.2520994 0.24399568 -0.27795053 0.6471074 0.050950427 -0.2139471 -1.6676521 0.59143245 0.6228473 -1.2146629 -1.5957209
76 -0.98603684 1.3414195 0.6582036 0.72027826 -0.0022175412 -0.97513777 -0.54532576 -0.15770465 -0.14286876 -0.8868193 -0.7055725 0.6712975 0.6719041 0.63829 -1.1464968 -0.43645546 -0.47184876 0.6691243 -0.13537705 -1.2548896
489 -0.9174995 0.43452865 0.11400488 0.72495395 0.2924112 -0.9034777 -0.51106185 0.100534394 -0.5156538 1.2564981 0.3891042 0.13739303 0.4444414 0.42570406 -1.538397 0.46436736 -0.18064377 -0.4486279 0.051619932 -1.1504579
90 -1.2674235 -0.7418163 -0.38414764 1.7586745 0.3178951 -0.04477507 -0.31179634 -0.3773034 0.4513623 0.51955837 0.15716253 0.80022144 -0.36221224 -0.47670823 -0.42809582 0.3459873 -0.748867 0.30577913 0.31014982 -1.76887
503 -0.47398722 0.07863419 0.6256794 1.6422348 -2.0295603 -0.1498194 0.40160656 -0.250237 -0.056499384 0.15410846 0.10739289 -0.574548 0.7997113 -0.201731 0.09985543 -1.3602031 1.0629616 0.99272794 -0.64973915 -1.9632851
304 -0.81109214 0.3735339 -1.4856509 -0.09112574 -0.22752862 -0.31861272 1.8480024 -0.09632278 0.47726417 0.8446133 -0.5305691 0.7349737 1.1004112 -0.44693047 -1.4601047 0.32628268 0.267645 -0.079025716 -0.55476224 -1.5131975
142 -0.7141845 -0.6118875 0.30414242 0.88417 0.15711996 -1.395562 -0.91785425 -0.853919 0.26621598 0.070157796 -0.2854597 -0.1533173 -0.7338323 -0.5493172 -0.7122828 -0.23440176 0.7810722 -0.42945287 -0.6680485 -1.4388003
72 -0.9644716 0.38821596 0.7006373 0.91024834 0.61207145 -0.70158553 -0.7054084 -1.1215726 0.01207954 -0.6576491 -0.32314783 0.9975557 0.40667677 -0.23375332 -0.2714733 -0.7033893 -0.5211145 0.51991314 0.27298602 -1.6530198
184 -0.55939096 -0.5326376 0.17652257 0.9774081 0.39812648 -0.661631 -1.1530356 -1.1722298 0.09128621 -0.11627667 -0.30255818 0.17856191 -0.5759981 -0.593991 -0.8713101 -0.18761936 0.90577 -0.48298106 -0.45412716 -1.4243939
395 0.28304276 -0.089628704 0.047461204 1.2634416 -0.23941372 0.44477236 -0.44608244 -0.12240425 0.2011967 0.32537606 -0.9719227 -0.44658935 1.6807042 1.1419566 -0.5855437 -0.8966064 0.43005255 1.1217184 0.15462056 -0.34587744
41 -0.33291003 0.7518148 0.802014 0.3481289 0.28599527 -0.8723243 -0.20808941 -0.7711875 -0.005752298 -0.66866064 -0.58112127 0.8800588 0.6868716 0.6625538 -1.2456825 -0.4591078 -0.4394499 0.19646454 0.19872679 -1.4423138
300 -0.7974176 0.7517257 -1.1522539 0.89263105 -0.28377342 -1.0658523 1.07225 0.32035524 -0.0479486 1.0433117 -0.039970294 1.0821937 1.3268342 -0.20468003 -1.5378094 0.015681434 0.047690876 -0.037162736 -0.054653645 -0.4715933
427 -0.65527 -0.45779216 0.6617699 1.1833453 -0.22700396 -0.7792635 0.14630987 -0.6731736 0.77151364 0.2793891 -0.7836805 -0.4203315 0.4200263 -1.1200523 -1.0425171 0.17426375 -0.20475689 -0.3616755 -1.5590115 0.43456712
322 -0.8417619 -0.6255421 -0.9056524 0.59050685 -0.5283695 0.5933162 -0.87009865 0.6470493 -0.28360692 -0.04926267 -1.9331319 -0.027542675 1.4401511 -0.35608956 -0.36548656 0.8712335 0.20029373 0.42812258 -0.012966113 -0.8190496
484 -0.7604268 -0.75181365 0.18281385 0.1627067 -0.30564892 -0.98597926 -0.52020687 -2.0615816 0.6820823 0.82455754 -0.6146374 0.24346155 0.42021608 0.17519656 -0.103339985 0.49369046 0.8055282 -0.2585534 -1.5043068 -0.15014341
256 -1.450349 0.23839912 -0.17775252 0.9217021 0.15323594 -0.23984589 -0.1900505 0.4676683 0.04022317 0.09862346 -0.48978707 -0.57705003 1.7808273 0.3999484 -1.0513072 -0.9822944 0.83443195 0.03440719 0.42469683 -0.098894574
306 -1.1611418 0.105728365 0.81148463 1.0934778 0.61801755 -0.988039 0.11245266 -0.8199965 0.024760237 0.5493666 -0.69197124 -0.83497995 -0.017019637 -0.27811384 -1.2925477 0.30408397 -0.264097 -0.54112625 -0.7039733 -0.38355175
415 0.041635986 -0.41801438 0.5423548 0.07699061 0.0074363737 -1.1848044 0.3360883 -0.4491542 -0.5534948 1.3889165 -1.4286331 0.18750761 0.5715862 -0.4073933 0.49724004 0.40609813 0.30258536 -0.17001462 -1.2291054 -0.71187323
171 -0.8237313 -0.22662263 -0.4511892 -0.48695546 -0.7765419 -0.9265956 0.7002644 0.3620163 0.06100848 0.9586181 -1.5507097 -0.044343527 0.7944002 0.19233742 -0.031215899 0.41240403 -0.10454375 -0.75739086 -0.69619477 -1.4979465
374 -0.5223804 -1.1036017 -0.36213508 1.6266677 -0.03534989 0.32883072 0.48545557 -1.2497705 0.066303164 -0.30190426 -0.6188928 2.1229823 -0.11858016 0.9547998 -1.3174294 0.5260691 0.16916609 0.6062063 -1.0125548 -1.0204734
121 0.1689198 -0.6121858 0.51659775 0.55365115 -0.61245775 0.37163192 -0.9298606 -0.51122725 0.51372194 0.82999665 -0.3052633 0.14506865 2.2527049 0.7727853 0.34514868 0.6591181 0.42065147 -0.16384241 -0.63489175 -1.1598433
317 -0.5053954 -0.13236885 0.60615104 0.60849977 0.8162104 -1.6418973 -0.20332259 -0.462566 0.12217443 0.10119497 -0.7545396 -0.10975476 0.12580012 0.40712506 -1.237739 0.63541377 0.636241 0.19599827 -0.6968186 -0.21837337
245 -1.416176 0.3871458 -0.07944695 0.89978325 0.035682667 -0.45840332 -0.10041653 0.40825844 0.012063596 -0.2915457 -0.9169353 -0.93485796 1.917998 0.346931 -0.91671044 -1.2353622 0.26039356 0.19304638 -0.06013933 -0.07665733
360 -1.4014815 -0.48433447 -0.27738106 2.168563 0.2950754 0.6013935 -0.11138228 -0.60702795 0.40649074 0.45441255 0.1359287 0.8808233 -0.38197854 -0.02960215 -0.60042596 0.4854775 -0.26921892 0.37205458 0.23881932 -1.892638
553 -0.7836271 -0.5326894 -0.057961155 1.6808443 0.09486529 0.34183955 -0.6461045 -1.576958 0.16055726 -0.6189796 -0.02435266 0.5680305 -0.34479746 -0.23684649 -0.9716094 0.5989916 0.8562729 -0.22888611 -0.18352082 -1.9344363
390 -1.3688676 -0.19336638 -0.35997078 0.43278262 0.14848912 -0.24621719 0.06956951 0.029765971 0.10362172 -0.038515866 -0.93115616 -1.1100979 1.7854303 0.5102254 -1.0599207 -1.1278013 0.22605684 0.2696357 0.12792632 -0.20888276
305 -1.0997856 0.25372532 0.5907412 1.3342549 0.54586375 -1.1383142 -0.036178015 -0.5878953 0.05431218 0.70165426 -0.41815376 -0.7103352 -0.006282405 0.12573193 -1.3285292 0.54011744 -0.40282896 -0.8180741 -0.46723118 -0.55807734
594 -0.37676182 -0.80526704 -1.108667 0.42643234 -0.42078042 0.54587644 -0.9532552 0.43426687 -0.2009843 0.0740276 -1.8459294 0.3513252 1.4693112 -0.64710885 -0.25762686 0.29047394 0.620688 0.4376182 -0.03702131 -0.77554685
541 -0.6450009 0.20771733 0.32771233 0.640224 0.47845808 -1.5455585 -0.28293902 0.15645821 0.0728728 0.63788414 -0.434169 -0.121763565 0.4822981 0.59385544 -1.5589957 0.17172761 0.16091216 -0.27954 0.28990304 -0.53708667
254 -1.2696114 0.7365802 0.8958357 0.7769498 -0.52900016 -0.95535237 -0.5617406 -0.90641165 -0.09205666 -0.92103994 -1.2677995 0.6993512 0.44585547 -0.38008147 -0.5259134 -0.6227969 -1.0381579 0.6531141 0.16048233 -0.8227153
412 0.50374335 -0.7659811 -0.16712868 1.0901418 0.038765814 0.43087456 -0.44257203 0.21818197 0.24243218 -0.09765008 -1.3946179 0.6073134 1.8971046 0.18210241 -0.49512327 -0.6565295 1.5221336 0.6569027 -0.063617654 -0.6134513
521 -1.597434 -0.105084494 -0.71322656 0.7756294 -1.117152 0.27001128 -0.8476036 0.77104175 0.2646439 -0.5976622 -1.3750824 -0.21211657 1.8069178 -0.190896 -0.61967456 0.027512852 0.28524995 -0.44161046 0.011273565 -0.26592302
586 -0.99720293 -0.21923748 -0.5074185 1.3346016 -0.1256973 -0.13570878 -0.45138478 -1.4785517 0.33017236 -0.11946375 0.31879607 0.558994 -0.05004279 -0.6548092 -1.0317446 1.4618183 0.34366196 -0.12072154 0.16573298 -1.7287368
387 -0.779054 0.21415316 0.14860344 1.0488453 0.32710612 -1.0917722 -0.40809378 -0.8999296 -0.1343435 1.6060731 -0.057679765 -0.2900168 -0.4966314 -0.5427758 -0.4273329 -0.0809274 0.097559385 0.13788192 -1.0456773 -1.0313536
64 -1.3114693 -0.3057408 -1.7742763 0.024436424 -0.42345542 -0.30390447 0.434856 -1.3273307 -0.26108146 0.25486794 -0.420394 -0.38851243 1.1998539 -1.056284 -0.8880167 0.029309763 0.39426255 0.7546941 0.019682994 -0.74712855
540 -0.937022 0.11676091 -0.42373455 0.13762853 -0.07869934 -0.9263972 -0.07459889 0.2696473 -0.29923964 1.189677 -0.5714638 0.12174908 0.8424053 0.38726124 -1.4964911 -0.13889877 -0.64459723 0.14832903 0.611163 -0.60215694
37 -1.5349004 -1.1509877 -0.34474868 0.04240914 -0.13643165 -0.67615086 0.06438016 -0.78085726 0.052279714 0.47925436 -0.29289162 0.5173566 -0.11094723 -0.90854096 -1.0488675 0.25882816 -0.007976643 1.1218749 -0.21589468 -0.4890065
525 -1.4479133 -0.9770044 -0.6691608 0.11333519 -0.42287904 -0.83519626 0.27801275 -1.0817608 0.046778336 0.33990905 -0.042323902 0.3400148 -0.16455495 -0.8423682 -0.91427183 0.33100945 0.28987393 1.0375574 -0.5325338 -0.51740485
204 -0.5851631 -0.7645918 -0.6519518 0.24324226 -1.3669194 -0.08479999 0.05834666 0.17326905 0.4078721 -0.029664477 -1.9273319 -0.19743364 0.57250744 0.6081364 -0.054745607 0.61714876 0.11949619 -0.7894202 -0.56206816 -1.5791907
148 -1.030303 0.8360339 -0.7742818 1.0546411 -0.29105055 -1.1667595 -0.5150118 0.57700723 -0.4880848 -0.7081764 0.4425767 0.71605796 1.4339275 0.5053883 -0.63129735 0.41555068 -0.2363977 0.5181804 -1.5169662 -1.2458916
66 -1.1421317 1.0759938 -1.450195 1.5336318 -1.0974574 -0.7959929 0.023509802 0.7743199 -0.5072223 -0.15207727 -0.16045122 1.1531067 1.3810763 0.41256765 -0.7349457 0.5384047 0.30010134 0.38888684 -1.1056921 -0.40971515
94 -1.0960758 -0.42142597 -0.6349652 2.1081746 0.40325704 0.29814237 0.024064362 -0.6885806 0.3569363 0.5310202 0.084667444 0.9785278 -0.27289158 -0.06513026 -0.62060136 0.92336303 -0.37551838 0.06716343 0.21298507 -1.8238641
169 -0.650252 -0.6180652 -0.12790996 -0.70554596 -0.50665903 -0.6368611 0.40057844 0.640309 -0.20924854 1.1113851 -1.1948652 -0.43508476 1.5140822 -0.049672257 -0.018189816 -0.046851568 -0.37969932 -0.08475201 -1.2597375 -1.4773152
13 -0.21950892 -0.47832564 1.2001702 0.63582927 0.740114 -1.2816402 0.43989152 -0.28460416 -0.11575894 1.0218627 -1.6340475 -0.06483819 0.2640481 -0.62827104 -0.54443866 0.49472207 -0.18732472 -0.27583802 -1.1061984 -0.5653847
418 0.16155659 -0.52945745 0.5191624 0.08462973 -0.23646407 -0.55162364 0.80334777 -0.8409358 -0.29902565 1.3844842 -1.691736 0.48813623 1.0308557 0.02552482 0.35275087 0.38260984 0.69735765 -0.49659896 -1.0388808 -0.69673586
235 -0.4290911 -0.81731313 -0.56094927 0.039911836 -0.68691003 0.2651403 -0.8769083 0.7115296 -0.35599688 -0.14408635 -0.7755977 0.24508199 1.9155806 -0.18950659 -0.29836914 0.7628265 -0.3125514 -0.012272842 -1.4277674 -1.2444586
114 -0.20772567 -0.042974792 0.773143 0.38025716 -0.9858965 0.5708959 -0.86551726 -0.8475124 0.8875224 0.7775725 -0.6244157 0.4184513 1.8294629 0.35632545 0.7021644 0.23667908 0.75756603 0.42220467 -0.47932345 -1.3233532
560 -0.88755107 -0.14798245 0.77181876 1.1044345 -0.18767531 -1.0599196 0.32025263 -0.7535289 0.69607455 0.14276534 -0.85893583 -0.6271312 0.16325498 -1.0322617 -1.195217 0.09170351 -0.2342721 -0.43877456 -1.2961859 0.18470788
497 -0.028362757 0.968104 0.101941384 1.767299 -1.7027122 0.79418766 0.8950535 -0.9802246 -0.27334478 0.1567771 0.048276335 0.14073804 1.0423168 -0.24871531 0.058600165 -0.8610813 0.6144362 0.21618982 -1.2575421 -2.5035152
433 -0.6523668 -0.14153619 0.46126387 1.091088 0.40849644 -1.5408181 -0.29578352 -0.33104017 0.2084849 0.44185305 -0.16830942 -0.82277375 -0.47159326 -0.9082325 -0.82262665 -0.07219196 0.64452744 0.3315345 -1.1120661 -1.1639212
361 -1.4620868 -0.3109477 -0.10714318 1.7452084 0.49277157 0.69542664 0.15331493 -1.2339286 0.31324255 0.32177627 0.22873236 0.6393655 -0.048700426 -0.11812497 -0.83273536 1.0252805 0.40930974 -0.17896953 0.2775299 -1.6295482
652 -0.24286258 -0.475616 -0.08114464 -0.2917695 -0.6216618 -0.3170694 -0.5467708 0.96052516 -0.030926839 0.6592702 -0.77010894 -0.11431766 2.0290701 -0.0053056492 0.10190113 0.35449737 -0.31248885 0.30744317 -1.5288393 -1.663059
18 0.20458657 0.86783075 0.7911463 1.5131545 -0.7037124 1.0731891 0.329667 -0.0061189584 0.24329394 0.5899355 -0.20835711 -0.42733446 1.4569235 -0.3659676 -0.14510141 -0.3756912 0.7652821 0.35166106 -1.0245743 -2.0760098
424 0.5362029 -0.5536186 0.41821706 0.34979722 -0.20431013 0.4528759 -0.26486817 0.31458268 -0.10903003 -0.03461277 -0.8215539 0.43830824 2.0683355 -0.016899992 -0.30209538 -0.29106745 0.8408418 1.2869252 -1.254205 -1.152272
239 0.055269085 -0.42878634 0.17571484 1.2254014 -1.4330955 0.10469911 0.14578694 -0.19803981 0.38449818 0.84022146 0.14764684 -0.39748135 1.2649608 0.7426327 -0.2756281 -1.1938049 1.5270581 1.2319955 -0.49729517 -1.5805461
40 -0.28438833 0.8460672 0.8512932 0.4565494 0.15658788 -0.8834683 -0.45007172 -0.35151955 -0.24038412 -0.7180371 -0.55609685 0.7574465 0.77071804 0.9892942 -1.4078059 -0.24264885 -0.3099134 0.23551066 -0.086240835 -1.3915405
642 -0.72655916 -0.89492506 -0.48531455 0.091899745 -0.6285796 0.41579893 -1.1929679 0.8383171 -0.10860034 -0.038555402 -1.0835329 0.29351842 1.9046127 -0.28049704 -0.26863983 0.5008616 -0.22788225 -0.16315727 -1.0905889 -0.9936304
608 -0.9870691 0.4849628 -0.80253655 0.913468 0.32721466 -0.6743325 -0.23681422 0.6203452 -0.45994437 1.1822731 0.6518162 0.48222527 1.18711 0.011483872 -1.4714979 0.07142115 -0.11573358 0.14588998 -0.4290035 -0.71348774
74 -0.7108088 0.568833 1.1410142 0.80257106 -0.08083976 -0.94559765 -0.32885703 -0.99108654 -0.15562694 -0.6896817 -0.8958941 1.0352371 0.2824688 -0.1169177 -0.49027714 -0.6074188 -0.8524237 0.27961075 0.24248907 -1.2981832
617 -1.2467378 -0.8099022 0.6657864 1.0137575 -0.3443759 0.18540405 0.2995069 -0.9177027 -0.4387192 -0.4343605 -0.35350937 1.3073498 0.0031973259 1.2965332 -1.759871 0.8408191 0.9499185 0.5570771 -0.34194443 -1.0952588
144 -0.7706176 -0.56147236 0.65099853 0.91990155 0.5526981 -1.5167634 -0.3481156 -0.6421476 0.16238695 -0.010718731 -0.38054678 -0.35507292 -0.21734262 -0.2671326 -0.8598379 -0.10993348 1.0885105 -0.40829465 -0.9736083 -0.6457282
388 -0.65174854 0.054186024 0.14677086 0.9577084 0.2892954 -0.9601073 -0.87834895 -0.9959455 -0.4903543 1.4424933 -0.14390174 0.15471403 -0.3766976 -0.6495026 -0.40142822 -0.38729414 -0.098453805 0.43404695 -0.56590545 -0.94476444
89 -1.29101 -0.548381 0.073029645 1.3710014 0.4130418 -0.44152403 -0.5692246 -0.36333996 0.21813694 0.6948557 0.14053236 0.94392943 -0.09766471 -0.40280133 0.337344 0.09419273 -0.76776785 0.268176 -0.043523777 -1.8466967
524 -1.4810268 -1.3840044 -0.2552481 0.33374375 -0.32250997 -0.72851807 0.12929584 -0.5670519 -0.35195988 0.4819208 -0.11134516 0.45329082 0.105805404 -1.3541543 -1.1662087 0.01181895 0.024065092 0.40565306 -0.12779792 -0.31620905
543 0.6906752 -0.2589901 -0.014093142 1.4073201 -1.1998165 -0.40195298 0.15099017 -0.7864618 -0.52601177 1.5242255 -0.63083684 0.14652643 0.35016704 -0.13925505 -0.83487576 -1.0425011 0.11401065 0.5504546 -0.110211655 -0.30178815
212 0.058903832 0.20297557 0.80347365 2.0171359 -0.7575965 1.2405515 0.97458667 0.52489144 0.31147757 1.1043018 -0.47426382 0.55627465 0.89653283 0.2109053 -0.6780273 -0.65213984 0.4896898 0.15164605 -1.6021702 -1.4945325
330 -0.2942753 0.088515766 -0.4696841 1.0554342 -0.48268366 -0.5104882 -0.31198016 -0.882193 -1.5268931 1.4536753 -1.2087688 -0.1392565 0.07446472 -0.43069974 -0.5120171 -0.51558256 0.45697284 0.07450344 -0.42177445 -0.1200945
139 -0.012137751 -0.48914385 0.3604453 -0.09838674 -0.3075412 -0.7256918 0.06522868 -0.9199103 0.046876732 0.87009716 -1.2357198 0.73906446 1.287583 0.4844047 0.54275 0.23918596 1.0149671 -0.7351551 -1.2271799 -0.7458134
126 -0.6162944 -0.9136052 -1.2680418 -0.37825298 -0.68365383 -0.6889498 0.5900694 -0.82210463 0.51332533 0.734205 -0.76571506 -0.31131327 0.9661044 -0.9027791 -0.85076416 -0.3410488 -0.2136213 0.012408727 0.16951872 -1.2119718
616 0.36549202 0.003105492 1.0106138 1.4196296 -0.73779106 1.3820866 0.4312965 0.2992539 0.36179513 0.9232822 -0.26122406 -0.009087689 1.6064435 -0.2544695 -0.7536326 -0.14450547 0.75215405 0.5000969 -1.2461933 -1.2832679
562 -0.42553368 -0.76532835 -0.455739 2.3269663 0.3426876 -0.19663389 0.8547959 -0.98945093 0.3865725 -0.7672601 -1.4047953 1.1802337 2.225568 -0.75367 0.7765388 0.035405755 1.0852554 1.2345318 -0.15316294 -0.7267938
137 0.07194191 -0.2719632 0.7515544 -0.024160637 -0.2888543 -0.45973012 -0.45682594 -0.8079346 0.17111503 0.7812449 -1.0383716 0.68483627 1.6298959 0.47276455 0.53774595 0.2835937 1.1565517 -0.40563598 -1.1501073 -0.837056
534 -0.70891964 0.065936394 0.55562925 0.8531268 0.79136515 -0.47594205 -0.9280542 -1.5962794 -0.08990185 -0.7145047 -0.014618785 0.87796426 0.26648754 -0.6098444 -0.6280473 -0.41998836 0.076798454 0.19054751 -0.109245114 -1.7981905
375 -1.2804086 -0.84755653 0.4084811 0.80431783 -0.66678756 0.51219964 0.3463728 -0.89048725 -0.22951908 -0.23819624 -0.49388278 1.5027695 -0.1571527 1.1080298 -1.7282618 0.95871264 0.69629997 0.90309113 -0.4919601 -1.2207022
704 -0.86254036 -0.5339261 -1.2609786 -0.009734594 -0.41442508 -0.00939441 -0.60221833 -0.31591874 -1.1869743 0.105418645 -1.6180766 -0.5784402 1.3027774 -0.5294815 -0.6081475 -0.30253038 0.0670703 0.6893844 -0.12390439 -0.6972839
160 -1.6280001 1.3225516 0.7736101 0.8149808 -0.08438992 -0.8599099 -0.13642037 -0.3483271 -0.011156778 -0.93289095 -1.6749109 0.9797036 0.6633437 -0.6712871 -0.16719806 -0.69917756 0.36094844 0.5435485 0.3982964 -1.4701595
58 0.098373376 -0.94072956 0.5562143 1.6282972 0.18416521 -0.64696205 0.5426423 -0.41989982 0.8266818 0.60545754 -0.84865206 -0.14514378 0.62501276 -1.0252618 -1.0461555 0.013279169 -0.31117275 -0.36154425 -2.0298212 0.047317863
27 -1.2477297 -1.2076416 -0.51240313 0.14525746 -0.5604337 -0.55731624 -0.03687849 -0.3511155 -0.5640409 0.45278746 -0.4788727 0.5243713 0.63120747 -0.9983755 -1.365898 -0.2880904 -0.5824093 -0.09683386 0.20430692 -0.22402146
373 -0.8564885 -0.9323448 0.47468272 1.1039782 -0.20151356 0.43707472 0.48375815 -0.8088 0.037588492 -0.47033733 -0.40117848 1.5875019 0.031550094 1.2830302 -1.8756094 0.70445925 0.51916504 0.73662454 -0.46067908 -1.2158148
286 -1.8224893 -0.27361655 0.035686266 1.5474951 0.22744223 -0.51311225 -0.69034153 -0.10395177 -0.4734823 1.0433954 0.58696765 0.7154688 -0.079879396 -0.072393045 0.34289962 0.114544384 -0.5176152 0.19140956 -1.2038065 -1.6544383
298 -0.16732028 0.049919363 0.7096197 1.8345146 -0.92519045 0.8940259 0.7898294 0.45704502 0.25866023 0.9505584 -0.651455 0.802175 0.31331205 0.03114774 -1.0828371 -1.4762043 0.24170005 -0.053060718 -1.8471981 -1.4223953
116 0.74435645 -0.4581142 0.35227367 1.1599978 -0.8687256 -0.017946227 -0.5706649 -0.61170304 0.5354324 0.37532008 -0.54916644 -0.21493062 1.9584682 1.0567385 -0.34504148 0.26955795 -0.16069682 -0.021422496 0.17995581 -0.905027
327 -0.01779517 0.36294004 0.4943754 0.5756125 -1.1396261 0.5769939 -0.5032611 -0.9079642 0.996071 0.8723777 -0.2843003 0.16794729 1.8812814 0.055951055 0.41416 -0.0035729453 1.0439576 1.0103124 -0.54252076 -1.3614054
593 -0.9808184 1.0167091 -0.5300891 1.2874414 -0.11772205 -1.2969202 -0.41984835 0.369832 -0.3394937 -0.8857082 0.3585496 0.61395097 1.5333476 0.6375948 -0.8314017 0.34821713 -0.5355596 0.6728839 -1.417313 -1.0832366
655 -0.9895108 -0.42025194 1.0346417 0.93228036 0.44910905 -1.2519636 0.32360175 -0.6899428 0.1281506 0.27379107 -0.6352019 -0.79227936 -0.07360661 -0.55885375 -1.0017445 -0.21025726 0.34665963 -0.5103486 -1.0647907 -0.41913384
193 -1.5090375 -0.78555405 -0.3227468 -0.049067874 -0.55132836 -0.5490584 0.1152071 -1.2275544 0.17258644 0.5144307 -0.40130603 0.7293268 -0.479639 -0.026523832 -1.0146818 0.32688725 0.13356225 1.1125395 -0.9036505 -0.47324523
183 -2.001627 0.91209877 -0.9938191 1.7375075 -1.3606664 -0.06881544 -0.13300812 0.8476777 -0.21993099 -0.4319073 -0.6967272 0.32772797 1.3824496 0.4084171 -0.611615 0.34920782 0.6359197 0.3382979 -0.38614738 -0.12958646
552 -0.79136115 -0.5506052 -0.21631211 2.1050696 -0.32058114 0.20798716 -0.49542758 -1.6085714 0.41201013 -0.45148104 0.30125594 0.70505106 -0.21479253 -0.6323027 -0.77740836 0.5502239 0.6307924 -0.43033245 0.06294634 -1.5668432
501 -0.5903067 -0.31696424 0.026931109 0.6308899 0.026453642 -1.464181 -0.37998512 -0.7620405 0.012365234 0.68672234 0.023878982 -0.3752938 -0.6841118 -1.1950756 -0.7476763 -0.064467564 0.31128198 0.294768 -0.95404255 -1.5569702
446 -0.362747 0.70804626 -0.51245344 0.96096945 -0.818047 -1.0359763 0.82951885 -0.52213836 -0.87197286 1.1385876 -0.14084816 0.28908357 0.9993765 -1.0973804 -1.0225399 0.051820014 -0.009380891 0.3584028 0.1927339 -0.15704334
172 -0.7349946 -0.6046621 -0.12637314 -0.518969 -0.67396224 -0.62779945 0.7670168 -0.24736142 0.121690385 0.86845726 -1.8211151 0.21468864 1.0134579 0.52740586 0.2498069 0.48643056 0.16761109 -0.86208683 -0.80413216 -1.1331939
363 -1.444301 -0.57379526 0.44524428 1.5706464 0.14023599 0.9535136 -0.03975581 -0.9162647 0.01511847 0.011832752 0.02924681 0.7365185 -0.39399302 -0.0348645 -1.1138152 0.75826144 0.5652494 -0.0040378147 0.2724629 -1.8220619
362 -1.0890504 0.078874394 -0.36986783 1.6518761 0.20376994 -0.15870239 -0.38128632 -1.1591645 0.2626655 0.69380146 0.4112143 0.65081406 -0.18804011 -0.028132008 -0.91727567 1.3285 0.033758577 -0.20029625 0.3283095 -1.6193373
638 -0.09196261 -0.054684717 0.7234314 1.2110487 1.0952454 -1.5444521 -0.04268799 -0.20668153 0.4273301 1.0840878 -1.1566523 -0.052406758 0.096800886 -0.5779596 -0.6131667 0.66363007 -0.06061141 -0.3135668 -1.1149716 -0.8653454
228 -1.8437308 0.90886694 0.22327875 1.051976 -0.09620978 -0.40425164 -0.5890839 0.47334203 0.12883037 -1.1877713 -0.91958594 0.30118603 1.6654255 -0.1164623 -0.735876 -0.44087902 -0.024174202 0.29820594 0.31118172 -0.43308923
619 -0.14633577 -1.2452394 -1.0371279 -0.23275565 -0.6215346 0.23321587 -0.37471732 0.21752355 -0.056136835 0.22327553 -1.2120892 -0.041589078 1.2591171 -0.59542215 -0.95659125 0.47540358 -0.16895452 -0.006896268 -0.007976601 -1.2431213
629 -0.53285843 -0.6244337 1.2973104 0.8679607 0.73760855 -1.2612164 0.38420105 -0.21144095 0.0105741955 0.6070665 -1.5090045 -0.12155693 0.12735087 -0.95161945 -0.9591041 0.2595812 0.20898819 -0.41530776 -1.0682299 -0.43216935
162 -0.48152995 0.0018157391 -0.21502161 0.52755713 -0.9516059 -0.8506892 -0.05516534 -0.24275815 -0.94580513 1.1747237 -0.34890115 0.5452062 0.6088446 -0.6675821 -1.6268584 -0.25475353 -0.20882569 -0.24459112 0.12560228 -0.0009346089
257 -1.3900214 0.4117618 -0.14134154 0.97577256 0.03429384 -0.29879406 -0.29767632 0.47386226 0.15979242 0.26625925 -0.5880903 -0.5747505 1.7163224 0.4233244 -1.0058607 -0.9947555 0.7986103 0.031140769 0.3991007 -0.03063032
477 -1.5399237 -0.4943999 -0.31985778 0.8025665 0.13068777 -0.91910636 -0.49230337 -0.35115883 -0.101548895 0.8272055 1.1340561 0.4161859 0.46356642 -0.5163361 -0.7588605 0.1516999 -0.7713227 0.59061915 -0.3204442 -0.9720383
423 -0.8032549 -0.35693824 0.32268736 1.0975828 0.32055852 0.04807104 -0.23373815 -1.1591964 1.4379846 1.0123459 -1.0816215 -0.5099849 0.5967936 -0.7234759 -1.2409872 0.17102553 -0.33874625 -0.54768723 -1.7727805 0.12596262
706 0.03982957 -0.5608897 -0.41257292 1.0367141 -1.5382257 0.12396744 -0.25536764 0.30323327 1.0912046 -0.31341854 -1.3571769 0.2116957 1.4825749 0.46319216 -0.19054967 0.20278981 -0.10885027 -0.5834711 0.13115272 -0.99441737
225 -1.7855256 1.1367677 0.72242695 1.1250663 -0.18892156 -0.61238164 -0.87646323 0.1157697 -0.13699037 -1.1703454 -1.0311238 0.5006484 1.2388132 0.17279321 -0.8924255 -0.73046833 -0.2834307 0.65327406 0.007417693 -0.6980293
465 -0.8286353 -0.40024275 -0.8138636 -0.67815584 -0.2915351 -0.50700086 0.7149401 -0.2248408 0.28054574 0.96221614 -1.0757849 -0.27085978 1.0563241 -0.3796113 -0.7044072 -0.42776254 -0.47007945 -0.103032246 0.12849148 -1.5064516
393 0.22142905 -0.9125728 -0.18263063 1.6691011 -0.16486827 -0.15951802 0.48348597 -0.7924583 0.33653578 -0.5303111 -1.7434546 1.1833389 2.2024052 -0.28971112 0.38970992 -0.011434716 1.4903463 0.6463711 0.17210197 -0.4730602
335 -1.0508925 0.10441981 0.040292922 0.94699776 0.46988186 -0.8702165 -0.6616749 -0.07146316 -0.32012108 1.4228814 0.94262713 0.09978385 0.22075164 -0.17578657 -1.1964021 0.14614043 0.0036888467 0.130183 -0.42906883 -1.19072
230 -1.4462591 -1.3232833 -0.22128582 0.02744488 -0.24747498 -0.3634647 0.09325913 -0.48640123 -0.09538368 0.6045855 -0.67731833 0.5087337 0.3893086 -1.10717 -0.8522448 -0.18807155 -0.61391217 0.44431868 0.42102847 -0.53064567
244 -1.8952435 0.49089366 1.1262143 0.88094294 0.0551143 -0.9846245 -0.4077322 -0.035774816 -0.06887963 -1.04601 -0.7369852 0.122237325 2.3544428 0.5873584 -0.46975777 -0.32482013 0.015462387 0.5172797 -0.5339396 -0.2028828
277 0.46042526 -0.6979799 -0.10744897 1.0853417 0.16038346 0.10677763 0.19079946 -0.28636992 0.34647486 0.07763438 -1.6983441 1.071226 2.1400375 0.066392675 -0.019948443 -0.26476753 1.5669074 0.34991205 -0.26418075 -0.33944428
150 -1.1204865 1.0019337 0.05482591 0.98893124 0.27429107 -1.404514 -0.45574653 0.29952383 -0.39659917 -0.9180068 -0.051891774 0.2721955 1.4557015 0.6888002 -0.9912556 -0.048271526 -0.59575605 0.41539282 -1.2413884 -0.8591452
229 -0.18984133 -1.5120547 -1.0174253 0.29933017 -1.0222718 -0.25730357 -0.17801876 0.2122578 -0.22583218 -0.009919383 -1.2052479 -0.09880175 0.8395381 -0.64210135 -0.47430673 0.18242311 -0.3600882 -0.33378002 0.016382769 -0.9596026
332 0.013496549 0.018000487 -0.2669496 1.0659243 -0.85668045 -0.68590564 -0.03523759 -0.8865117 -0.9299794 1.6983292 -0.82074314 0.23187283 -0.04629058 -0.23653264 -0.53352964 -0.71409756 0.29275584 0.25720343 -0.35569096 -0.20410044
610 -0.6826247 0.22614977 -0.42479312 0.71410394 -0.809159 -0.9813175 -0.052567557 0.0020181548 -0.8119339 1.0835899 0.13694867 0.5092329 0.8982831 -0.38077596 -1.6317159 -0.20587859 -0.16783407 -0.6478183 0.43275234 -0.40013403
512 -0.94969183 0.55315095 -0.74972904 0.87426966 -0.4241863 -0.76659995 0.44272828 0.23917875 -0.8221397 1.1485589 -0.0072848373 1.3557214 1.17216 -0.3017842 -1.5723948 -0.08705915 -0.13791753 -0.41213647 0.06414619 -0.33063376
630 -1.1472535 -0.5789919 0.7217289 0.8882944 0.02158397 -0.9097599 0.48505604 -0.86974514 0.040520113 0.16846049 -0.48667654 -0.59473103 0.3053984 -1.1004467 -1.2839024 0.19009297 -0.5257994 -0.4007181 -0.8315078 0.16908833
291 -0.819264 -0.6097205 0.303309 1.2966794 0.1064281 0.34956217 0.2841458 -1.7946279 0.22915454 0.01610406 0.02113212 0.22371991 -0.011408138 -0.765373 -1.0879726 1.2720544 0.5082969 -0.274385 0.06807656 -1.5994794
558 0.01008371 -0.43994343 0.7603902 -0.20005517 -0.32434028 -0.7275239 0.10218038 -0.9642001 -0.015000303 1.1432068 -1.3251401 0.46470848 1.0753367 0.0021969217 0.504217 0.43425858 0.872352 -0.47354335 -1.0594765 -0.8595024
258 -1.6313905 0.7266138 -0.097367786 1.0071154 -0.042241115 -0.2646024 -0.40225422 0.61267465 0.101197205 -0.20737207 -0.71367776 -0.27542683 1.7207519 0.12481971 -1.054162 -0.95847607 0.5421291 -0.12220888 0.44801885 -0.15173724
578 -0.60999036 -0.9707356 -0.3087588 2.1675503 -0.043201443 0.12227726 0.36733285 -1.2630047 0.2390957 -0.20781678 -0.35206988 2.437868 -0.055904087 0.7875813 -0.8018483 0.71471494 -0.1570056 0.4479209 -1.1137036 -1.0636666
301 -0.9273443 0.9512385 -1.0379041 0.8771226 -0.6445894 -0.9475085 1.2524353 0.2931045 -0.013867729 1.0372236 -0.058629807 1.2417556 1.4545286 -0.25328016 -1.4055375 0.106132165 0.2624007 0.17600429 -0.11989356 -0.40538803
584 -0.35599798 -0.9199572 -0.46060905 2.2935784 0.28050846 -0.242147 0.8144512 -0.98778194 0.2923427 -0.7927187 -1.3408415 1.2595841 2.3023376 -0.5892383 0.77842826 -0.056786586 1.2454505 1.0962207 -0.15325035 -0.70387363
323 -1.2575109 -0.43647078 -0.68642694 0.5730622 -0.5119282 0.44570524 -1.0733719 1.0264479 -0.0047454573 -0.215743 -1.6630815 0.0033538684 1.6569912 -0.34763607 -0.32746089 0.600345 0.26811966 -0.098478496 -0.45986456 -0.6005549
125 -0.76117176 -1.0893722 -1.3868138 -0.1054763 -0.49393824 -0.64179206 0.55929774 -0.73079556 0.5153844 0.6618163 -0.83714986 -0.09320334 0.794665 -0.999597 -0.7435456 -0.38139078 -0.0954299 0.02855456 0.39283884 -1.0972537
705 -0.9617199 -0.5830669 -1.1228139 0.2518494 -0.4215361 0.1644208 -0.45138416 -0.5994694 -1.414152 -0.017208619 -1.4321258 -0.7125526 1.1687608 -0.6308941 -0.5430619 -0.43855846 -0.027133936 0.15950328 -0.4150398 -0.5185087
457 0.062190093 -0.61021626 1.220873 -0.088736765 -0.38298586 -0.5291706 -0.60488427 -0.359953 0.35650063 -0.13439827 -0.47619206 0.6089505 2.1292508 0.6022056 -0.026462855 0.25541598 0.37745732 -0.1833646 -0.50323707 -0.95066243
32 -1.2336018 -0.6167042 -1.4353269 0.11602432 -0.43886837 -0.4911725 0.6119461 -1.2342712 0.21602988 0.25264207 -0.08327627 -0.15624714 0.58097523 -1.0294341 -0.6797217 0.24645002 0.4217285 0.76418734 -0.1462779 -0.7608897
165 -1.0123637 -0.26284316 0.61028993 0.76312953 -0.28889415 -0.7714973 0.5497925 -0.87071425 -0.45225173 0.46944538 -0.58967817 -0.024470638 0.23666963 -1.4612784 -1.2473773 0.06273347 -0.7770621 -0.047337413 -0.12195817 0.101512395
370 -0.7437765 -0.7416116 -1.1325475 0.4534513 -0.46259516 -0.46045595 -0.41428706 -0.5425066 -1.4377682 0.18305841 -1.5977303 -0.52368915 0.7913151 -0.6268767 -0.6089449 -0.7878011 0.0046671466 0.12517972 -0.58402914 -0.20777571
548 -0.5239815 0.21006146 0.33829826 1.7862273 -1.7910537 0.4093305 1.0721127 -0.2923049 -0.22660796 0.6513301 -0.18188146 0.20705135 0.46003368 0.15570231 -0.41179988 -1.8740598 0.20107731 0.23102559 -1.1953433 -1.50272
570 -0.7199367 -1.2867067 -0.6440135 0.70386046 -1.0908227 0.051571827 0.38654074 0.32607257 0.32870865 -0.17633605 -2.1180186 -0.22706416 0.24293561 0.43577608 0.09460069 0.18700156 0.29204127 -0.73470557 -0.5386828 -1.9643052
221 -1.5747524 1.0450797 0.78239065 0.9635552 -0.30321416 -0.5889207 -0.678622 -0.36656535 -0.10901165 -1.0845563 -1.3145134 0.7555477 0.8453327 -0.5085999 -0.63277286 -0.7032128 -0.15950477 0.6734574 0.25173438 -0.70169
474 -0.8659434 -0.61677533 -0.3866133 2.332665 -0.11315098 0.26157784 0.13691594 -0.9747477 0.99919623 -0.09549295 -0.41435894 2.358976 -0.15863243 0.42993364 -0.84616446 0.64114213 -0.53710705 0.74104095 -0.6736424 -0.9192454
97 -0.02477818 0.41447833 0.607629 0.7437379 -0.9350851 0.82143605 -0.56594765 -0.69215745 1.0091832 0.8830057 -0.31007665 0.057581693 1.6630296 0.08356461 0.22709587 -0.21874744 1.0726665 0.81142724 -0.5543032 -1.4046023
334 -1.1157758 0.49024397 -0.10259596 0.75279343 0.35686797 -0.83136046 -0.5376696 0.0720121 -0.43926606 1.3936888 0.82307863 0.2023653 0.7038371 0.16013719 -1.312623 0.0051483284 0.21154101 -0.03935681 -0.012316321 -1.0441133
118 0.20087679 -0.62946004 0.34991124 0.67550284 -0.8000722 0.36568993 -0.97352874 -0.57523745 0.61994153 0.74717337 -0.41093713 -0.1973938 2.25366 0.64153177 0.27547482 0.83602965 0.09117873 -0.14179462 -0.106852345 -1.3044273
456 -0.33220625 -0.44936055 1.4735801 -0.16911323 0.23475425 -0.5145536 -0.57929814 -0.5818857 0.09889528 -0.31591862 -0.4175356 0.6480254 1.9563341 0.77083683 -0.34967858 -0.23415361 0.40208095 -0.22516747 -0.40161026 -1.0595217
341 0.5415544 -0.4292006 1.0956262 1.6990732 -1.0969929 0.85095704 1.082687 -0.0052017905 0.37490046 1.043183 -0.9815069 0.11631079 1.4394242 0.10136068 -0.66367763 0.2112437 0.07618808 0.50323665 -1.0859123 -0.23214202
425 0.7937688 -0.41138068 0.11871719 0.49691048 -0.27896813 0.25270283 -0.22248735 0.22592393 -0.08725178 -0.27145886 -1.1430511 0.6890978 2.2200148 -0.06716023 -0.40952173 -0.35441506 1.2832466 1.2511864 -1.0915264 -1.0016596
316 -0.83286875 -0.65839136 -0.5757131 0.17343494 -0.5449201 -0.50452024 0.053995628 -0.27975348 -0.4448052 0.98423684 -0.7743946 -0.35272086 0.7355196 -0.44642296 -1.5088099 -0.5094108 -0.9750624 0.32678553 0.3814738 -0.5057565
141 -0.8341004 -0.4863072 0.43460795 0.8052914 0.13650994 -1.3196412 -1.0363854 -1.0014324 0.5966599 0.19704442 -0.31984046 0.017424189 -0.47537953 -0.14554995 -0.96142614 -0.057492234 0.9621941 -0.83572 -0.4544148 -0.9271795
517 0.6484387 -0.4653506 -0.48981875 1.3281078 -0.8850982 0.03595965 -0.47972998 -0.079196095 1.6302825 -0.28271058 -1.6108494 0.96120405 1.806376 -0.17834926 -0.042792965 -0.02088026 0.8335593 0.3718547 0.108382225 -1.073969
519 -1.6085961 0.17103653 -0.5830091 0.9932143 -1.1519988 0.088253796 -1.00292 0.92627525 0.17907116 -0.509664 -1.3325732 -0.094210446 1.5311253 -0.14857203 -0.5562788 0.13221452 0.57956606 -0.5601064 0.22934479 -0.41470316
458 -0.21462683 -0.31187847 1.2356583 -0.06487487 0.25220093 -0.5247192 -0.47676745 -0.6520323 -0.12336832 -0.35463098 -0.52226406 0.785382 1.9466418 0.7666203 -0.13215733 0.036664136 0.3551189 -0.29201385 -0.3809145 -0.98844576
611 -0.89097667 -0.44409186 -0.4877103 0.26347154 -0.66213304 -1.0395033 0.089345716 -0.06836436 -0.6357943 0.9778516 -0.51711416 0.55964243 0.5941869 -0.4026478 -1.5726327 -0.20981188 -0.48411983 -0.28358784 0.53837883 -0.31436095
596 -0.6011361 -0.88267756 -1.1963824 0.26964444 -0.4692482 0.391711 -0.9305058 0.20430835 -0.58191586 0.042342372 -1.9773766 -0.06266965 1.3975303 -0.48406622 -0.28944674 0.3633944 0.21234524 0.5250569 -0.041680373 -0.87421745
653 -1.1845825 -0.46361807 0.6339913 1.1088241 0.44221938 -1.1154318 0.24519695 -0.80073375 -0.38352874 0.24677584 -0.74341947 -0.87946695 0.04208651 0.045992136 -1.2261827 0.24447484 -0.17712565 -0.53659964 -0.6622998 -0.076829165
220 -0.6076805 0.087459646 -0.69162524 0.6321576 -0.44505575 -0.65546304 -0.9198654 1.0102237 -0.27962926 0.12605195 0.6459396 0.5702161 1.4745904 0.22679453 -0.45752755 0.75164074 -0.35528818 0.41545087 -1.2105551 -1.3607438
241 -0.31155458 0.021848833 0.07207134 1.6210281 -1.8654643 0.05602971 0.5337305 -0.49367243 -0.28968468 0.84794027 -0.145656 0.2012423 0.55705035 -0.007170536 -0.22958046 -2.0956511 0.5532394 0.55736685 -1.2132574 -1.3131589
515 0.64200467 -0.52844715 -0.40342692 1.1016229 -0.8749861 -0.0027674974 -0.5178064 -0.08994442 1.4704599 -0.38762704 -1.6178643 1.0730852 1.8826537 -0.1721388 -0.19173542 0.04201256 1.1075997 0.47127292 0.16292383 -1.1275789
30 -1.1746916 -1.4451182 -0.61744046 0.0747153 -0.45160985 -0.33454856 -0.029369408 -0.61217314 -0.33562133 0.5430593 -0.6546387 0.18691935 0.9760135 -1.1143519 -0.91718155 -0.32554644 -0.59785056 -0.19099446 0.32799587 -0.42219886
195 -0.9564528 -0.72533494 -0.37297332 0.075748645 -0.39386368 -1.0148993 0.004726346 -1.7318873 -0.17588836 0.3687439 -0.26332405 0.36911285 -0.24145295 -0.07547892 -0.928579 0.675516 0.41393346 0.9605638 -0.94908994 -0.4437847
331 -0.48220208 0.20985578 -0.16442741 0.73389876 -0.8109712 -0.5279801 -0.034478817 -0.8005535 -0.8135554 1.6262612 -0.9775031 0.10337981 0.041693315 -0.70131654 -0.86005414 -0.3902976 -0.18828021 0.17884287 0.1321074 -0.2006694
487 -0.8345538 0.3853288 0.49257758 1.4831765 0.5625051 -1.3293478 -0.3440481 -0.35075724 0.34786442 0.84482104 -0.34948218 -0.4259109 -0.04198006 0.04395943 -1.0904452 0.63025147 -0.4575089 -0.6915845 -0.29530737 -0.6982592
468 -0.6678739 -0.669734 -0.64453 -0.84571666 -0.19210272 -0.18735527 0.5702915 0.18313569 0.0043401103 0.9315682 -1.4236726 -0.3460591 1.2678428 -0.14879379 -1.0432764 0.05087254 -0.18401481 -0.18442051 0.04029216 -1.4897051
435 -0.13470034 -0.16346683 0.58141613 1.2956823 0.764439 -1.7951248 -0.29026014 0.0050421553 0.6075253 0.6524476 -0.5182103 -0.28891912 -0.2639019 -0.7490057 -0.9207205 0.20143016 0.48954102 0.2462881 -1.0497156 -1.0587904
336 -0.94696903 0.43141082 0.035901338 0.76121455 0.2102447 -0.8594629 -0.5567918 0.10692548 -0.5312061 1.217651 0.57801056 0.16682036 0.33444175 0.3915532 -1.5583875 0.22270869 -0.04842699 -0.25207207 -0.027807513 -1.2265356
672 -0.7833397 0.5368065 -1.0019768 1.0424213 -0.3134985 -0.9849577 -0.9151661 0.85741395 -0.25018242 -0.019971514 0.6977561 0.8071148 1.3041766 0.1881638 -0.43588218 0.5883055 -0.098843955 0.514445 -1.3535877 -1.447231
255 -1.0496744 0.7502919 0.8481036 0.67426896 0.37870094 -0.5201547 -0.3811478 -1.4193721 0.233421 -0.7229107 -0.78113794 1.1801937 0.33542576 0.15580201 -0.2878238 -0.8465688 -0.7704011 0.23423061 -0.12331507 -1.519381
356 -1.668843 -0.113003075 1.0393504 0.3891548 0.2828939 -0.44868663 -0.55309033 -0.56741 -0.24830367 -0.4991987 -0.52800196 0.1997627 2.5785356 1.0464251 -0.64866924 -0.23709764 0.45471036 -0.09946076 0.11224697 -0.113097645
237 -0.26490146 -0.27275842 0.5261338 1.5305332 -1.7141082 -0.101361446 0.25749102 -0.26443928 0.18928751 0.41578826 0.11295095 -0.4387083 1.0441405 0.24600697 0.0029163354 -1.562037 1.2720991 1.2498027 -0.5959696 -1.6849504
485 -1.1766424 -0.6645318 0.36122325 0.6963411 -0.29453567 -0.8591985 -0.5052615 -1.8702308 1.0162307 0.954416 -0.7128773 0.046466764 0.41130525 -0.32149568 -0.43051234 0.33261424 0.44537547 -0.24356765 -1.7583284 0.35385814
242 -0.37936074 0.05212792 -0.034203164 1.6646518 -1.8669955 0.084533356 0.5118318 -0.5757416 -0.40302926 0.98229796 -0.315217 0.035938784 0.46775258 0.069575846 -0.22204453 -2.0008898 0.3505946 0.68350977 -1.2440493 -0.94817
660 -0.66228586 -0.022834864 -1.2627438 -0.39721644 -0.3263359 -0.3552026 1.7490553 -0.18864907 0.21852934 0.7274374 -0.93416476 0.28872254 0.9676395 -0.48676643 -1.0805082 0.2558397 0.07939884 -0.04605842 -0.26363984 -1.8191049
471 0.49675032 -0.5325573 0.61769176 5.4511154e-05 -0.25942162 0.12702039 -0.42217785 0.16022103 -0.24653445 -0.16707312 -0.8923823 0.5697471 1.9920076 0.31228238 -0.13787171 -0.09803268 0.85626125 0.9818064 -1.4288377 -1.2362324
527 0.49955022 -0.6331114 0.056644376 1.2088324 -1.1360391 0.17194031 -0.3170362 0.3433051 1.2935429 -0.18532723 -1.2937865 0.45505086 1.682599 0.48238677 -0.3694572 0.30179292 -0.18046777 -0.22136971 0.16363165 -1.0725802
659 -0.7204883 0.0966361 -1.2551873 -0.28042328 -0.20999788 -0.41836387 1.7422819 -0.11371836 0.21845058 0.9035549 -1.0160955 0.3459121 0.9828247 -0.5967482 -0.9552262 0.08472458 0.15137124 -0.036189746 -0.17874981 -1.7620224
420 -1.3661822 -0.4105394 0.3968532 0.97395337 0.004219286 -0.41973197 -0.6606838 -1.3810402 1.4625835 0.9348899 -0.8872676 -0.34172502 0.39557257 -0.48967996 -0.7108025 0.4609562 -0.07162899 -0.34738237 -1.8982726 0.24291651
320 -1.1274674 -0.29117957 -0.8185027 0.60639024 -0.4957986 0.39693058 -1.0213445 0.9088672 0.03941616 -0.20731893 -2.0722933 0.30711386 1.4617382 -0.33813864 -0.42610106 0.582489 0.37443498 0.20771953 -0.11867831 -0.5607322
151 -0.8828501 0.91410834 -0.13746558 0.9771788 0.3731653 -1.2306466 -0.57916296 0.54075557 -0.57160616 -0.7124423 0.12752998 0.8737945 1.382222 0.33197194 -1.124665 0.14044426 -0.6758078 0.7208398 -1.1991419 -0.99560064
282 -0.9839833 -0.08368412 -0.0022997723 0.35133532 -0.47590294 -0.81147635 -0.24925368 -1.5776744 -0.35537237 1.2586412 -0.57211685 0.49017638 -0.31172487 -0.21790619 -0.45522943 0.31890133 0.5165378 0.7869442 -1.0868294 -0.1156805
324 -1.454306 0.13036999 -0.61415935 0.8362723 -0.7080913 -0.035627518 -1.0523345 0.95131356 0.23340382 -0.7717922 -1.5269542 -0.100314386 1.5891922 -0.25775838 -0.68110305 0.37284037 0.5771388 -0.22563285 0.2840553 -0.50348353
579 -1.0106516 -0.5711263 -0.2810012 2.3910263 0.13087563 0.25512135 0.2648649 -1.0269895 0.70505565 -0.09381874 -0.36669132 2.4335175 -0.03177149 0.5803961 -0.79042655 0.69614077 -0.48963287 0.67635894 -0.9825461 -0.89814436
250 -0.66934794 -0.5102336 0.028898172 -0.56806576 -0.82357764 -0.26383394 -0.13483633 0.91885823 -0.16006675 0.81607693 -1.1302395 -0.26002952 1.914031 -0.25466323 0.0053557884 0.4356072 -0.5223304 0.24787809 -1.5969075 -1.4768122
372 -0.5355659 -0.47250667 -0.7015183 0.6237862 -0.21768062 -0.3999187 -0.38791654 -0.8080397 -1.7825549 0.32476652 -1.6653156 -0.874455 0.58282954 -0.20134939 -0.67792046 -0.6173801 -0.027994486 -0.33883005 -0.7317196 -0.2903209
297 -0.27217495 0.0939704 0.7155866 1.9123343 -0.8004644 0.79149556 0.7988172 0.55616075 0.62653166 1.0806824 -0.73755586 0.73939455 0.22958119 0.06530528 -1.0087357 -1.4759603 0.36231488 -0.058743276 -1.896886 -1.2868797
595 -0.3446983 -0.86074805 -1.2081767 0.30827385 -0.45974046 0.40569645 -0.8585202 0.4962587 -0.32808167 0.16121963 -1.7848171 0.08532993 1.431853 -0.6800358 -0.55154854 0.5373421 0.2538186 0.282619 0.04684819 -1.1008807
199 0.6676546 -0.11219417 0.36716884 1.4720128 -0.89203805 0.13437316 -0.4368199 -0.46830183 0.10572388 0.6632198 -0.68679893 -0.73497504 1.5328412 0.56992084 -0.68266004 -0.8935233 0.09571591 1.2104647 0.06872162 -0.2592037
588 -0.8022956 -0.15068068 0.50298506 1.215002 0.35241434 0.03143274 -0.13728152 -1.195209 1.3296072 1.0389366 -1.261098 -0.49732155 0.44795647 -0.74060875 -1.0812805 0.059703268 -0.5086015 -0.54007745 -1.4669272 0.042811614
432 -0.3566372 -0.058309343 0.46886644 1.1576563 0.44218558 -1.6619668 -0.40930185 0.019174218 0.41099292 0.8662561 -0.2665075 -0.50167614 -0.5206781 -0.5017011 -0.95650965 -0.091400445 0.48544297 0.21352899 -0.81229854 -1.262268
398 0.6327606 -0.18704207 0.55949837 1.2651122 -0.6273883 -0.061442554 -0.40375414 -0.31338048 0.33647898 0.07887042 -0.7304322 -0.1922525 1.3926545 1.4553895 -0.73374856 -0.10873902 -0.14324611 0.47461757 0.4266231 -0.71268845
224 -1.9763564 1.1120316 0.7392836 1.0709555 -0.016948367 -0.4058753 -0.81427515 0.037491307 -0.013313753 -1.1425574 -1.226435 0.5878787 1.2693115 -0.353043 -0.6929919 -0.5152107 -0.11535896 0.64286935 0.21766332 -0.6328605
703 -1.3510133 -0.5574128 -1.1514882 0.15730031 -0.39599854 0.27681297 -0.40414745 -0.83568835 -1.1248257 0.1300105 -1.280751 -0.42168897 1.3583219 -0.68425906 -0.6904924 -0.6513493 -0.2813709 0.3143043 0.025502974 -0.5951277
426 0.6494575 -0.38434336 0.42904466 0.6746952 -0.4998468 0.54554397 -0.24933718 0.32602197 -0.16618681 0.022164598 -0.7838933 0.34785202 1.9808723 -0.1717774 -0.48887914 -0.2395805 1.1568735 1.3803896 -1.1451758 -0.9814355
539 -0.752253 0.4192729 0.091738984 0.7137005 0.17603068 -1.2664361 -0.093992606 0.15986696 -0.59539646 1.0719913 0.102404945 0.12882482 0.5665974 0.4756821 -1.6196702 0.073185995 0.053469826 -0.47927415 0.3184269 -0.9083107
430 -0.2971286 -0.27699584 0.6196709 1.2364552 0.42830616 -1.7777731 -0.50686914 -0.1844374 0.5228719 0.41162366 -0.4090945 -0.4304735 -0.5749728 -0.57695067 -0.8999318 0.11984439 0.64633065 0.13561304 -0.9352431 -1.2059993
11 -0.12185594 -0.28565586 0.82901067 1.0201386 1.0434271 -1.5512501 0.29061016 -0.09398847 0.39595 0.7118706 -1.3753831 0.0015781955 0.19421838 -0.42509103 -0.7802404 0.7670049 0.3167287 -0.030756613 -1.0247927 -0.4820456
96 -0.91488636 -0.63329864 -0.74637604 2.3553553 0.07200158 0.27473852 -0.35229382 -0.73483056 0.3730183 0.13153335 0.14981952 0.8822141 -0.35859603 -0.15808073 -0.5040589 0.52024066 -0.484869 0.2310557 0.13741288 -1.8435527
16 0.15907064 0.6839617 1.0954032 1.4027321 -0.8899931 0.47198278 0.037751902 0.029337086 0.2881157 0.7527954 -0.30251154 -0.55764306 1.4750932 -0.6177816 0.25899315 -0.6821654 0.89197916 0.5407539 -0.4653074 -2.346634
692 -0.9665646 -0.27113295 0.05386765 1.3011086 0.9560939 -0.8769027 0.07033498 -0.43292272 -0.47461388 -0.14474888 -1.2467651 -1.1258698 0.993674 1.0231473 -0.79922235 -0.6422523 0.3316789 -0.23178402 -0.2381678 -0.25351217
544 0.20824793 -0.15979174 -0.0899931 1.6992093 -1.4525696 -0.446263 0.17021954 -0.68124306 -0.6947206 1.48422 -0.4780039 0.30065998 0.08989335 0.1243119 -0.67811906 -1.4040048 0.1912345 0.45743242 -0.5256523 -0.40995243
641 -0.3709368 -0.93670624 -0.40994167 0.06456179 -0.7839245 0.4662694 -0.9249494 0.5674471 -0.38311535 -0.14694548 -1.0955621 0.07235587 1.8066628 -0.42077005 -0.4470637 0.82184106 -0.35055032 -0.0013380998 -1.0321587 -1.1613655
129 -0.8330822 -0.885055 -1.629791 0.07202705 -0.4479723 -0.6096601 0.73077023 -1.0627297 0.5793913 0.52426386 -0.5112856 -0.39382482 0.92045665 -1.1012449 -0.7299697 0.05364276 0.23946667 0.3006878 0.17996424 -1.0369682
252 -0.20635028 -0.533381 -0.03421921 -0.45858392 -0.5690294 -0.60211897 -0.19646724 0.9181147 0.17433532 0.831273 -1.0501766 -0.44314474 2.0194476 -0.08294107 0.12198486 0.1349794 -0.3328848 0.20281863 -1.5542454 -1.6315893
379 -0.8690161 -0.5728768 0.8131568 0.8007931 -0.13054569 0.27609628 0.12144013 -0.7987871 -0.22635502 -0.52347153 -0.21571602 1.3618666 0.27346167 1.3975948 -1.9858714 0.60556 0.37995112 0.44034272 -0.17729901 -1.050132
340 0.7828621 -0.6982785 0.7614114 1.6466315 -1.1344497 0.41716883 0.72341365 -0.26768097 0.52213705 1.4136262 -1.031441 0.08963408 1.3063263 -0.21380694 -0.91450614 -0.15807717 -0.26074597 0.096583165 -0.98418033 0.08453985
259 -1.2462184 0.1937938 -0.24344952 0.94844353 0.19313957 -0.28308657 -0.09891308 0.25431204 0.030873034 0.045614142 -0.91564435 -1.0670136 1.7615317 0.6320353 -1.0014786 -1.2672502 0.73566836 -0.058937434 -0.026150266 -0.11913162
674 -0.26373458 0.022903718 0.36913827 0.49168938 -1.2221617 0.9974159 -0.33065274 -0.55839735 0.95569533 0.9950518 0.0026710806 -0.014045961 1.7853017 0.4193471 -0.22713846 -0.36677325 1.1298398 1.0972357 -0.68262494 -1.5051953
410 0.51477176 -0.67888826 -0.21308191 0.839413 0.02571836 0.52987325 -0.27804232 0.18324803 0.36239403 -0.1676028 -1.5251278 0.9308047 2.1173215 -0.27168196 -0.31519923 -0.35154253 1.5830426 0.7318304 -0.16548774 -0.9276198
612 -0.7520953 0.6109515 0.13633695 1.2465847 0.009601768 -1.0250766 -0.5904028 -0.9329893 -0.14865638 1.53793 -0.25170878 -0.055050705 -0.37982887 -0.44477642 -0.65597826 0.18803483 -0.44385445 0.25873402 -0.26645002 -0.58529764
532 -1.5831347 -0.49656823 -1.1511127 0.16642994 -0.43861228 0.32301766 -0.30540484 -0.7436104 -0.9638134 0.19266772 -1.2335635 -0.32612815 1.108783 -0.696801 -0.69644964 -0.7675031 -0.20560205 0.25494123 0.0909516 -0.5469153
409 0.36316428 -0.3150289 -0.37636372 0.6549646 -0.66128266 0.64971834 -0.79523623 -0.49328998 1.2491673 0.011518486 -1.4260415 1.0632412 1.9841049 -0.27129605 -0.16826452 0.122146904 1.3807834 0.5072899 0.22128709 -1.1486915
113 -0.045575406 -0.22420044 0.9289658 -0.046129923 -0.19155887 -0.332615 -0.4342899 -0.8794113 -0.042640842 0.22162296 -0.80006087 0.9157419 2.112036 0.5328273 0.42166248 0.37753123 0.6650962 -0.11232906 -0.7619814 -0.82920635
56 0.047813777 -0.6828616 0.6270259 1.574972 0.21114266 -0.6093871 0.5021394 -0.39938483 0.84614617 0.65340006 -0.81413573 -0.14769298 0.629414 -0.9281156 -1.0002424 -0.045373023 -0.35870713 -0.4047304 -1.9370728 0.07557428
556 -0.87428296 -0.24221545 -0.2573394 1.7734083 -0.22917458 0.23754834 -0.6892655 -1.6346462 0.29154706 -0.4903907 0.35505047 0.46731338 -0.044085704 -0.604443 -1.0627049 0.85279113 0.9327141 -0.06595227 0.20671436 -1.7444332
130 -0.76008034 0.24447092 -0.79087186 0.82727236 -0.16239482 -0.853275 -0.8801984 0.84638065 -0.15094113 0.38985357 0.9467603 0.5654903 1.3123723 0.12596579 -0.8228837 0.47322652 -0.4378571 0.5350939 -1.1205144 -1.3321964
117 0.41987112 -0.259805 0.58563566 0.8801464 -0.8240484 0.27862522 -0.94872516 -0.5293464 0.7103926 0.5874129 -0.47455764 -0.14287172 2.1454422 0.6578115 0.19081417 0.29500026 -0.12054344 -0.2580783 -0.30325624 -1.2432404
604 -0.81726253 -0.72056323 -0.39629295 0.37665233 -0.5626821 -0.5922883 1.2380683 0.059089478 -0.16465288 -0.26534665 -1.8281319 -0.9258828 0.74789685 0.5814003 -0.25164127 0.14632593 0.26242942 -1.1381156 -1.048103 -1.7012149
57 -0.20995897 -0.7701012 0.3829159 1.4919572 0.3264752 0.1257804 0.3668286 -0.83318603 1.1624954 1.0518132 -1.0341727 -0.49127334 0.6742176 -0.8572102 -0.98099035 0.05913534 -0.35010105 -0.46744248 -1.8436525 0.037288655
289 -1.1033466 -0.13647534 -0.49640903 1.3676646 -0.050053246 -0.080634646 -0.42033973 -1.5012398 0.38523486 0.00885524 0.29927626 0.649304 -0.027411856 -0.62040746 -0.9401075 1.4593338 0.54973894 -0.10082869 0.22043948 -1.6657203
266 -0.6274008 1.210764 0.42003816 0.69186366 0.21010785 -1.186828 -0.5969469 -0.028432798 -0.29383016 -0.7769791 -0.58238643 0.56602883 0.66989106 0.8993358 -1.3561873 -0.19206999 -0.38068113 0.30954427 -0.5656218 -1.2757276
143 -0.9792861 -0.65889263 0.46805108 0.7415839 0.37596253 -1.2771679 -0.97376144 -1.0668105 0.42289475 -0.03556507 -0.49279878 -0.041671965 -0.39065027 -0.09358505 -0.86738586 -0.18479188 1.1886028 -0.59874153 -0.57412905 -0.7927331
383 0.41114303 -0.50390077 0.14112318 0.7515274 -0.8812912 0.11093081 -0.52396417 0.097081244 1.0620966 -0.21434522 -0.90182287 0.080254085 2.1353464 0.3950218 -0.19084454 0.75731534 -0.551657 0.14463927 0.035303973 -1.3959976
20 -0.38638416 0.20444235 1.2242833 1.4980909 -1.7827913 0.053502057 0.049169514 -0.012519825 0.051273238 0.5695164 -0.2549869 -0.5391318 1.0712538 -0.42048916 0.35750666 -1.2644976 0.9376729 0.77758276 -0.2828483 -2.6944945
402 0.37204283 -1.1070082 -0.16843958 0.62648654 -1.0832036 0.29417974 -0.3929556 0.035935104 0.6368098 -0.17678398 -1.1902438 -0.15156738 1.6808941 0.33521628 -0.380519 0.9978712 -0.49663568 -0.0034726574 -0.10134522 -1.21629
408 0.3362701 -0.6172005 -0.6054811 0.6263871 -0.17339061 0.73387074 -0.7697251 -0.04024337 0.4065714 -0.053010087 -1.5581529 0.59479576 1.941004 -0.49482173 -0.4450059 -0.057943054 1.4626693 0.57152116 0.11010815 -0.8739107
181 -1.7317884 1.2556583 -1.3564515 1.9060552 -1.214788 -0.16950493 -0.04166763 0.7850604 -0.24757074 -0.097453706 -0.5631252 0.67065203 1.373997 0.5075321 -0.57960534 0.52874166 0.38935483 0.44671586 -0.85566926 -0.24156114
460 -0.20066296 -0.73205745 -0.39900845 2.273294 0.03804069 -0.06399683 0.92647916 -1.109389 0.38987303 -0.6457123 -1.5543368 1.2151214 2.1934137 -0.56908756 0.6426543 -0.32184225 1.2886845 1.0661011 -0.23124179 -0.49522611
154 -0.9941937 -0.91351897 -0.011858347 0.85463274 -0.43783855 -0.21509936 0.27348858 -1.6074426 -0.5425068 -0.5998175 -0.16975965 1.0711882 -0.19556573 0.9456037 -1.4654934 0.57170147 1.094749 0.39064324 -0.5856491 -1.06278
508 -0.6935935 -0.19657749 -1.0641031 -0.5884337 -0.39008826 -0.55179334 1.1430832 -0.26612604 0.49787298 0.8101468 -0.9600823 -0.1299138 0.9436425 -0.45891887 -0.892575 0.009306657 -0.17079408 -0.26535654 -0.05950023 -1.6673336
681 -0.2734763 -0.8509807 1.2959907 1.3642752 0.43668216 -1.4971597 0.48274955 -0.19144936 0.0988605 0.4272023 -1.457304 -0.15276292 0.37348226 -0.8661371 -0.48626348 0.13570595 0.6902224 -1.0122951 -0.9860785 -0.45715782
261 -1.6325272 0.3441498 -0.30705422 1.037527 -0.26420468 -0.46238863 -0.53755015 0.9793699 0.18274474 0.18360536 -0.7121587 -0.2660215 1.2277236 0.34960508 -1.1966195 -0.37300313 0.72397745 -0.03866759 0.62932026 -0.014327174
437 -1.0303438 -0.6637241 0.24487372 1.3692139 0.45689228 -0.954262 0.40825936 -0.3411498 -0.4942932 -0.20085102 -1.1796464 -1.3764719 0.46104476 0.38105607 -0.2559957 -0.3298136 0.68884474 -0.8852422 -0.54002696 -0.6749767
698 -1.2636968 -0.43010792 0.4338783 1.4623933 0.21955968 1.061783 -0.043276783 -1.4323134 0.04789118 0.08787081 -0.23146252 0.49096838 -0.12041744 -0.53500926 -1.2546635 0.99227786 0.3522645 -0.5599581 -0.021081341 -1.6433772
670 -0.45945758 -0.211246 1.1854522 0.66892195 0.23989178 -1.3121774 -0.36323798 -0.5453559 -0.1365616 -0.22502662 -0.40211958 -0.18525037 1.1334926 1.3427036 -0.97771454 0.12179983 0.2159996 0.030630585 0.013453637 -0.40004066
288 -1.2218559 -0.6890183 -0.44080186 0.8665276 -0.050950903 0.00040685822 0.031806793 -1.883944 0.16512777 0.05856983 0.13116106 0.14498848 0.115334965 -0.82723314 -1.1272416 1.3709495 0.33049306 -0.18727373 0.16742823 -1.1924087
23 -0.3374759 -0.42384747 0.40835595 0.8178592 -1.2772902 0.7347013 0.029823083 -0.49288622 0.85848397 0.96387875 0.2389871 -0.28183767 1.6669679 0.56487215 -0.56592476 -0.84090054 1.4125948 1.376638 -0.40155113 -1.322993
718 -0.37017095 -0.1798709 0.5480909 0.71735615 0.8280477 -1.4741601 -0.1327358 -0.50682795 -0.29888818 -0.1588184 -0.7847035 -0.49041164 0.91495776 1.2257867 -1.1310186 -0.09772276 0.106594026 -0.01381961 0.091834955 -0.53181875
274 0.44749895 -0.5028237 0.49252945 0.12201684 -0.43037862 0.45401928 -0.32839683 0.35323694 -0.23455678 0.024887964 -0.52498674 0.18727992 1.998294 0.11267762 -0.11904323 0.10640209 0.38117796 0.94023764 -1.2005787 -1.5381765
368 -0.6488495 0.037559476 0.029896123 0.9897484 -0.22983317 -0.88331383 -0.5963477 -1.0897433 -0.858356 1.6627617 -0.704233 0.3324935 -0.321789 -0.40935862 -0.1710594 -0.38848832 0.4547766 0.49604267 -0.61626124 -0.17918825
649 -0.9473076 0.52022004 -0.6980383 0.66161203 0.25065815 -1.1187072 0.011574051 0.7729828 -0.27499288 1.2124001 -0.08001276 0.3596282 1.4788177 -0.0005741414 -1.3004584 0.15938811 -0.25683972 0.40370446 0.26214314 -0.44833472
168 -0.44550914 -0.5145148 0.014865138 -0.49945232 -0.6289554 -1.0421454 0.23386832 0.66178775 -0.23836637 1.3729504 -1.395969 -0.21593325 0.8541476 -0.032164387 0.1283441 0.24280468 -0.033271156 -0.22700587 -1.3418962 -1.3890269
131 -0.7962892 0.427627 -0.48712534 0.6934037 0.32159865 -0.779278 -0.74708307 1.0846474 -0.47210318 0.35277992 0.60613674 0.7791646 1.2866297 -0.050311547 -0.9960361 0.08349982 -0.5580719 0.55875796 -0.9882143 -1.2361634
108 -0.69645566 -0.8224291 0.3011627 1.1268405 -0.099791735 0.054289475 0.4463643 -1.1499388 -0.34904373 -0.71702445 -0.13251477 1.4005178 0.0899784 1.2694602 -2.0098298 0.53627205 0.63358843 0.4855002 -0.52745706 -1.182917
163 -0.35334215 -0.004274262 -0.28176156 0.6889846 -1.0513581 -0.90261763 0.18668455 -0.44866064 -0.92723215 1.2043117 -0.014686784 0.350982 0.9812806 -1.0215907 -1.4551628 -0.21345462 -0.22411545 -0.1692745 0.19224519 -0.024267197
507 -0.9966708 -0.36688215 -0.51817524 -0.84496033 -0.14004296 -0.3610817 0.4918268 0.18153355 -0.40354854 1.0091065 -1.0978128 -0.4772874 1.5642573 -0.068440706 -0.7263944 -0.483705 -0.50381494 0.29830852 -0.13007383 -1.2990038
278 0.26608172 -0.66349936 0.012380714 1.2614429 0.121916674 0.0071969465 0.5519897 -0.9133083 0.21914798 0.11152275 -1.7271625 1.3784211 2.1965644 0.005940111 0.19353306 -0.0826678 1.4157541 0.36621642 -0.3086574 -0.11094289
502 -0.5385718 0.027079072 0.81817657 1.630194 -1.9013814 -0.26399383 0.061340924 0.16725957 -0.046319157 0.4594807 -0.092573725 -0.6809058 0.93513966 -0.18014231 0.2988966 -1.4739236 1.0825802 1.1982826 -0.4783677 -2.420884
133 -1.0216353 0.027744569 -0.7652573 0.7171808 0.2007327 -0.8312699 -0.58131975 0.59058577 -0.22115056 0.6400763 1.1250418 0.52566874 1.0907019 -0.13930349 -1.352416 0.21484484 -0.5998565 0.618699 -0.69471174 -1.0598296
290 -1.1777138 -0.3651422 -0.1764411 1.0829961 0.20854975 -0.29750755 -0.33396587 -1.7391053 0.2930058 0.20804846 0.12640618 0.5874249 0.044428296 -0.43562204 -0.88739246 1.4249591 0.70678204 -0.16571818 0.37117547 -1.2201941
52 -2.0128999 -0.8810572 0.10720107 0.483131 -1.1568819 -0.049562514 0.66726154 -1.0772578 0.80054736 0.26842195 -0.3180354 1.6079626 -0.29230228 0.65735 -0.8265443 0.25269154 -0.16844553 1.104781 -0.96072006 -1.0362139
348 -0.9996797 0.97654843 -1.0067596 1.2236857 -0.6894364 -0.9476356 -0.54057866 0.60772884 -0.4222217 -0.5495574 0.3911756 0.91573346 1.4104183 0.4992383 -0.70297456 0.56128716 -0.19474821 0.5011406 -1.360484 -1.0769162
124 -0.48247623 -1.0913463 -1.5939398 0.1438418 -0.44129705 -0.512556 0.4700839 -0.70936215 0.7956887 0.5828827 -0.65560097 -0.3153632 0.855154 -1.1933148 -0.97652435 -0.10140549 -0.18356295 0.076179 -0.10809771 -0.7587966
721 0.31523064 1.2011373 0.28223592 1.6765226 -1.2231878 0.997392 0.6072422 -0.60605645 -0.0023616704 0.31175125 -0.08538753 -0.089213 1.462204 -0.5754711 0.07169509 -0.42022443 0.5312115 0.3195405 -1.2120162 -2.339978
185 -0.6543419 -0.6649573 0.09111595 0.97058624 0.28466102 -1.181949 -1.1635085 -0.88591224 0.1618034 0.118767 -0.30630895 0.22747125 -0.66213185 -0.7836234 -0.5171585 -0.5626448 0.32688838 -0.1213449 -0.37588575 -1.541762
697 -1.4209524 -0.40825734 -1.254791 0.3321294 -0.67228204 -0.016717846 -0.54393154 -0.5309301 -1.0910617 0.016147135 -1.3154389 -0.55519366 1.3347479 -0.54496306 -0.34107187 -0.8402804 0.17872539 0.19539557 0.060001258 -0.38956785
416 0.15347835 -0.3200205 0.07709615 0.18624239 -0.24152954 -0.958046 0.71415126 -0.737963 -0.6439851 0.9293966 -1.8438119 0.25339583 0.7554442 -0.36007264 0.44706705 0.23843542 0.5581864 -0.804038 -0.9593688 -0.8916609
194 -1.4249682 -0.9843168 -0.4469695 0.0505758 -0.25658548 -0.8122165 -0.0693303 -1.4132845 -0.1193393 0.40921712 -0.16223349 0.50174457 -0.11979401 -0.46287626 -1.0559996 0.8598962 0.08170046 1.037264 -0.6305908 -0.48019218
689 -1.6561325 1.1394225 -1.2861526 1.828236 -1.2483171 -0.37444583 0.17886929 0.8092645 -0.39685875 -0.20026185 -0.51379454 0.8664981 1.4954304 0.3300757 -0.6041954 0.731629 0.42053807 0.22434548 -0.77629274 -0.2279976
132 -0.7503322 0.36539686 -0.74186647 0.9046321 0.16066985 -0.65652215 -0.7087357 0.91148955 -0.24261092 0.8762736 0.9288585 0.4531035 1.2525357 -0.023709418 -1.23297 0.27279463 -0.4482617 0.31631833 -0.76316184 -1.3013095
100 -0.50507194 1.0141698 -1.1797911 0.89300364 -0.6211973 -1.0329022 1.0819945 -0.68395656 -0.46695343 0.89622724 0.047779877 0.15187635 1.4132025 -0.9917545 -1.1876528 0.22638315 0.23503104 0.6294985 0.007375026 -0.39893654
557 -0.24362345 -0.44913247 0.39649296 -0.3993496 -0.23597638 -0.7053172 -0.121417485 -1.2940583 0.41892418 0.9383295 -1.2980388 0.51561373 1.1321241 0.31884003 0.24447134 0.60876393 1.1323129 -0.506738 -1.314938 -0.5752937
180 -1.7882046 0.9873546 -1.256417 1.9852767 -1.2815026 -0.22550043 -0.02025034 0.90441954 -0.19046114 -0.21352187 -0.64080304 0.5766149 1.3237087 0.56020415 -0.68398243 0.5344487 0.64961374 0.27875394 -0.56655437 -0.17562647
196 -1.0657737 -0.679387 -0.17327383 0.20633408 -0.5382257 -1.0049936 -0.054983005 -1.5861969 -0.16414934 0.779374 -0.3995555 0.5280252 -0.30985084 -0.040376145 -0.76193357 0.5920559 0.376728 0.95931196 -0.9530366 -0.2851057
187 -0.8885996 -0.74218386 0.27436864 0.7873303 0.420888 -1.1676422 -1.1241157 -1.0324599 0.31441367 0.013110332 -0.26172593 0.2357957 -0.51913595 -0.57812476 -0.6741182 -0.6083223 0.5921528 -0.41040853 -0.4797041 -1.3172879
281 -0.81918365 -0.0143990135 0.08477138 0.44729236 -0.50527906 -1.0168647 -0.35511592 -1.452602 -0.4743686 1.290076 -0.76766527 0.4447257 -0.38147372 -0.1478748 -0.42947403 0.26617447 0.61688346 0.7702458 -0.9263382 -0.11076775
101 -0.632105 0.9518136 -1.1612823 0.9873116 -0.22295429 -0.96306 1.0922776 -0.09475253 -0.25825852 1.1181765 0.042687226 0.91695327 1.555781 -0.51452017 -1.4933258 0.23940653 0.36375335 0.55730474 0.023662824 -0.3896113
713 -0.6579578 0.0019259722 0.25352234 1.282101 0.6302283 -0.2948138 -0.8058071 -1.8338815 -0.2128982 -0.8788418 -0.14636156 0.9814647 0.18244572 -0.5985273 -0.8116197 0.14851427 0.5240851 0.07719918 0.1293082 -1.7086438
563 -0.77977395 -0.6977309 -0.67031574 2.721365 0.3660975 -0.15303084 0.8333016 -1.3207802 0.57358176 -1.0007464 -1.215185 0.77558213 2.2644138 -0.5389646 0.8768154 0.3178458 0.82686645 1.3690389 -0.35782832 -0.8042647
582 -0.23151705 -0.24930468 0.5842771 2.0222986 -0.7328256 0.71103877 0.830031 0.5311998 0.61882526 0.7390479 -0.5715748 0.72745144 0.3627023 -0.15529557 -1.205015 -1.6334287 0.14066052 -0.3891997 -2.1738288 -1.2239383
346 -1.0441691 0.72195715 -1.0518057 1.1189302 -0.6248813 -0.7900865 -0.45266062 0.7881434 -0.54346627 -0.3032769 0.31369835 0.73721546 1.3369863 0.47828642 -0.42432404 0.7490982 -0.18043698 0.46784627 -1.5309765 -1.0664464
247 -0.316882 -0.6582582 -0.5067284 0.11408244 -1.3957994 -0.4835085 0.46632704 0.14913782 0.0671628 -0.0062348507 -1.9058251 0.025639815 1.0873125 -0.029279655 -0.024225734 0.5761845 -0.023035139 -1.1357038 -0.3118291 -1.2936277
575 0.37302524 -0.40413415 0.04845633 1.6877021 -1.5632887 -0.18613659 0.37177268 -0.79385364 -0.56462127 1.4132875 -0.5473257 0.012255828 0.32092533 -0.030698832 -0.66513294 -1.4579077 -0.1672115 0.42606178 -0.47262654 -0.6032504
547 0.028652217 -0.04945539 0.036672983 1.5795051 -1.8372005 -0.2146474 0.45803696 -0.6247628 -0.4375851 1.2138803 -0.46849766 0.0287924 0.26668733 0.11209793 -0.57292 -1.8846445 0.078894824 0.47649232 -0.9430038 -0.85384595
103 -0.57424647 1.0134748 -1.10529 0.73698354 -0.58050686 -1.1445076 1.0784523 -0.6176879 -0.6131381 0.94874096 -0.033272557 0.13313232 1.5373744 -1.0737011 -1.1671072 0.20025606 0.30868602 0.56628877 0.048203964 -0.46760362
399 0.6995859 -0.2752281 0.19639689 1.3997016 -0.78896767 0.16577052 -0.39997184 -0.43995214 0.38256437 0.19645134 -0.79110265 -0.43560278 1.6837149 1.2746439 -0.65149826 -0.30285794 -0.095737085 0.5647813 0.18968815 -0.53981966
292 -0.95815086 -0.1641756 0.32814887 1.3640281 0.2804903 0.62434125 0.21646984 -1.747128 0.19182378 0.0370468 -0.5017892 0.08771804 -0.038348753 -0.818728 -1.4472744 1.3302549 0.03495388 -0.30175984 -0.031519733 -1.1998461
155 -0.4004366 -0.8868932 -0.22859338 0.7987176 -0.2073921 -0.76604223 0.14689274 -2.0210538 -0.45387974 -0.27465102 -0.2534594 0.51031905 -0.34251952 0.21345001 -1.2220862 1.0641615 0.6700437 0.56945384 -0.8605244 -0.79631186
401 -0.858814 0.36747497 -0.71492857 1.1658688 -0.0048003346 -0.75232744 -0.80942225 0.9853869 -0.3303543 0.4533643 0.8180613 1.0648714 1.2637572 0.15049356 -0.18299232 0.38095868 -0.5333561 0.31350848 -1.0363791 -1.5485078
10 -0.11591381 -0.31849653 0.72871053 1.2493589 0.9809569 -1.3647759 0.2169621 0.0657031 0.33620524 0.931319 -1.4690945 0.041688953 0.24771139 -0.7647679 -0.7816176 0.36211455 -0.023319663 -0.39430803 -1.2619748 -0.4466037
39 -0.33793816 0.42406 0.9689341 0.25531134 0.36377093 -0.8189007 -0.37551823 -0.84092253 -0.09490968 -0.57272106 -0.45741975 0.7951033 0.8954161 0.9436274 -1.2222946 -0.33838397 -0.23847288 0.03497602 0.21312135 -1.3873987
219 -0.468343 -0.32419986 -0.23647258 -0.371031 -0.4858855 -0.19267625 -0.6515278 0.8381469 -0.17457154 0.5699032 -0.80760133 0.033059992 2.0587873 0.007625553 -0.06970054 0.5822375 -0.39579767 0.107558064 -1.59522 -1.5386152
651 -0.7547469 0.958978 0.21352158 0.6607856 0.2912731 -1.7209108 -0.30618152 0.021126062 -0.014403813 -0.7977188 -0.3174462 0.17985357 0.537964 0.9096931 -1.2300702 -0.12170025 -0.36653298 0.06629231 -0.79453087 -1.0909694
461 -1.6879754 0.17102647 1.4451767 0.85204524 -0.1371658 -0.9083246 -0.39522094 -0.259208 -0.19403522 -0.84282607 -0.6081839 0.35940564 2.4427469 0.9867098 -0.51110125 -0.21343791 0.113273874 0.29823554 -0.50200045 -0.0013196281
707 0.08859352 -0.015125946 0.45677683 1.3411436 0.8570059 -1.766899 0.11367232 -0.08571627 0.95787007 0.68847775 -0.9458755 -0.14275087 0.061538596 -0.6873791 -0.93808347 0.48650023 0.19084512 -0.1386357 -1.1595104 -0.7238028
391 0.17329767 -0.717107 -0.24769713 1.5968443 -0.06262527 -0.0467062 0.5760936 -0.9222368 0.13355827 -0.3218316 -1.7199147 1.3393124 2.2825055 -0.1915761 0.33198768 0.027509445 1.7693563 0.49450755 -0.16694969 -0.34519017
676 -0.7633438 -0.6528098 0.70225734 1.1252795 0.37481713 -1.2678356 0.22775441 -0.5421197 -0.07072217 -0.018079733 -0.7089837 -0.6696275 0.1922149 -0.40729782 -0.25014222 -0.35284427 1.0734975 -1.27054 -0.9955618 -0.68909514
50 -2.2264235 -0.79822946 0.08516735 0.7243398 -1.3283205 0.059254877 0.78513706 -1.0785131 0.8451352 0.18862054 -0.32780662 1.6210315 -0.26375023 0.6525841 -0.71646196 0.25357568 -0.19420244 0.9859653 -0.9012365 -0.9752895
486 -0.943066 0.46405944 0.40669158 1.0664316 0.4150671 -1.0707315 -0.444676 -0.24663723 0.05488407 1.0077689 -0.018012187 0.040445946 0.11494773 0.36175406 -1.3009679 0.44780317 -0.44524783 -0.74569815 -0.015617995 -0.839488
693 -0.84230685 -0.3180512 0.0027820184 1.1603988 1.084457 -1.048087 0.047026254 -0.45359415 -0.42412314 -0.21901387 -1.3012506 -0.93228835 0.9021045 1.1340268 -0.9393834 -0.44903573 0.3328168 -0.310527 -0.1521334 -0.26119977
338 -0.7757524 0.4565737 0.053633563 0.7245226 -0.06947797 -0.8298884 -0.37527266 0.019713692 -0.6787611 1.1018554 0.5328071 0.20298392 0.7545753 0.21998547 -1.6771939 -0.012211976 -0.0211792 -0.59438443 0.3501891 -0.9990382
312 0.20483159 -0.0048117177 1.0273191 0.810865 -0.07753881 -0.9191463 -0.28353137 -0.5183811 0.3007787 -0.26595283 -0.47094068 0.277894 1.0180678 1.5765512 -1.0758713 -0.07929834 0.11292934 0.2631962 0.4860114 -0.77904767
667 0.60514146 -0.17333028 0.30327028 0.6820495 -0.97790027 -0.019362548 -0.6993482 0.30222753 1.1555187 0.043647237 -0.6723382 0.0024499057 2.1166687 0.3427 -0.03270805 0.19742562 -0.46600384 0.02830577 -0.399371 -1.568036
394 0.10769178 -0.7467991 -0.3890292 1.9495388 0.048728622 -0.06049686 0.8411381 -1.1640503 0.25534657 -0.720202 -1.730242 1.3426408 2.3582742 -0.3183767 0.46330664 -0.060693566 1.4354038 0.6118249 0.0028185642 -0.65115035
628 -0.3611035 -0.12206894 -0.62655914 0.85016376 -0.435406 -0.32372072 -0.39572617 -0.84540284 -1.8373165 1.0071094 -1.6946565 -0.3772905 0.43948537 -0.22179659 -0.6567802 -0.636906 0.33462793 -0.24627462 -0.70768934 -0.12464716
606 -0.6893201 -1.0511925 -0.32851383 0.5683831 -0.47620764 -0.23277758 1.0749896 -0.023449795 -0.066827916 -0.14253442 -2.1451027 -0.7029612 0.41257998 0.5288803 0.19249812 0.20472257 0.3768097 -0.6331997 -0.57390195 -2.2218673
551 -1.3785859 -0.779164 -0.88930935 -0.33893034 0.33386782 -0.37336138 0.029226534 -0.013854816 -0.7545869 0.84002465 -1.2941331 -0.4096796 1.3350835 -0.04447216 -0.6644762 -0.42816183 -0.26719853 0.7416246 0.39209497 -0.8653128
