4695 20
1984 1.3632365 -1.6433593 0.51263404 -3.0315533 -0.12200987 -0.38544038 -2.9761364 0.5646183 -1.2078842 -0.050477147 0.20879151 0.22986029 -0.43310168 1.7012417 -2.8024864 0.558715 0.63312846 1.0821854 -2.4133868 -1.9883103
1845 1.4243203 -0.5921789 0.4806552 -3.1507878 -0.25726 -1.687641 -1.5281782 0.90134215 -0.94695467 0.72612536 1.1188453 -0.7255707 -0.23474625 1.8664991 -0.011854691 -1.1420615 0.20405445 -2.4739335 -1.5965898 -2.9318497
4422 1.320758 -1.4170144 -0.047079057 -2.8668988 -0.18583794 0.5248207 -3.265537 1.1076322 0.41750273 0.36878154 -0.6992794 -0.18368791 2.888292 1.4423965 -1.6902266 -1.153137 0.96651185 -1.4892989 -1.1631773 -0.32309183
4499 2.2642639 -0.48719642 -0.19677751 -2.7482076 0.7402465 -0.38192046 0.27928722 0.9104899 -3.8007894 0.4445014 -0.481661 0.31698716 -2.6760633 -0.24930489 0.04059486 -0.9360872 2.1484768 -0.6259352 0.10040005 -0.61130905
3216 3.3705688 -1.0073608 0.21479055 -2.461065 -1.4936091 0.66949946 0.21790907 -1.1807395 -1.0189571 0.9553475 -0.32915753 0.3126085 -1.7903914 0.9857963 1.4141293 0.056955438 2.8961775 -1.4592595 -0.45361933 0.61734647
1903 1.5877978 1.1504343 1.2799791 -3.398526 -0.14528356 0.4465808 -0.8068009 0.6989878 -0.66150707 -1.3070216 -0.8733196 1.4539661 -0.9872879 2.1849809 -1.7624373 1.7708806 1.5415355 -0.56728715 1.3872614 0.85131806
4514 3.1757925 -0.92071664 -0.6388138 -3.3600802 1.7989457 -1.5725819 -0.9731129 -0.12476945 -0.8025696 -0.70711416 0.33592016 -1.4570657 -1.6018726 0.2484677 0.53983444 -0.88407344 1.5023912 0.045874346 -0.5785303 0.7434346
4003 3.3282576 -0.028531943 -1.7789584 -1.73383 -0.29841417 0.07710775 -2.0026608 -0.693562 -1.7647812 1.0815821 1.0994369 -0.2200802 0.33839154 1.1958264 -1.5106854 -2.1730561 1.568355 0.16590206 1.6024197 0.30259478
4510 3.1179962 -0.88608855 -0.8307557 -3.52427 1.4827449 -1.5531187 -0.953991 -0.27456003 -0.74741906 -0.93108267 0.34333348 -1.5993546 -1.5809286 -0.020501062 0.6786063 -0.59107006 1.5725605 0.13786185 -0.39136305 0.4902632
738 2.3422887 0.39546335 2.1017997 -0.75963205 -0.9035342 0.19035238 -2.364691 -0.8769347 -1.7373204 -2.425234 -0.5763229 1.0142193 -0.83176625 -0.1075696 0.32538608 -1.7001228 1.8992263 -1.4795921 0.11237095 0.82355845
306 2.3415022 -0.4077327 1.1902878 -2.6441615 -0.7894065 2.5187507 -0.13407858 1.9727777 0.4789048 0.76732624 -1.2246436 -0.7312771 -0.6899404 0.47041583 0.13643762 -0.41542527 1.1496106 -0.20306167 -1.7652237 0.62673765
3895 2.2883189 -1.4296908 1.0254493 -4.1772275 0.32423002 -0.281929 0.21876603 -0.15887998 0.9682142 -1.7470292 -0.9628759 0.57741356 0.25129268 1.6608093 -0.009085111 -1.3532878 1.3975748 0.7794568 -0.18084295 -1.1260372
844 1.7430303 0.97667855 1.2455884 -3.326937 -1.461812 0.17826425 -0.41483343 -0.56882197 0.4555166 -1.3175963 0.7428395 0.21180582 0.5639384 1.1867731 -1.2117788 -1.9958786 2.3398306 -0.7830431 -1.0263442 1.888501
1709 3.9794605 -0.5397762 0.89058876 -1.7949412 0.5187486 -0.13451008 -0.2002986 1.0291767 -0.4062953 1.1580701 0.37887958 -1.6814388 0.9842076 0.27106756 -0.10166147 -0.69118994 -1.3668343 -1.8650178 -0.559419 -1.1573814
3528 2.0234985 -1.7916007 1.4666516 -2.2348273 -0.54632026 0.11877175 -1.6987813 0.37684307 -1.8742199 0.8825097 0.30509382 1.8789817 -1.6736871 1.0031973 0.19761048 -1.17402 0.9042186 0.6402555 -1.6404617 0.2327526
3607 3.8408763 1.0429842 0.1491315 -0.772052 0.49439788 -0.49978694 -0.8380371 -0.79521686 -1.1799127 -1.3935893 0.79395634 0.75704175 -0.2091136 1.1703837 -1.084529 0.03398506 2.0005035 -0.6945423 -1.6431673 1.3950733
2774 3.1952434 0.023615122 1.09784 -1.1715527 -0.3818571 2.120518 -1.9515598 1.3373587 0.31920153 -0.18060927 0.11516133 -0.54439133 2.2153516 -0.7914771 1.3608736 -0.82704055 1.8336275 0.47984937 0.8900684 -0.6508416
2362 1.1939802 1.0890129 0.021601742 -2.3714333 -0.1350811 -1.3529786 -2.515796 1.2680339 -1.1705118 -0.86329055 -0.82718426 -1.4931949 0.5969906 -0.29466715 -0.33399957 -2.3768427 1.599488 -1.654618 -0.53135693 0.9768763
2943 1.3774952 -0.9981622 -0.51311785 -4.585221 -1.2226418 0.30485418 -2.2909775 1.3164812 0.9285533 0.24171 -0.39304352 -0.07485945 -0.61892956 0.8848467 0.008770218 -0.84029335 -0.23515026 -0.46189025 0.8258139 -1.5122755
2577 1.6105777 -2.0217116 -0.9331067 -2.5419192 -0.95251936 -1.4638363 -1.6537693 1.0538263 -0.78833556 -1.4908464 1.4981117 1.2533748 -0.65465033 0.42056757 -0.47709805 0.03447429 1.4037234 0.24175507 0.2543105 -0.8922681
2470 0.95904076 1.2297807 1.6175048 -3.1834292 -0.15053107 0.7234928 -0.3862556 0.42660296 0.33829972 0.033937894 -0.37019348 -2.114479 -1.3820198 0.0785949 -0.302549 -0.9220306 1.4460449 -2.4446273 -0.11045944 -2.4051006
1800 2.5349188 0.81550205 1.0562629 -1.5880501 -0.29004395 0.31025815 -0.31770942 -1.0307474 -1.354607 0.7022616 2.3874369 -0.64176154 -0.6505512 1.0649117 -2.327265 0.04729877 3.2407267 1.1472839 0.6771289 -0.3078711
1622 2.9114575 1.2396873 -0.072161205 -2.2498152 -0.52015394 0.56889844 -1.8012137 -1.0896498 -0.72006863 -2.09288 0.15846945 -1.3799514 -0.03832833 0.92866546 -1.9188561 -0.40022016 -0.48782215 0.1169106 -1.0174848 -0.74353683
239 2.3930242 -0.84191483 2.370268 -1.2845929 1.4494315 1.0787681 -3.1478002 -1.2102184 -0.7127987 -1.4008003 1.3577259 0.025200369 -0.77047837 0.008682797 -0.876948 1.0934318 1.9654654 -0.11864051 -1.0906771 0.58180493
4366 2.3763192 -1.2416731 -0.5688106 -1.7222841 -0.27709118 1.500907 -2.562702 0.8964796 -0.069705956 -0.9297283 0.25506622 1.0809493 -2.6528945 -0.62656194 -1.0943676 -1.5180893 0.321802 -0.9142154 0.24702647 -1.5810064
1704 2.3600752 -1.1258821 1.452279 -1.5624137 -0.33232763 1.3706174 -1.55124 1.1461865 -1.8477478 1.0065753 1.6538948 -1.1350731 -1.0497907 -1.0008531 0.82165295 -1.0636781 -0.31927276 -1.3374995 1.4393135 -1.527117
2906 1.7101866 1.3888487 0.5124335 -2.460008 -2.6664925 -0.7995038 -1.9949194 0.29137132 -1.735717 -0.87919325 -0.8778309 0.7392429 -1.2522231 1.009968 0.23835641 -0.5683379 0.05685457 -1.3919181 -0.04964451 -2.337606
800 1.3387986 -1.0420414 1.4411122 -3.1663256 -1.7116978 0.3059814 -2.1365526 -0.1092347 -1.5194445 -0.5438919 0.021725455 -0.28292757 -0.33885276 -1.8254954 -2.7127419 0.5226258 0.6924785 0.084538 0.6643119 1.2074368
1390 1.6947802 -0.71764916 0.09343917 -2.0461497 -1.2377073 -1.3986899 -2.0436761 2.9574199 -1.6900192 -0.29589435 1.5194268 -1.7945743 -1.1503298 -0.15598442 -0.4155365 -1.31362 0.72916913 0.26157528 -0.44647148 0.47005674
3299 1.9375211 -0.77499795 0.36598998 -2.4678922 -0.21224016 -1.4695688 -0.5508436 -0.2701094 -0.6264119 0.8832475 1.4225442 -0.99662936 1.0870155 1.4440721 0.60247666 -1.4372112 2.1600134 -0.8408529 1.9466326 -2.1522117
3887 1.477329 0.88731056 1.6044599 -3.9097211 -0.46107373 -0.65826225 -0.52623934 0.9454242 0.017193343 -0.33634472 -1.0051397 -1.3003805 1.5832354 -0.3476948 -0.4748069 1.1276077 1.5097197 -1.1744494 0.36548525 1.2462006
3454 2.6710649 1.2974366 0.28966588 -1.974636 -0.6545646 -0.47166342 -0.92003924 2.9096045 -0.19137919 -0.21435276 -1.5413542 0.5781165 -0.107382216 0.9255284 -1.697868 -2.528928 -0.36429513 -1.4312372 0.07842238 -0.3018322
1786 4.186423 -1.2892051 0.4904058 -1.2257109 1.5602981 0.25786078 0.37481403 1.102027 0.49169806 0.41174838 -0.41851297 0.0027695938 1.2320888 1.9263742 -1.1346574 -0.6287136 1.3707266 0.6483801 0.78649664 -1.2792467
2880 1.3852706 0.89015204 1.9682039 -2.3987086 1.1678773 0.43946993 -0.7387858 1.7631049 1.2904209 -0.31881958 -0.6984487 1.1378381 0.2107442 0.9175346 0.020777218 -0.27321142 2.1489828 -1.5169187 1.6799107 -1.2299356
3755 0.8348645 -1.2696427 1.7283115 -2.5552108 1.4664117 0.5904866 -1.9982073 0.3254175 -1.4737577 -0.06562241 -2.068941 0.36789805 -0.25607038 -0.6533643 0.1354845 0.3264582 2.6791003 -1.6738323 0.31697446 0.64606225
1015 3.1220858 -2.4893806 1.5424671 -1.409479 -1.2183317 0.44105616 0.2502809 0.7609211 -0.8046808 0.23009098 0.70888895 1.4607304 0.12392643 -1.0226377 -1.5614839 0.21307658 1.8674864 -0.38037628 -0.9229135 1.5242872
4158 3.5936139 -2.3413436 0.75005305 -1.1846856 1.2681087 0.218608 -2.193869 -0.9070265 -1.4971485 -0.27707162 -0.378482 -0.64906085 -0.72277415 0.6782006 -1.5201863 -0.6542819 -0.48824397 0.025910644 1.267597 0.35492918
1796 2.2597463 0.37831253 1.4037772 -1.5110937 0.00658348 0.4627708 -0.35393652 -1.0606518 -2.0218194 1.8291612 2.1459165 -0.52199477 0.06811487 0.9643723 -1.4001641 -0.25328323 2.812035 0.82693577 0.12944297 -0.50161594
2105 3.543174 0.033247992 -0.8182285 -1.5600941 -0.13111094 1.3898699 -1.0907978 -0.65885353 0.16543008 -0.4962769 -0.99998915 -0.5131656 1.1447798 1.3193445 0.7112207 0.81109613 2.6983128 0.252616 -1.151742 -0.9040168
4146 3.6266797 -2.1929867 0.29635352 -1.9386327 1.3988531 -0.11257211 -2.1625965 -0.7046832 0.042281166 0.2600928 1.5645429 -0.6223558 -1.0954527 1.0156344 -1.4266603 0.011590264 -0.6341958 -0.82108796 0.86687744 -0.39300352
681 2.6698325 -0.74601346 -0.4071228 -1.5630542 1.4766659 1.6421353 0.07384271 1.388745 -0.843643 -0.750279 0.054282777 0.23010254 2.3142288 -0.89924306 -1.7152858 0.2850342 2.4102244 -1.5601615 -1.1699803 -0.6430463
2659 1.8720495 -0.0040371204 1.4893203 -1.8132809 0.049553722 -0.9483207 -1.3491722 -0.65422785 0.7235063 0.9144834 -0.74608886 -0.8826898 -0.8558016 -0.118361615 -1.798494 -2.028529 2.7605968 -0.25050667 -1.3745546 -2.281879
3826 1.2199769 -0.9281747 0.15068032 -3.3557446 -0.75404066 0.6892356 -0.6585765 0.9913408 0.20146894 -1.0250757 0.79577154 -1.5416355 -2.0629246 0.9378969 -2.2625363 -1.3214935 0.55404377 -1.1000068 -1.3811105 0.681882
2786 1.9732072 -0.14382575 0.6552149 -1.9665204 -0.3716869 0.26233158 -1.1227877 0.22589232 -0.78297544 -0.10597684 0.17803286 -0.081610374 -0.07204 0.5345432 -0.5324979 -0.3573678 1.3904797 -0.6022735 -0.0065846387 -0.8627091
3479 1.433725 -0.78741515 1.1944394 -1.9536496 0.33055505 -0.86111027 -2.7942457 1.82891 0.09813325 -0.07860365 -0.51676196 -1.4414573 -0.78900534 1.5455275 -0.92287874 -1.659022 1.3355503 0.77220756 2.2853608 0.113866106
4479 2.4050143 -0.2002859 1.2262136 -1.5582188 -0.2828847 0.33855453 -1.228315 1.0337825 -0.84746355 -0.3867209 0.12128937 -0.3672306 0.019092709 0.43096444 -0.69310933 -0.38411143 1.0382427 -0.57159805 -0.02064442 -0.4157673
888 2.2633533 0.15329883 0.7531296 -2.0354593 -0.22438307 0.77300495 -0.39966583 0.58860964 -0.83951074 0.21123816 0.11088609 -0.42570284 -0.050291374 0.6661935 -0.98777515 -1.0738112 1.0376728 -0.19418773 -0.10251382 -0.98358834
586 1.7628195 0.9932339 2.2257435 -0.54156774 -1.3832082 0.6253151 -2.9821696 1.4335827 -0.3745592 -0.8727385 0.7579774 -1.3201939 -1.001748 1.3165501 0.82765347 0.38438654 2.2912083 -0.047669597 0.60346055 -3.0573616
1236 1.9899786 -0.10204557 0.8984688 -1.624137 0.0051030535 0.4140562 -1.087974 0.6482526 -0.7755733 -0.06917258 0.25799116 -0.1493591 -9.99542e-07 0.10274031 -0.420191 -0.25115028 1.2731038 -0.83399 0.017156545 -0.60847765
597 2.2169273 0.1269683 2.3681617 -4.166977 0.29377654 1.0538633 -3.1102462 -0.67345417 0.8178439 0.13948897 0.025292715 0.28957847 0.49471882 -0.22779176 0.5356914 -2.1854224 -0.25902715 -1.0196916 1.3294612 0.2709265
2370 1.686779 1.4364191 -0.20702001 -2.171593 -2.4327464 0.9395999 -1.3308314 1.7692482 -1.4067162 0.46052042 -0.28847793 0.5427641 -3.0940902 0.36973152 -1.3006872 0.47782618 2.4039237 -1.5578929 0.89469564 -0.07331676
1254 3.2356129 0.39284253 -1.0714582 -4.136242 0.2648531 1.8227369 -0.9986065 -0.5185007 -1.5238726 0.6270761 0.77041465 0.9965029 -0.25272343 1.9944049 0.018778702 -0.6370374 1.1467643 -0.36062506 -0.51653075 2.31774
2124 1.5658001 2.2792768 0.6416943 -2.8757784 0.5931065 -0.070542425 -1.4190272 1.1268189 -0.7102461 -0.13077879 -0.35837808 -2.5111408 -0.8453465 0.35247326 -3.5170557 0.58404124 0.9524605 -1.7041051 1.2180405 -0.7069838
571 1.0195817 -0.500702 -0.009695442 -2.4914725 -1.9723614 1.0792223 -0.7449313 0.59544384 -1.752586 1.1613604 1.0140446 -1.6406107 1.9950249 0.4403334 -2.4229105 -1.2834184 1.7221069 -0.2681571 -0.8948374 -0.80039006
1714 3.2217286 -0.1665711 0.5536012 -2.1070611 0.22228965 0.42382488 -1.7632562 0.5178601 0.35911906 2.5989928 0.54723525 -1.1245917 0.78942764 0.67727333 0.15847088 -1.7835991 0.10143215 -1.9098952 -1.6541095 -0.043726895
1076 3.0410743 0.28326055 1.452544 -1.3661087 -2.3864293 -0.47988483 -0.6714451 1.8034987 -1.6890033 -0.43962035 0.99021924 2.2879653 0.54329264 0.120102204 -0.28055006 -0.27356115 0.4652614 0.75151247 0.06522213 -0.37763956
3156 3.1231089 -0.5860418 1.9725614 -1.9800903 -0.10432358 -1.41651 -0.056925338 0.035228025 0.15026872 0.090817444 -0.68496925 0.29737076 0.07829407 0.9752312 -1.3674266 0.32356963 -0.18736576 -1.9105642 1.7377123 0.6153723
1096 2.1459339 0.4326688 0.0417105 -2.3023791 1.5911723 2.4194136 -2.2356782 0.96468645 -2.130844 0.7111367 1.5064863 0.7583458 0.47707593 1.4776794 -0.29057565 0.51639533 0.042049766 -0.17335281 -0.0076848804 -1.0637323
510 0.6574187 0.46023735 0.42965204 -2.9531314 -1.5606084 -0.11244312 -2.6631486 0.47654957 -1.1211798 -0.21958132 1.4765795 -1.534915 0.6328263 1.2370762 -0.35532874 1.2239895 0.7178057 0.10630297 0.66990566 -0.75046426
3687 0.9157754 -0.28003448 -0.21515574 -2.768469 -0.2808585 0.89290833 -1.1719661 2.5983145 -2.6754484 -0.7611509 -0.7716813 0.012127645 -0.136895 -1.6678556 -1.2477539 -1.4716226 0.36574757 -0.75371283 0.62985736 -1.0073805
2866 2.6455 -0.7466861 1.2535144 -1.1577858 0.18735397 0.89043295 0.6430554 2.076171 -0.818231 0.9703353 1.9759337 0.27199417 0.14257817 0.32464862 -1.6530204 0.9367833 1.2247812 -0.71975523 0.2261835 -2.8728654
2914 2.403636 -1.0007815 0.36907282 -1.620219 -1.437591 0.34440187 -1.8048856 -1.6714981 -2.9042046 -0.9203267 -1.1006296 -0.32248807 0.15069188 1.0449564 -1.4855776 1.404464 1.0802977 0.5236412 0.062997505 -0.69997156
3925 3.7912805 -0.24064884 0.27251306 -2.784415 -0.6249754 1.012129 -0.19238655 0.36171225 2.0275333 -0.04271976 0.7536903 0.84824914 0.6972872 -1.0344672 -0.4596455 0.50864476 1.5919904 -0.943157 1.8494992 -0.28899032
4519 2.8053334 -1.1436073 1.7484928 -2.207235 -1.3636086 0.69455254 -1.0959841 -0.2487497 -1.4955555 -0.17475322 -1.3963372 -0.27675015 0.109730214 2.0517774 0.15263458 -2.163154 -0.23470351 1.4643806 0.8816968 -0.9322662
934 1.1186675 -0.25010902 0.5177152 -3.404132 -1.3867286 -1.435267 -1.4886707 0.778439 -0.7133935 -0.1421705 -1.4567027 1.0782728 -0.9896201 0.09321504 0.13939716 0.92123145 2.2051039 -1.3075764 -1.9222052 0.16976656
1402 2.2223415 0.7193286 1.3445942 -1.5583457 -0.44535503 -1.8156981 -1.2905136 2.6495001 -1.1739159 0.74805313 1.6648991 0.62869984 -2.312758 -0.07764853 -1.8069603 -0.01881775 0.29659888 -0.73710674 0.05614648 -0.5477727
4612 2.85242 -1.0109124 1.0384192 -0.6392465 0.4843776 0.58199704 -1.433721 1.2966619 -0.51023525 1.8081446 -0.07209853 1.3222016 -0.5551179 0.9406558 0.15591763 -1.102012 1.7787323 -0.8509689 1.3757612 1.3167186
174 1.6141448 -1.1470368 1.5046698 -2.1722784 2.0238526 -0.5549883 -2.4025073 -0.86745536 -1.332016 -0.18463959 0.89218444 -0.596881 -1.2414265 0.9503461 1.2797185 -0.1864542 2.2117682 -0.55180466 0.81179535 -1.4078786
700 3.2150931 1.4696249 0.023899963 -1.0109384 0.64006525 0.16660164 -2.1380954 0.49821293 -1.3719827 1.300447 0.93805414 -1.8149309 -1.2066709 -1.2103423 -1.3702731 -0.59779364 1.1105431 0.49771616 -0.8808364 -1.4752105
3110 1.738219 0.36736637 0.77548105 -4.111649 -0.80144465 -0.47199062 -1.0043278 1.49341 0.9055467 1.0152813 0.6601748 -0.15219317 -0.34752858 -1.3059002 -1.9223152 0.14807642 0.077062294 -0.7644655 -1.2908374 -1.012942
1760 1.7926315 -1.2971267 0.43314916 -3.4662151 -1.3641316 0.6936737 -1.4423 2.0938659 -1.7718906 -0.4055778 0.40955028 -0.47286648 0.71685404 1.4207356 1.7332258 -0.68058664 -0.7052253 -0.6716462 -0.39729428 0.78483045
1952 3.5628943 0.2274062 -1.7871951 -1.9833947 -0.5323688 0.9104496 -1.6800424 2.1045833 0.06945744 1.1529815 1.0277671 0.24578522 -0.9140553 1.5447884 0.7763107 0.8600274 1.9145548 0.18002929 0.2964447 -0.027683852
2986 1.1551007 1.3667728 0.8227604 -1.798751 -0.68483156 1.5270951 -2.5940778 0.8507655 0.024015646 0.31680697 -0.32763955 1.5972887 -0.094786234 1.8887761 -0.5857026 -1.4901809 1.4640477 0.27150336 -0.036014907 -1.5996151
2351 2.2487082 0.90826607 -0.51715934 -2.6576896 -0.4546584 -0.81026924 -2.1233287 -0.08084772 -2.2462926 -0.23186244 -0.9325687 -1.8273888 0.20580421 0.08595918 0.281483 -1.0924635 0.56316423 -1.409758 -1.5185602 1.198409
2234 0.6679423 -1.5843433 -0.5765716 -2.7015488 -0.85982513 0.18113978 -2.3095737 0.09219722 -1.2736399 0.95163447 -0.8439861 -1.5256008 -0.8175427 0.5012015 -1.0448266 -0.666121 1.1683874 -3.1989145 0.5520179 -0.22823864
1133 2.5690796 0.246703 -1.4196855 -2.8284805 -0.9306219 1.3460704 0.042237226 2.0886621 -0.537396 1.5006588 1.6080304 -0.5103443 -1.293906 0.053896002 -1.8796037 -1.2146024 0.67258304 -2.3245785 0.90536886 -1.0423832
4583 2.5974448 -2.00871 0.943638 -0.9290118 0.68090993 0.07714878 -0.84019756 0.920623 -1.3402711 1.7514452 0.9482552 0.74392885 0.5597685 1.2354636 0.0128319645 -0.6249063 1.549969 -0.85204226 1.421273 1.1306893
4299 2.8741598 -0.69152206 1.2401361 -2.0157063 0.56039596 0.30520636 -0.85528904 0.9429844 -0.84425896 -1.0896432 2.3550048 -0.326706 0.80885106 1.2798786 0.05372449 -1.5138985 0.38584974 0.34911144 -1.926864 1.4474117
1337 0.59452224 -1.6862553 2.0298111 -1.875745 0.017519992 -0.3443693 -0.38154835 1.5396833 -1.0326544 -2.5182655 -0.8087605 -0.3133405 0.4798766 0.92122453 -0.16981785 -0.7156322 2.2328045 -0.5895013 1.8319585 -1.1822361
527 2.726723 0.03925552 3.0037012 -1.4954739 -0.43588504 -2.3196516 -3.3792818 -0.021061815 -1.8452686 -1.3592774 -0.20942754 -0.47631544 0.50695044 0.051582616 -1.0118898 -1.2133759 -0.587868 0.43642646 0.66324884 -0.46610576
1731 1.8420401 -1.4213581 1.3194005 -2.3044012 -0.62207514 0.45278212 -0.87534887 2.0603254 -0.16274342 -0.12778959 -1.0468005 1.0670362 1.015252 1.6644404 -0.23705241 1.5775338 -0.055630695 -0.7529194 0.5789933 -1.9402343
1650 2.4869664 0.1251667 0.2925409 -1.819804 0.16940004 1.2902327 0.119647406 1.5808108 -2.1053143 0.63919383 -1.6490086 -0.48654053 -1.6318612 1.9107143 -2.6083689 0.3959733 0.018608456 -0.7634069 0.95846033 -1.8306066
223 2.2265375 -0.32592762 2.2428057 -1.102556 1.1604631 0.7315551 -3.1495538 -1.2696248 -0.7285351 -1.4114476 1.2197493 0.13066919 -0.3724882 0.060886007 -1.2664064 0.94467527 1.2109556 -0.26679295 -1.0436113 0.0001258761
3725 1.2878004 -0.8036077 1.382031 -0.21293785 -0.4637579 -0.013120746 -1.8590527 1.242236 -2.1372879 0.36156484 -0.86435246 -1.8980236 0.6424051 0.28897333 -1.1084232 0.66658676 1.5330375 -1.7886443 -1.8236004 -0.9744511
2810 3.541249 -0.20070924 0.9331038 0.15722157 -0.7335079 0.58333236 -1.9958243 1.2108425 -0.14351399 -0.8522496 1.6343163 0.216567 -0.9092952 -0.6845871 -1.6805277 0.5110879 1.3128657 -1.6750197 0.59701055 1.7971348
3721 1.5750566 0.44871998 3.126581 -3.997617 0.9281562 0.5649273 -0.31193432 -0.8410707 -2.0015101 -0.9420213 0.21150331 0.19460984 -0.0040354147 0.9051642 1.3742163 0.034079917 1.4680439 -0.25888535 -1.1256205 0.7738959
4328 2.6321242 -2.012567 1.5621701 -2.4709475 0.5433851 0.95687944 1.6448512 1.5916647 -1.0100609 -1.2542523 0.031237964 -1.1324567 -0.34550914 -0.7505905 -0.90963775 0.9620798 1.105158 -0.46322814 -1.3884913 -0.60492975
3317 3.6874921 0.8579997 2.2618089 -1.2772087 0.1722081 0.7258264 -0.9750234 0.15572034 -1.0029196 -0.9082414 -0.53242546 -1.6176255 0.36337382 -1.3639028 -0.4784567 -1.6689531 1.2050316 2.0002975 0.61378855 -2.0380027
1378 3.1470664 -1.4212285 0.41411614 -3.1730025 0.53416485 1.9512007 -0.25626507 0.66686016 0.025730416 -0.25204876 0.5413518 -0.9842173 -1.279855 0.71402377 0.09994516 1.1998843 2.6994462 2.0672567 0.59125906 0.42959926
2770 1.7926202 0.44382206 1.0222156 -2.1454682 -0.43687308 0.44035023 -1.8753963 -1.5093757 -2.4163268 -0.5005189 -0.70299333 -0.85111916 1.8193483 2.9994295 -1.3518094 -2.0370586 2.0181262 0.22870088 -0.9666448 0.4593762
685 3.5766854 -0.2980418 1.6124833 -1.3015655 -1.2290941 -1.8718346 -1.0644649 2.2546089 -0.32920104 -0.4717801 -0.56747544 -1.189804 -0.8602119 1.7657943 1.5378935 -0.96788424 -0.13949068 -0.82103777 0.07686141 0.15992306
4537 2.2554138 -0.18012224 1.052057 -2.2138274 -0.037610926 2.345276 -1.2159255 1.0530177 0.21114583 0.565734 1.3636606 1.7039963 0.48656774 1.452916 -0.79922783 1.1913817 1.4413027 -3.000173 -1.2797476 0.92663425
1776 2.1498911 -2.3434186 1.3046734 -3.8943663 -0.63427085 0.04695542 -1.1808821 0.49817863 -0.6221798 1.4735022 1.8176901 -0.7162509 -0.2574494 -0.40628365 1.298893 -0.20458312 0.50908256 -0.08264394 -0.91480875 0.2302095
74 1.7615142 -1.7286925 1.6949936 -1.3261219 0.002230832 0.6322004 -1.0414393 0.6052651 -1.2128162 -1.803288 -0.80928975 0.21651815 1.6317059 1.000557 -2.5450864 2.0797694 1.9691805 -2.1721482 -0.070765145 0.64279896
2854 3.0556545 -1.196868 1.2343109 0.22111723 1.9057882 -0.99004775 -0.7199309 1.0153973 -1.1182687 0.18266667 -0.7877148 -0.7309926 -1.1022406 -0.2297583 -0.8428784 -0.8697892 2.482064 -2.6089683 -0.10973543 0.44213092
2712 1.7820057 2.0940852 -0.026433902 -3.484034 -0.20349896 0.3603208 -0.6043229 1.3445395 -1.7538426 -2.0539877 0.8694422 -1.8563261 -1.1681789 -1.317353 -0.06912226 -0.40492475 2.0030966 -0.8912241 0.90973765 0.9211485
1160 1.6409793 -1.6032265 -0.35390395 -3.0632927 -2.3339546 2.2310321 -0.5249094 2.031919 -1.5331265 1.2753536 0.17923063 0.063828945 -1.0724661 1.633723 -0.99692523 -1.2193784 1.8153261 -0.5964121 0.6238021 1.6365343
298 2.895563 0.8666821 1.8361354 -2.1456528 -0.95632637 1.0323868 -1.1278387 0.40036044 -1.5483941 -0.15521328 -0.96753633 -1.2246957 -1.8857177 0.5904457 -2.4374113 -1.7065465 -0.13113087 0.7913637 -0.19351554 1.6977929
2026 2.593387 -0.13223375 0.95073205 -1.9897361 -0.25620928 0.25990757 -1.2174145 0.83807176 -0.9605535 -0.14424954 0.1839208 -0.15548341 -0.16882357 0.33183858 -0.6183032 -0.263357 1.2785187 -0.9025202 0.28249192 -0.61644053
3646 2.1927197 0.14210682 1.4003782 -1.5081015 -1.228665 -0.04798673 -1.5304512 0.7675187 -1.1542057 1.0652121 0.040148214 0.96093404 0.6868996 -0.8558954 2.0002348 -0.6894748 2.0094113 -2.1160183 -1.007131 0.12663683
1637 3.0131888 1.1112404 -0.14287601 -1.9910557 -0.37522212 1.1599932 -2.0551796 -1.1207973 -0.96782106 -1.9260411 -0.28547174 -1.4371948 -0.3237799 0.59933513 -2.0435772 -0.44924837 -0.52885795 -0.0063920547 -1.0151166 -0.672408
1424 1.2760022 -0.87099123 0.85674554 -2.327064 -0.4180508 -0.35639036 -0.5871431 1.6100836 -0.04681264 0.081678264 0.78685695 -2.32972 -0.1499716 1.5794138 -0.8136313 -0.67489725 3.0686653 0.21641353 0.06785838 1.9101174
2239 0.2453327 -0.6757491 0.8003089 -2.2684119 -2.2458198 0.6172641 -1.3271055 -0.009437124 -1.6435397 1.0342916 -0.27926987 -1.7063371 -0.34641534 0.5259004 -1.1095002 -0.06678514 2.1027093 -2.589166 1.6313592 -0.39030373
1887 1.9416301 -0.48942623 2.376444 -1.2771541 0.3466351 0.9643426 -1.2830558 1.0892296 -1.8186903 -1.7249175 -1.8293155 -1.3931086 -2.0144362 0.9154422 -0.06814422 -1.7526973 -0.13530682 -1.0577825 -0.40745318 -0.8679736
735 1.2812529 -0.022466121 1.9885746 -1.5126868 2.8070972 1.3969126 -1.5890863 0.26629353 -2.9560268 -1.33818 0.37264937 1.2577119 -0.070764214 0.8274819 -2.0442023 0.09954327 2.4412062 -1.1481509 0.5351065 -0.9676392
2752 1.2682354 -1.2587745 0.3249498 -1.1323144 0.6588332 -0.7312851 -2.5386264 -0.021258429 0.32202378 -0.13032964 0.089348026 1.1708949 0.44835874 1.4578173 -1.3710997 -1.2153457 2.1642992 -2.2584915 1.379496 -0.703311
2952 1.289179 -2.4473076 -0.39217445 -4.3849463 -0.7543093 -0.21665192 -1.7280176 1.8262808 -0.04473396 0.44694063 -1.1503274 0.04268379 -0.78451556 0.48541495 -0.82576185 -1.3267827 -0.28756636 -0.23188421 0.23017856 -1.3401898
1627 2.6873972 0.945546 -0.334562 -2.0834925 -0.398844 0.943321 -2.2847595 -1.0156094 -0.7521427 -1.5125642 -0.5896895 -1.2256218 -0.252347 1.0310427 -1.9502293 -0.83854866 -0.68407935 -0.06170274 -0.99351734 -1.0850861
1037 4.128809 -1.2283659 -0.90623105 -0.8242938 -1.7557682 -0.5614334 -2.298049 -0.09488145 0.9100661 -1.4740623 -0.6792814 1.6405944 -0.60358006 0.83283633 -1.6082277 -0.029690545 1.822248 -0.5833326 0.8535556 -0.43353495
1859 1.0975329 -1.1899197 0.5170722 -2.8411872 -0.4922415 0.79346997 -0.70366555 1.8829463 0.048448496 -0.477707 1.1775467 -0.707341 0.70488733 2.8259592 0.018256405 -0.117496036 2.5985503 1.4489739 -0.50193524 -2.082697
2547 2.1313229 0.6909715 -0.20423731 -4.4528813 0.9428463 1.0789201 -0.3752491 0.92009014 -1.0111063 0.51956826 0.29120734 -0.41914594 1.2339232 -1.1362313 1.3619591 0.9581759 1.7729243 -1.2290126 0.6466985 -1.8111835
4261 2.655028 -0.016421627 -0.8076429 -1.7155622 0.40663454 0.9935575 -2.3437903 0.5277183 0.9490792 0.03590868 -1.7718508 -0.9585248 -0.4958642 -1.2023616 -1.2941904 -1.1823337 1.3523477 -1.4233011 -1.0715532 -0.009996134
4281 3.7546384 -1.1711143 -0.20295943 -1.6121774 0.07230264 -0.8115471 0.8025062 1.1783268 0.07012846 -0.20842469 0.8289548 -1.6444087 -1.3182864 0.12786722 -0.58172095 -1.7710098 1.3995942 -0.054415047 -1.3359197 -2.619596
1483 1.804405 -0.271464 0.508637 -2.1732135 0.7482289 -1.0511225 -0.8966889 0.27110937 -2.7857685 -1.0638143 1.8156694 0.1630757 -0.8987312 1.0926287 -2.5168679 0.95371234 0.49241194 -2.0443904 1.9811916 -0.3723539
1308 1.3331181 -1.2805518 2.0729504 -0.84160817 -0.022596326 -0.7727776 -1.1566199 1.9699285 -1.0106618 -1.966209 -0.99131393 1.0827427 -0.2836054 0.56599486 -0.2135783 -1.0500916 1.3981946 -0.07084363 1.3911252 -1.7038031
3284 2.2846928 -0.81618017 0.42486745 -3.3141632 0.48791486 -1.3191516 -3.0363457 0.007792764 1.5884908 -2.4644074 -0.1668975 -0.048431393 -0.68101674 -0.5918296 -1.2399337 -2.2098165 0.76754266 -1.6504519 0.30017525 -0.024000641
2481 2.2881992 1.3587341 0.812012 -1.1330247 -0.07486429 0.45343363 -1.6830105 1.474593 0.25140172 -0.2677531 -2.0213723 -2.5307343 -0.46306187 2.5275126 -0.54743457 -0.25550306 1.6418045 -1.0249704 -1.2117923 -0.59867144
3499 1.5272346 -1.6040325 0.51104045 -2.613289 -0.47377825 1.5824522 -1.6202012 1.9524237 0.59567714 -1.2118139 -0.642186 -0.31817132 0.30448082 -0.9364029 -2.2469172 -0.9603357 2.7898748 0.99974054 1.3827715 1.1825857
2789 1.9431362 1.328443 0.21052508 -0.9360994 0.023433734 2.054559 -2.0743763 2.0210125 -1.1850688 0.111175634 -1.2446281 0.21126834 0.7980589 0.6071749 0.44256628 0.3441228 1.572257 -2.1337025 1.0154961 0.22780624
1946 2.570158 -0.056597468 0.8380655 -1.4148679 0.13906768 1.3878446 -1.6937438 -0.7670848 0.9297376 -2.630725 0.8121695 0.25506672 -0.6700614 0.35988072 -0.78665674 -0.24985877 2.3857467 0.08035617 2.350524 -1.5638131
3281 2.1438358 -0.81048316 0.47142485 -3.1980417 0.45478222 -1.3141302 -2.9665997 -0.0028995618 1.6012642 -2.5350733 -0.24834234 -0.09057484 -0.7294618 -0.5806941 -1.3221972 -2.2172024 0.7264722 -1.6829218 0.32979006 -0.04924901
3496 1.5060618 -1.592503 0.61198574 -2.5400424 -0.5160438 1.630876 -1.6178416 1.9448903 0.6086998 -1.2117473 -0.5750212 -0.27792764 0.43527392 -0.9002091 -2.2800918 -1.0770974 2.782304 0.89725465 1.5018694 1.1001658
4012 2.3034205 -0.69585717 0.50428355 -3.958978 -0.17216226 -1.1550866 -0.6102068 -0.25711367 -2.6271574 -1.3659934 -1.6094688 -0.21630336 0.39709783 0.16166203 -0.1924669 -0.243291 -0.42677453 -0.47637233 2.1650684 -1.1012999
831 2.0985591 0.06853731 -0.03707173 -1.759012 -1.2543586 0.23502173 -1.74912 2.0400267 0.72919077 -3.016469 -0.09222412 -1.2419169 0.9315271 1.5380698 -0.5273176 -0.05245545 0.5243348 0.103594504 0.8319907 -0.734124
343 2.9023852 -1.3459307 0.150723 -2.9874833 0.8407453 1.6541086 -0.031452507 -0.63467026 -1.6143987 0.37882292 -0.66594017 0.29359922 -0.30459055 -0.528266 0.380438 -1.0357747 0.75521606 0.8762807 -0.99887615 -1.2903435
4381 2.54524 0.5310579 -0.24262294 -0.9830068 -0.8931565 1.1151944 -2.7366571 2.388652 -1.2908478 -2.089775 -0.98030394 -0.71594924 -2.5957165 0.91741776 -0.8083438 0.058583975 1.2050569 0.061800808 -1.4885879 -1.8590372
1699 2.6266966 -1.4124981 1.293958 -1.293387 -0.5082585 1.9566358 -1.744876 0.00926649 -1.965491 0.37887093 1.3564448 -0.49336037 -1.5089036 0.6568409 0.87444836 0.61685634 -0.10409302 -2.1754978 0.45064795 0.6691854
3559 1.8290945 0.04338951 0.10011614 -1.4196662 -0.919921 2.0168612 -2.8238037 1.5445999 -0.7451761 0.4337935 1.8772683 -1.2185982 -1.6879008 -0.39071864 -0.45245826 -0.9099749 2.9894743 0.83421725 1.252955 0.42204195
3227 3.14129 -0.77919906 1.1934751 -0.89457184 -1.2899569 0.8136512 -1.0880052 0.19009109 0.07958753 0.7707664 1.9596364 -2.1105123 -0.034239728 -0.11102496 0.17845649 1.3663847 1.5923127 0.12158105 0.12082596 -1.1315639
1907 1.4381627 1.1053798 1.2808961 -3.3445044 -0.1598055 0.38813725 -0.86573607 0.61858517 -0.63160634 -1.3130502 -0.82405466 1.4061657 -0.9326401 2.2351673 -1.7561358 1.7113398 1.5169514 -0.5236246 1.4244938 0.85766643
2746 2.8431854 -0.8951398 -0.58657026 -2.266235 2.0096452 0.5184682 -0.77857214 0.94247377 -1.5857841 -1.7979059 0.1748506 0.0475431 1.0404547 1.5409738 -0.9359849 0.628598 -0.2847325 -1.7273856 -0.3010145 0.41938993
4322 2.8571098 -0.22935604 0.13327387 -1.9509032 -0.73787874 2.6599536 0.35743076 -1.2489816 -2.131435 -0.7799879 0.5967733 -1.2093499 -0.47797728 2.2375774 -1.7012559 0.93590426 1.5752897 -0.8800056 0.55755705 0.65859616
610 2.2153182 0.87567675 -0.26195058 -2.9517646 0.7633835 1.6147513 -0.039441165 -0.47822395 -2.5903134 -1.0478495 1.7975707 -0.809327 0.085319564 -0.8694031 -2.5305088 -0.8705427 0.6430841 -0.7000123 0.56438744 -1.5295706
1535 3.7934802 -1.423272 0.7953452 -0.56827164 -0.4004894 0.53293955 -1.2721634 0.14096338 -2.7216313 0.8326481 1.5483823 -0.19712517 0.50748867 -0.23509037 -2.060777 0.5068068 -0.24276496 0.067987025 -1.0603064 -1.0003672
2495 2.7671227 0.7062051 -0.9956765 -3.3915896 0.67230505 1.5017636 -2.6670148 0.44594157 -0.86208445 -1.1113158 -0.33044526 -1.1887909 -1.2888857 0.8333014 -0.1605201 0.7729069 0.012481745 0.3983639 1.8068361 0.31596282
3254 3.4087408 -0.93577796 0.119663164 -2.2743747 -0.13882267 1.4514946 -0.7487056 2.1058776 -1.5878286 0.7180503 0.55886734 -0.095962234 -2.3548927 -1.3467035 -1.6029624 0.56906265 -0.05220582 0.48380798 -0.18193471 0.8868979
1486 1.812043 -0.2973369 0.55265313 -2.1055944 0.7788372 -0.9856751 -0.93911207 0.24354054 -2.702902 -1.122577 1.7759718 0.1842034 -0.9639453 1.1022094 -2.3273191 0.98850524 0.5221502 -1.9400568 2.0138428 -0.3615112
2737 3.2853792 -0.53207034 -0.8240916 -2.1367283 1.860375 0.27695408 -0.75927615 1.1609422 -1.2219738 -1.2793758 -0.0023625437 0.23283593 0.9923185 1.5718281 -1.0323577 0.18109441 -0.51481926 -1.7014362 -0.40432844 0.83971786
3847 3.2053852 0.64607334 1.6315316 -3.001618 1.339644 1.0157586 0.032410625 2.166125 -1.0508767 0.57006156 0.14445074 -0.1717352 -0.3165887 -1.5259287 1.2064446 -0.18972458 1.4963517 -0.24077496 -0.052300658 1.7737072
814 2.8392098 -0.39527354 -0.19220296 -0.7509708 -0.24435464 -0.9188761 -2.0281177 1.7652057 0.11214431 -2.2893238 0.3404062 -1.0756928 1.1893992 0.30699867 -0.95105976 -0.23655382 0.28679404 0.5402133 0.5786051 -1.379046
1537 3.7994 -1.5447407 0.5759785 -0.45657888 -0.124482445 0.5098576 -1.1862354 0.21095446 -2.819589 0.5755143 1.7835858 -0.3468683 0.60137856 -0.15162225 -2.0799274 0.5994217 -0.090826295 -0.106791206 -1.1256093 -0.8747318
1941 2.630141 0.28419906 -0.13965647 -0.30737275 -0.4832306 0.015993454 -1.8186431 -0.52396977 -0.3771881 -1.5528128 1.707388 0.12109928 1.1741201 1.5938758 -0.9013045 0.26549032 3.1827822 -0.39070752 1.6600631 -1.6847346
4162 2.6129453 -1.5990363 1.3122488 -1.3688147 0.22750959 0.14807513 -1.7520496 1.7415044 -1.2374136 -0.4335919 -1.0257604 -0.5255774 0.0130042415 -2.118049 0.07031769 2.0380785 0.9362981 -1.224669 1.1575011 -1.3872336
88 2.7448833 -1.3667423 -0.5549347 -0.6431722 -1.0237387 -0.51337314 -1.5781189 -0.8211634 -1.898659 -0.33482605 -1.212869 0.54930264 1.1870285 -0.3676939 0.27724388 -1.050504 2.4514885 -1.0360551 -0.43970555 -2.1020188
3591 3.3095832 0.6584291 -0.82146466 -1.8612545 -0.28564885 -0.5751433 -0.7829248 0.32731852 -2.0826533 -1.1854073 1.0402452 0.4404899 0.31689814 -0.23726875 0.23773797 -0.35310206 -0.012810338 -0.4880551 -1.6833506 -2.3393948
1640 2.1604834 2.4242268 1.1111795 -3.0604405 0.27989054 0.69619477 -1.7376745 0.06409935 0.33058926 -1.2218139 1.7575796 -0.17071134 0.21990754 0.69151634 -0.74541074 0.3620644 0.3284844 -2.4468062 1.5594597 0.10332931
2571 2.2687914 -1.7547231 0.101051055 -2.0739863 -1.6094083 -1.200328 -1.3660171 0.38958922 -1.0480818 -1.4321959 1.3803886 0.6553053 -1.5872817 -0.59259844 -0.26234594 0.8778227 1.4208008 0.51377136 1.0234458 -0.6540442
1293 3.5460434 -1.4566385 -0.5708932 -1.832918 -0.9283435 1.8451988 -1.2455784 -0.41657698 -0.9508937 -0.35574085 0.7664679 1.1457846 0.26273024 1.5127438 -0.7852569 -0.36722216 -0.36000243 -0.48631293 2.115301 -2.0561113
2748 2.9213467 -0.647286 -0.9693275 -2.5244868 1.9484696 0.55600935 -0.79584247 1.1965069 -1.2173595 -1.1872963 -0.069558464 -0.24647579 0.94679284 1.7060014 -0.93776774 0.73068756 -0.3021546 -1.8928478 -0.31637397 0.73712647
2271 0.98129994 0.16685809 -0.44046533 -2.8148558 0.53764486 -0.0850661 0.37511948 -0.9266599 -1.7794076 -0.80926836 0.81869817 0.7889113 0.28911823 0.6550115 -0.9216237 -0.46479747 3.2326784 -2.2918446 0.7825789 -0.8947274
3812 2.192212 -0.23169345 -0.09764886 -2.7383547 -0.24427028 0.72857624 -1.9954963 -1.9178077 -1.7068424 -0.2994819 0.61876684 0.27769786 1.1198086 -0.9294102 -1.4920022 -0.8705734 1.9896481 0.13410354 -2.5750542 -0.43561628
3235 3.1251793 -0.93373126 1.3051846 -0.8653266 -1.2828085 0.78615063 -1.5473958 0.14830767 0.15816474 0.8828236 2.1695766 -1.9747108 -0.21353911 -0.19235978 -0.21851277 1.4897326 1.4058285 -0.06532707 0.15451859 -0.87346506
4497 2.2077072 -0.37095782 -0.19730324 -2.8213098 0.77094865 -0.39019075 0.3784389 0.8404986 -3.679254 0.377171 -0.5695499 0.3256512 -2.645802 -0.2662546 -0.009911432 -0.8511003 2.0976868 -0.63160086 -0.015743913 -0.58866864
732 1.2721108 -0.07215921 1.951979 -1.5061793 2.8653157 1.4380208 -1.5317106 0.21841379 -2.9576974 -1.3763312 0.45336074 1.4161319 -0.05766181 0.8309671 -2.0667145 -0.026760153 2.496299 -1.0834274 0.47361365 -0.96902925
507 1.1255821 0.32020965 0.9653822 -3.2088928 -1.713321 -0.9463605 -2.8677082 -0.2640565 -2.1441743 -0.21729165 0.8574278 -1.6324366 -0.108138226 1.2954677 0.7224529 1.0517334 0.7917062 0.16761324 1.2359313 -0.63674873
2791 1.9055452 0.91997427 0.20311196 -0.96513116 -0.22293422 2.2950304 -1.9707927 2.0558841 -0.8242763 0.19991253 -0.9003511 0.13455404 0.68870074 0.6799333 0.2236502 0.8421228 1.6186639 -2.0615532 1.3668491 0.20455061
345 3.2044628 -0.4994308 0.14771858 -2.9252923 0.9505874 1.642671 -0.057071157 -0.77118534 -1.5029148 0.39419937 -0.30684435 0.3203045 -0.3555397 -0.19312125 0.38944253 -1.3924096 0.7473925 1.0838616 -1.2570508 -1.3203025
539 2.0817006 -0.90979445 -0.20489775 -1.7584438 1.4030286 1.4443235 -1.4822245 -0.28095898 -0.3084773 1.2368903 -0.42550033 0.0049023237 0.7488451 -0.49685553 -1.9965501 0.070722796 1.3488852 -0.8932839 1.2231684 -2.1952324
4660 3.0113575 0.17021722 1.1398454 -2.556471 -1.0344678 0.53387725 -0.8681801 0.11558978 0.39234814 -0.7470175 -0.44593054 -1.3253988 0.93972343 -0.22973882 -1.9561987 2.2738829 -0.06799596 -0.73517895 -0.6090563 -2.648201
2797 2.1130185 1.2982248 -0.033719793 -0.5677279 0.62015605 2.0255752 -1.7609738 1.8506685 -1.6415788 -0.18391198 -1.3983704 0.10158513 0.6032166 0.62536 -0.01490342 0.20048049 1.7767744 -1.9523022 0.8741279 0.1495905
36 3.0591834 -1.7941854 0.29129654 -1.9796091 0.03771861 0.36923182 -1.017552 1.2257098 0.36988932 -1.3834641 -2.0294304 -0.38147634 -0.22838849 1.7488884 0.73469853 -0.22818072 1.3204881 -0.7766242 0.8761564 1.7360615
316 2.3497148 -0.58770573 1.2308844 -2.0884154 -0.8068471 2.9758883 -0.6966276 2.087787 0.5267431 0.7286959 -1.0215552 -0.7750742 -0.8599567 0.2054271 -0.06570969 -0.38983077 1.2210331 -0.7635418 -1.6899282 0.82423055
1814 2.5803843 1.0609782 -0.22395778 -1.0051155 -0.57578796 0.010431167 -3.256878 0.77454656 -1.409448 1.5175948 1.9107269 1.7251227 0.6208385 -0.23903461 -0.76111823 0.50089294 2.277828 -0.32971227 -0.26210272 -0.3109515
2434 2.4083364 -0.46918932 -0.6159112 -1.6240809 0.38436067 0.17315564 -3.1678627 -0.71817255 -0.88452566 -0.99182713 0.6320992 -0.13044694 1.386286 -0.008998231 0.6200388 0.70051634 1.295155 -1.470155 0.94095325 0.7300447
2757 1.2647355 -1.4442407 0.34991664 -1.0979161 0.16063799 -0.6532965 -2.5326748 -0.25962108 -0.062442474 -0.43263698 0.06771683 1.2647462 -0.19456954 1.253966 -0.9189677 -1.4862759 2.027947 -2.3240018 1.7364224 -0.8916006
2081 2.6045184 -0.9236841 0.097621046 -0.70903665 -1.7041363 1.757012 -0.6095119 0.78174305 -1.8000668 -1.781094 0.74789286 0.887298 0.626946 -0.8180547 0.13568786 -1.5439167 1.8821472 -2.3100348 2.002918 -0.093428634
523 -0.030009178 -0.024095433 0.5316238 -3.8000374 -0.72855353 0.14313819 -3.1077387 1.1362855 -0.7838796 -0.5083143 0.93779576 -1.7783561 0.3045166 1.7317067 -1.1522918 1.7571207 1.4826328 -0.36287364 1.2082194 -0.4264481
2960 3.440026 0.44376487 -0.019475618 -1.6923106 -0.37922636 -1.3838352 -0.8213383 0.3298822 0.028855179 -0.65317786 -1.4753025 0.4877787 2.3413405 1.0668305 0.5040873 -1.3188976 1.4150757 -1.620685 1.1408659 -0.12581713
731 2.7439666 -0.5116439 1.0951074 -0.2182816 -0.35653296 -1.7849724 0.037323266 0.7363679 -1.3364055 -0.93431944 -0.08260715 0.15509728 0.36490285 0.831443 -2.4981701 -1.4991119 0.6726255 -1.5230914 -1.201443 -0.8828941
2543 1.8857871 0.6226348 -0.291501 -4.2075014 0.86004424 1.0769817 -0.5956 0.9653945 -1.0924315 0.4835693 0.2741253 -0.52045715 1.2188308 -1.022581 1.409718 0.99177665 1.6870197 -1.3612474 0.53973424 -1.6911399
2506 2.6924386 0.6010582 2.0239577 -1.8952814 0.7466742 0.2419703 -0.13489029 0.064803965 -2.0913904 -0.8791407 -1.3123835 2.4847732 0.42178383 -1.127498 -0.9557823 -0.8955615 0.75719714 -0.55328536 0.37703544 -0.69687617
2765 1.1687022 -1.3556648 0.38763207 -1.1535176 0.15487452 -0.8454361 -2.6002033 -0.18199812 0.39212942 -0.19031498 -0.13608207 1.1678026 0.03884351 1.4436617 -1.1594301 -1.2300866 2.5871882 -2.2438056 1.3361408 -0.8295777
2949 1.1471682 -1.4837242 -0.4546071 -4.329072 -1.0473132 0.019719442 -2.1464558 1.5787691 0.42053205 0.27910268 -0.7901535 0.024178527 -0.52174526 0.60770965 -0.29792485 -1.240812 -0.33785883 -0.41451216 0.69566745 -1.431545
310 2.5906618 -0.38772288 0.8003996 -2.8894043 -0.77664465 2.1912484 0.5896944 1.9451649 0.27188846 0.5145229 -1.2919456 -0.6482761 -0.85441583 0.38728514 0.581773 -0.30163282 1.7598306 -0.27578953 -1.9327435 0.67076945
2886 1.2850014 1.5206506 3.2926316 -2.4396644 0.986746 -0.2463883 -0.43615213 1.2048935 0.23345844 0.17693536 -0.71259946 0.8994157 0.37103477 1.4290154 -0.3022151 -0.36996105 2.1338677 -0.7624007 1.1001401 -1.978837
3617 4.3646917 0.67264736 0.02605869 -0.9488454 -0.33281395 -0.11543608 -0.28215957 -1.0876018 -1.4536035 -1.0037355 -0.06804342 0.48130238 -0.71129763 1.1865098 -1.068216 -0.18900731 1.6159962 0.44074368 -1.772804 1.1000193
1523 1.9698049 -0.865513 -1.7002108 -2.2705238 1.6154468 0.60304374 -0.693485 1.9278424 -0.9811359 -0.32720873 0.7084519 -1.1611475 0.6832368 0.19463256 0.29775518 -1.74903 2.5558906 -0.16188794 0.681892 -0.30598676
3296 1.6845403 -0.4830864 0.59533316 -2.423182 -0.36172917 -0.8336654 -0.9570459 -0.36557338 0.19754809 1.0132985 0.45830756 -1.2513394 1.0400825 0.84684867 0.7411249 -1.1609539 2.5541177 -0.44734246 1.9044368 -2.1312935
4217 1.9964157 -0.6552659 2.5893002 -2.4854505 0.046358675 2.6188126 0.96411073 0.75351924 -1.7990975 -0.16134669 0.7658287 -0.9868168 0.3163453 0.50471807 -1.240256 -1.2192153 0.6910364 1.0124894 0.63984674 -0.34467906
1502 2.3562756 0.6500104 1.6592097 -2.211977 -0.80412936 1.3603526 -0.34476396 0.81096286 1.4927166 -2.67803 1.0484343 -1.8512784 0.32758224 -0.9399035 -0.45590156 -1.733635 1.4367836 -1.0240247 0.44595385 -0.45978108
1885 2.1180649 -0.34343314 2.3493226 -1.1785859 -0.025516719 1.0842795 -1.000735 0.91627526 -1.5566676 -1.8472698 -1.4681401 -1.4351865 -2.0044482 0.53915113 -0.26561737 -1.8480498 -0.28459266 -0.99398994 -0.20427705 -1.140816
3914 1.8315711 -0.4648068 2.2339349 -2.508825 -2.8709786 0.28830555 0.71293235 -0.74425226 -0.33654585 -0.9511991 1.721263 0.02655473 0.45849085 1.6423365 -0.53345484 0.25425062 2.2932744 -0.4248711 0.9505286 -0.7810175
4284 3.6020427 -0.50341123 -0.5609751 -1.8936325 0.098272644 -1.1272327 0.9790551 1.3950722 -0.09467719 0.10764312 0.6481388 -1.5320805 -1.1861666 0.687893 -1.0342944 -1.4171627 1.5039985 -0.08423157 -1.705826 -1.8179014
3815 2.0667915 -0.38434628 -0.49875528 -2.9653032 0.5659212 0.5149828 -2.7121584 -0.9765168 -1.3518786 -0.5917027 0.46488187 0.19739273 1.7516211 -0.74699837 -1.265395 -0.7248383 2.0237417 0.6356919 -2.3977194 -0.24545301
2795 2.1729503 1.1509913 -0.13099985 -0.44575888 0.4743873 2.3774304 -1.804103 1.722113 -1.4726387 -0.19932242 -1.1719428 0.029850876 0.5101252 0.7689162 -0.45222148 0.64485556 2.02592 -1.8081696 1.0897418 0.27535573
3250 4.1154675 -0.46042192 -0.8266057 -2.4402795 -0.6765526 0.7767301 -0.32168728 2.6559956 -1.4186815 0.47897246 0.6841662 -0.34820646 -1.745901 -0.4237954 -0.4869695 0.29507703 -0.7566792 -0.3560971 -1.4983826 0.24399793
3903 2.5801 -1.4566642 0.69643164 -3.9688146 0.20646793 -0.4135929 -0.19987072 0.6090625 1.370443 -1.1588156 -0.33572665 -0.6996125 0.61222804 1.1971366 -0.035351533 -2.7436254 0.87337834 0.9625937 -0.8304442 -0.5059605
2648 2.345997 -1.2454385 2.4550595 -1.5517209 0.88354623 -0.5415784 -0.72209966 0.5295654 -0.049033426 -1.2670487 -0.2894996 0.32284334 0.22406837 0.10191331 0.64209116 0.4918781 3.9116294 1.4241877 -0.33600438 -0.70507187
2806 2.0805202 1.1644495 -0.07671992 -1.1094953 0.060448173 2.1113093 -1.6232654 2.090947 -1.0499715 0.26752707 -0.8334037 -0.13122661 0.26961645 0.44732112 -0.0913352 1.1214379 1.4032488 -2.0404987 1.392665 0.25499737
27 3.575538 -0.7637611 0.81410354 -0.7165639 -1.3261977 1.1714107 0.24220829 1.386401 0.09652072 -1.5355961 -1.9410084 -0.11346698 -0.8356024 1.9310749 -0.21756646 0.64369756 1.0242844 -0.6178149 0.52606726 0.14294769
2955 3.3375757 0.66707903 0.2532663 -1.5677588 -0.24072827 -1.3017473 -0.70740956 0.18851572 0.06577368 -0.7606699 -1.5343478 0.5637497 2.3319483 1.1607646 0.46994627 -1.1795185 1.7075729 -1.4259871 1.0891411 -0.18483487
4185 3.7969553 0.5332862 -1.0930542 -1.6626798 -1.7860665 0.3422167 -0.95774615 -0.9498112 -2.0433202 0.599825 -0.7945635 -0.71932614 0.21999218 0.93815625 0.14023261 0.04965112 0.124965854 -2.3642874 0.9727527 -0.324334
313 2.3522012 -0.16337992 1.2504812 -2.7887416 -0.8504385 2.2260342 7.327054e-05 2.3096817 0.23707658 1.3466837 -1.3053 -0.960938 -0.34218287 0.98278564 -0.08489187 -0.5776763 1.0302423 0.21330823 -1.823099 0.2477245
3747 1.0153043 -2.0185168 1.1740128 -0.9193559 0.3048077 -0.6031022 -2.1686153 1.1815497 -2.653737 0.37006485 -0.98779863 -1.5294325 0.86556226 0.7539004 -0.6854853 0.12271152 1.661882 -1.7169902 -1.6351383 -0.9299895
1857 1.1601967 -1.2063013 0.85612416 -2.6754751 -0.7144363 0.93354285 -0.65930384 2.0629199 0.13196695 -0.58119434 1.2550845 -0.640339 0.36185864 2.7760081 0.06732335 -0.27612916 2.5960882 1.4235016 -0.32086992 -1.944702
2804 2.034873 1.4004238 -0.0048908973 -1.4878697 0.05994287 1.7222384 -1.8990675 2.2675147 -1.1988035 0.60828495 -1.1067449 0.036036696 0.3694238 0.37518165 0.35001618 0.7812869 1.0627981 -2.2233274 1.0403632 0.44816148
3843 3.2935007 1.0485114 1.4794586 -1.9201683 1.5754415 0.07796948 -0.26937723 1.4007186 -0.40371814 1.1916616 1.857224 -1.0420579 -0.8015167 -1.5540042 0.39148918 -0.34924516 1.8837261 -1.1299943 -0.14016262 1.1342902
1291 3.4610198 -1.34368 -0.5366425 -1.8244946 -0.96761876 1.860558 -1.2898918 -0.3801895 -1.0446777 -0.26797786 0.69053084 1.0065559 0.20369418 1.3324902 -0.6084616 -0.43925798 -0.38091466 -0.4626975 2.1591697 -2.2138765
1598 3.6527064 -1.5894742 0.03946267 -1.9265909 0.5305122 0.36944494 1.0196017 1.7539704 -0.0727441 -1.3115834 -0.08128505 1.5148456 -1.7801397 -0.1682627 -0.13106568 -1.0660521 2.1181347 0.33830458 0.76318675 0.013513107
1940 2.6079862 0.3928321 0.2337155 -0.33873942 -0.35918036 0.23042995 -1.8008889 -0.77997464 -0.16607785 -1.8482985 1.4100516 -0.06787929 0.8978175 1.574516 -0.9817188 0.463538 3.0275931 -0.48726407 1.7582682 -1.610386
3603 3.7936504 1.1462271 -0.6481692 -0.9178506 -0.21884096 -0.06844073 -1.0716431 -0.19547012 -3.1042902 -1.765035 0.43211216 -0.33335903 -0.33193526 -0.5446203 0.048453134 -0.16648932 0.52042645 -1.1561784 -1.243369 -2.2311666
2781 3.5454142 0.6543295 1.7681457 -0.976426 0.10385198 2.0554216 -2.3032894 0.57640994 0.57612455 -0.43527997 0.63343954 0.23965718 1.7512535 0.04678552 1.3662571 -1.5831344 1.6030805 0.38758558 1.2202452 -0.13682981
235 1.7816081 0.29646692 2.3992083 -1.9523108 1.430173 0.2557773 -2.5546975 -1.3308477 -0.1813916 -1.5931996 1.0167239 -0.33956528 0.42200825 1.1642112 -1.8420022 1.4479921 1.2319406 -0.6954746 -0.9927896 -0.79901135
1530 1.7736737 -0.23187205 -1.50797 -3.0199633 1.3721414 1.6899369 -0.76212585 2.0377405 -0.16109666 0.38789773 0.5483642 -1.7114149 0.03567672 0.12429 -0.05355324 -1.9678471 2.0949883 -0.55227196 -0.6518818 -1.6617932
337 3.337222 -0.6543089 -0.08063174 -2.9359374 1.0402694 1.3460444 -0.014115741 -0.8594222 -1.4426005 0.41302112 -0.4257724 0.28053907 -0.3744623 -0.26799008 0.12831639 -1.0365269 0.60514176 1.2601454 -0.6901674 -1.2374591
1557 2.5538695 0.6323396 -0.9627991 -0.5909789 -0.2551387 0.44467074 -0.9553611 1.121437 -0.2748825 -0.77663493 0.87755597 -2.2495065 -0.6602839 -0.457831 -0.6753531 0.59641767 2.4715438 -2.675897 1.0412977 -1.5290408
3969 2.0036557 0.000965357 -0.09823483 -1.3940744 -0.049036194 2.2715142 -1.4541928 -0.9272698 0.26197633 0.38211173 0.37341186 0.19099522 -0.24871841 1.8895613 -2.0415795 -2.0001786 2.7872474 -1.5886623 -1.5686963 -0.08666473
3818 0.7648107 -0.54985046 0.32757708 -3.1301572 -0.21401858 0.89092267 -0.3977799 0.71848243 0.0147969695 -1.9035635 0.79157615 -1.1684537 -1.7856278 1.0955143 -2.2100003 -1.1122644 0.64729834 -1.4773128 -1.0153556 0.04980633
636 2.3802087 -0.3876347 0.67411494 -2.8408298 -0.145174 0.35460913 0.546021 -0.7481124 -1.8174144 -1.2072155 0.18134606 0.31158164 0.18879701 -0.9607518 0.36914474 -1.7986139 2.664862 0.3261811 1.2043759 1.2065948
1501 2.2283194 0.32455152 1.6183144 -2.0553367 -0.9301481 0.92957556 -0.20138721 0.7433527 1.0646139 -2.547311 0.8846474 -2.0540183 0.2511796 -0.8093938 -0.3130641 -2.1111705 1.7134291 -0.7399018 0.58206296 -0.4458168
1724 3.6466303 0.22279388 1.6673992 -0.5326977 -0.09450856 1.6278105 -0.7312306 0.88984835 -0.2572063 -1.0190886 0.3852615 1.564706 -0.19948392 1.7498623 -1.4849907 -2.4194496 0.1061615 -0.6073935 1.5391588 0.28327426
3841 3.0290072 0.56046754 1.3323373 -2.1666317 1.2226294 0.7977179 -0.5364232 2.021091 -0.84728837 0.91800576 1.2151963 -0.8801927 -0.30931255 -1.524528 1.1134444 -0.05422894 1.855941 -0.51535827 -0.0647223 1.4032469
2939 2.7707746 1.8520533 1.7902768 -2.0964372 -0.22204669 1.6261907 -0.3626048 0.8042275 -2.8806956 -0.088022925 -0.47507834 0.07530565 -0.5570169 0.2933723 0.11244518 -0.6894928 -0.6715746 -1.4777212 -1.731842 -0.5768815
6 2.049032 -1.1672251 1.3006182 -0.39552176 -1.1857158 0.49392235 -0.6424523 1.1846114 -1.1585455 0.23203726 -2.3327937 0.36558142 0.07396394 1.5649384 -1.6645975 -1.5409911 3.0204287 0.53452444 -0.7442124 0.49553034
33 3.266355 -1.5907116 -0.03011957 -1.4296479 -0.14045861 1.2848978 -0.9470558 1.3068634 0.074895754 -1.5042444 -1.909573 -0.16945186 -0.5809527 1.917017 0.8617744 0.099128984 1.1513999 -0.7340698 1.1184229 1.0240967
4325 2.730874 -0.18885516 0.34872115 -2.112744 -1.3194255 2.1009867 0.9220989 -0.996359 -1.9382821 -0.31797627 0.9449856 -0.9915664 -0.79149705 3.003727 -1.505867 -0.7477694 1.0303426 -1.1614703 0.13259242 0.53818315
3907 1.6327628 -1.0057014 1.9719018 -2.6937027 -2.3078482 0.3938754 0.03245739 -1.3376027 -0.43329522 -1.0354819 1.1215605 0.33351612 0.42127445 1.4905978 -0.018399168 0.49399742 1.7145894 -0.84777695 1.3846768 -0.5822384
4477 1.229218 -0.058464974 0.7251428 -0.934377 -0.30584508 -1.1062633 -2.579273 0.39765897 -2.7921755 -0.642031 1.9693948 0.25660002 0.8484577 -0.5318826 -1.5996109 -2.0857975 1.9239092 -1.0865434 0.9714987 -0.33690408
1453 3.549991 -0.3110618 -0.58641815 0.45825386 0.67626023 1.3252244 -0.79135627 1.9474134 -0.9941125 -0.48376662 0.3116471 1.358322 -0.8384195 1.6625714 -0.7987025 -1.0114905 1.9179155 -0.73772854 -1.235679 -0.760043
4165 2.734 -1.4767176 1.3164034 -1.2763709 -0.07287018 0.38852644 -1.7203311 1.5289748 -1.0257291 -0.48124588 -0.9379834 -0.2918495 -0.15436803 -2.2225645 -0.042163797 2.1947162 1.1800988 -1.1236367 1.2511921 -1.4120126
695 3.3871212 -0.027450409 1.031876 -1.2242427 -0.9733222 -2.4507465 -1.329864 1.1388081 -0.47655743 -0.37315023 -0.7379641 -1.7708246 -1.0015442 1.8468523 0.8432766 -1.0105375 0.31925797 -0.60439146 0.25616452 -0.24658607
2021 3.4095397 0.24330023 0.46985805 -1.8215077 -0.5923478 0.090972126 -0.7484887 0.2694859 -2.6319325 1.7894335 -0.68888736 -1.960706 1.5128123 0.16871026 1.1521505 -1.1973532 1.6463842 0.7031098 -0.6934598 -0.4793701
2675 3.3089554 0.082577154 2.000305 -1.7044919 -1.5123203 0.36132348 1.7985344 1.639906 -0.3708459 -0.7631237 -0.026739966 1.1528151 1.2466857 0.23799717 -0.13759358 -0.58828753 1.0662185 -2.30486 -1.1208342 -0.36148262
2508 2.5252519 0.29300177 2.3004272 -2.2582762 0.6135773 0.5226517 -0.26175955 -0.31487828 -1.6440566 -1.2589447 -2.1403399 2.3145983 0.53362346 -0.72536796 -1.5104463 -0.8249325 0.9628049 0.1654273 0.25835294 -0.59933877
2974 1.2919506 0.89658463 0.25747263 -1.8114334 -0.8460683 1.1628554 -2.5945747 1.1812564 0.8560583 -0.48127726 0.6587994 1.5836408 0.17313452 1.7947818 -0.9450826 -1.1126935 1.1938195 -0.5581337 -0.7014813 -2.3591938
3075 2.6075253 -0.40025535 -0.24597852 -3.0420756 -0.3219837 -1.024511 -0.56585294 0.0015179546 -0.70026135 0.7938331 1.3424375 -1.8221552 1.6242788 -0.86623126 -2.2317812 -0.4432216 0.38728163 -1.991288 1.4892169 0.10755772
3385 2.1799767 -0.57654613 0.6737673 -2.4693215 -0.27865747 1.077635 0.36434934 0.61268836 -0.35490838 0.107547455 -2.540385 -1.5362201 -0.40477702 -0.5736637 -0.107955836 -1.7270414 1.6173265 -0.27537906 1.5112526 -0.5989691
4170 2.8485174 -0.38403445 2.271101 -1.3803669 -0.5810371 1.118115 -1.0521774 1.2226305 -0.27115256 -0.8288338 -0.64861447 0.518366 -0.5432142 -2.1957011 0.2780268 2.1691105 1.9549313 -1.249944 0.583694 -0.92262214
3399 2.0159223 -0.2982753 0.59536934 -2.642891 -0.53944707 1.0026721 -0.091428675 0.88155264 -0.07682125 -0.16496508 -2.6537287 -1.272047 -0.3489613 -0.5551948 0.07735938 -1.4187056 1.6061485 0.093081646 1.5273975 -0.572849
3140 1.9623026 0.48733371 -0.052273978 -1.1166321 -0.39598325 0.2516665 -0.76249355 2.6811628 -0.7686808 1.17476 0.4811597 -0.49525037 1.9966371 1.7278384 0.680118 -0.12264895 2.5265126 -1.3693181 -0.086117186 -2.1841872
2730 2.7744827 1.1905093 -1.504787 -2.153469 -1.6487834 0.54059404 -1.7494752 0.13044885 -0.27011043 -0.6067383 -1.5924596 -0.5187959 1.1504165 0.13289286 -2.2620847 0.7020847 1.6785991 -0.15420225 1.494042 -0.8384599
3977 3.470347 -0.7872555 1.7937198 -0.97384876 0.977298 -1.3220216 -1.3748097 0.67015964 -0.6125137 1.2194661 1.0641823 1.9507627 0.9654157 0.662315 -0.30478683 0.42060113 1.3540372 -1.1279211 -1.9128093 -1.300916
2834 2.136086 -1.1878666 -0.42910147 -3.376923 -0.5591402 -0.3849061 -0.1532576 2.517235 -0.4765062 -0.32056165 1.2625369 -0.63887185 0.25970718 0.39827028 0.62531614 0.79273766 0.8787451 -1.577824 2.6829333 0.044569667
3401 2.242333 -0.26090726 0.34451923 -2.8535938 -0.75503004 1.1067075 -0.122862086 0.8836888 0.20385678 -0.6688434 -2.6689243 -1.2275624 -0.47112396 -0.49273258 -0.06836221 -1.2752807 1.6547105 0.44265708 1.7117047 -0.73429507
3233 3.2166133 -0.9562604 1.0211554 -0.7763396 -1.4385984 0.8953026 -1.4826827 0.0067801247 0.41386434 0.7664253 1.9194444 -1.5901769 -0.25523287 -0.28536248 0.109626785 1.2944894 1.494322 -0.117636934 0.45144516 -1.0911652
3173 2.2286339 0.79773676 1.6149355 -2.1491566 2.3180134 0.38517335 -0.13237889 -0.47023264 -1.4381768 -0.5758841 -0.8047491 -1.1311139 1.7614295 1.064877 -1.100234 -0.8033743 1.3107738 -1.231382 1.4637384 0.29148763
360 3.345542 -0.49131298 1.7081254 -0.45907196 2.1280494 2.3089511 -0.28091055 1.0077894 -0.8759928 -0.9887135 -1.411312 -0.072498 -1.049889 -0.09222779 -0.4185702 0.09204906 1.7626073 -0.5105245 0.24086359 -1.9008118
3289 1.4095235 -0.46688294 0.110671066 -1.9969636 -0.5783514 -0.34646 -2.0105848 0.40123105 -0.39086175 1.3727454 0.37503782 -1.6773663 0.4395045 -0.17233859 0.6640065 -1.613127 2.56587 -0.45348358 1.4955509 -2.6489036
2072 1.8852812 -1.241798 0.4964125 -1.7872615 -0.4292432 1.9721501 -0.50350493 0.9101868 -2.4566014 -1.6093117 1.2316632 1.144635 0.6513282 0.180153 0.42264625 -2.1417823 0.80426484 -1.9288602 1.6445564 -0.25698102
4098 1.7606665 0.36663327 0.54992634 -3.8654022 -1.0729412 1.1610411 -1.0986384 1.0678805 -1.9650285 1.1770331 0.35881466 1.8537213 -0.39141133 0.5941136 -2.1610196 -0.13236338 -0.7806883 -0.8125217 0.9981964 0.705149
104 2.6424532 -2.4369473 0.24159467 -0.96146464 -0.8545901 -0.29436785 -0.57512 -0.5039746 -2.158662 -0.72097254 -0.4161969 0.8627112 1.7909744 0.61777425 -0.07136482 -1.510225 2.561551 0.30320403 0.8053067 -1.6794642
1552 2.5568483 0.350002 -0.62529314 -0.18077688 0.8991822 0.50676656 -0.8286679 1.1027634 -1.2840897 -0.69155306 1.5155469 -2.461504 -0.7699901 0.71899194 -0.90123045 0.49726367 2.1235774 -2.3366475 0.58794755 -0.82190853
852 0.9343381 1.4232984 1.7835428 -3.4673111 -0.8970559 -0.30969226 -0.9119959 -0.39712453 0.12109252 -1.0341297 1.4383571 -0.050841734 0.9192215 0.9479731 -1.4881814 -2.70399 1.7551578 -1.0850236 0.01771115 1.126894
1472 3.1178854 -0.042352736 0.5465532 -0.30416712 -1.2689372 0.025743831 -1.9572372 0.07973609 -1.3525391 -0.8182911 -0.81940454 -2.023579 -1.4202415 0.15512742 0.3093209 -0.30102646 1.9815801 0.4224584 2.2779834 -0.31590727
3294 1.5081656 -0.38898566 0.5703529 -2.279039 -0.5237534 -0.676768 -1.342002 -0.38588694 0.2662266 1.1046715 0.28256136 -1.327757 0.9348899 0.5235371 0.71629244 -1.0860926 2.569727 -0.32701555 1.8013542 -2.2526326
3413 1.5345199 0.707173 1.0282525 -1.674392 1.9514772 -0.28691575 -0.3528653 0.99243563 -2.2376306 -1.0093877 0.6353023 -1.5654098 -0.16955815 0.64455324 0.30153885 -1.1669347 1.8673017 -1.1213734 -1.9826145 -1.4349319
382 2.3861136 0.6781068 -0.5515284 -2.9385211 -1.5777378 -1.1614447 -0.92888904 -0.2035343 -0.042959 -0.4696769 0.060469482 -0.45946613 -0.85151094 0.66433364 -0.34436154 -0.006845344 2.6498175 -1.6338203 1.8673129 1.8593479
1964 3.092118 0.2661564 -0.07816301 -1.7365797 -1.388098 0.53469425 1.2034031 1.3691286 -1.3175734 -1.7621558 2.0197673 -0.38346705 -1.421153 0.50938696 -0.17822435 1.1721513 1.952142 -1.4592196 -0.0059550153 0.3863027
4674 3.3569138 0.38518876 1.5873291 -0.79813045 -0.45690238 0.8772125 -1.6174115 1.0035092 1.2644701 0.9768192 -1.3123304 0.040207703 -0.6333642 0.70820856 -1.3970004 -0.48335934 -0.21513243 -1.438965 0.2998038 -2.3989062
4237 1.912136 -0.10034985 0.68678564 -2.2853866 2.9496295 1.0252558 -1.3544079 0.6883924 -0.63167727 0.31539178 -0.7330183 -0.44587034 -1.2200228 0.8716028 -2.0001607 -1.9260246 0.47290754 -0.6466605 -0.8197494 -0.23289564
2077 2.0689282 -1.1181693 0.46195132 -1.3292744 -0.73144925 1.9944037 -0.36101288 0.8679403 -2.363722 -1.6416543 0.9567448 0.98044187 0.6185335 -0.0073889857 0.42432693 -2.0333593 1.0924313 -1.9161805 1.8439277 -0.2471891
3909 1.6743768 -0.6701163 1.8447173 -3.1762612 -2.3507135 0.3831058 -0.48111674 -1.5986977 -0.2856914 -0.8234006 0.77014375 0.91054493 0.37993312 0.908739 0.43217483 -0.04903592 1.6620921 -0.8988953 1.8112047 -0.67006636
45 3.2699862 1.1403586 2.169703 -0.38286573 -1.7400085 1.7133515 -0.7345689 1.4852588 0.24147645 -1.6637329 -0.37879997 0.44124195 -0.280957 0.67720854 -1.95421 0.047460325 1.0136198 0.58330715 -0.99956936 -0.74011976
3143 2.0337918 0.2648767 0.37419322 -0.51751107 0.012849356 0.14285825 -0.9811927 2.555098 -1.0648779 0.8441019 0.16323186 -0.69071555 1.9491763 1.7951657 0.49177384 -0.16902567 2.3936346 -1.1011622 0.025976654 -2.2710054
3522 2.4369805 -1.7849935 1.7121785 -1.7165736 -1.1304175 0.26801014 -1.9615277 0.060167994 -0.58714074 -0.12353733 0.015630353 1.592628 -1.18597 0.7859003 0.431069 -1.6332785 0.11979212 -0.19789603 -2.1899467 -0.5523236
3184 1.9246137 0.76017916 1.9593046 -2.1522684 2.1370585 0.2452451 -0.34948573 -0.49693295 -1.3821663 -0.79669744 -0.8836458 -1.1696817 1.4523026 1.0317466 -1.0383962 -1.0194356 1.4677192 -1.1627754 1.6489316 0.40397134
4438 0.83349115 0.57425946 1.4526755 -1.6542931 0.77164185 0.45895338 -1.6850469 1.4580799 -1.1832178 -0.92672026 1.1918876 -0.27401587 2.2731178 0.22384821 -2.092602 -0.37521628 1.2178733 -0.99676913 0.55204153 -2.8000388
3600 3.4532905 0.87855506 -0.8231095 -1.4777222 -0.3128804 -0.39077252 -0.84650964 0.08365933 -2.494983 -1.4139124 0.90902525 0.25019532 0.09024971 -0.32435557 0.15766767 -0.37564266 0.228924 -0.71473116 -1.5190607 -2.2887022
1278 2.3449132 0.48280627 2.463694 -1.1452985 0.17925084 1.616354 0.85356927 2.318821 -2.7159827 -0.39080927 0.61355364 1.047414 0.19599822 1.0500182 -0.25654873 0.6599605 2.0356362 -1.1238266 0.40895474 0.9739633
2208 2.550088 1.4965302 0.1185336 -1.1581864 1.0998132 -0.22440885 -0.8357431 -0.104367234 -0.61259955 -0.8559319 -0.7334139 0.17996758 1.2569424 0.2311425 -2.5042973 -2.1638618 3.2328594 0.00041478514 0.78073263 -1.9210097
2003 3.3037634 0.48602587 0.61449236 -2.8254793 1.2125305 -0.30385306 -0.50703746 2.1238813 0.9780855 0.16783205 -1.2430776 -1.1796601 -2.1359048 0.69086117 -0.63205355 0.09432576 0.2461703 -0.8725573 0.48432168 0.7776627
4662 2.808706 0.39778242 1.2120512 -2.5430543 -1.1833405 0.6546166 -0.7279723 0.49180603 0.40823352 -0.75108236 -0.47972566 -1.4866253 1.0246211 -0.1686906 -1.9111184 1.8245965 -0.20755416 -0.9203893 -0.66533864 -2.731254
2696 2.2002037 -0.4468622 2.2121289 -0.20686364 -2.41839 0.16115442 -0.8133544 0.36697572 -0.29291505 0.40003502 0.8907835 -0.18275629 1.1983628 1.1951773 -1.0691873 -2.9305348 2.2170172 -0.8868551 0.8245609 -1.2085581
1980 2.1371624 0.41524836 -0.55700076 -2.4796183 1.002064 0.5990321 -1.0983063 2.0105143 -0.39193013 0.034884386 -0.6283677 0.10673229 -2.1434622 -1.6026433 -0.549205 0.5410311 3.5440767 0.05401311 -0.22739854 -0.38094082
3611 3.3849487 1.7331573 0.32122955 -1.4359468 0.6426137 -0.65400964 -1.5259119 -0.48954752 -1.4292394 -1.6455048 1.6393417 0.7533824 -0.88808995 1.7816811 -0.7034728 -0.30264595 1.3501838 -0.93625635 -0.9995325 1.4671112
3820 0.7613852 -0.5230323 -0.11045666 -3.3690453 0.013355867 0.566695 -0.8747438 0.26535675 -0.1193676 -2.3773136 1.3354105 -0.92817396 -1.3424065 1.4171971 -2.3016558 -1.0089456 0.83325905 -1.7806834 -0.8007091 -0.075772956
3795 3.727029 2.3429155 0.7806037 -0.16783607 -0.7314677 0.01631609 -0.94066906 0.8593101 -0.91845757 0.24611281 1.0318462 -0.90892386 1.0469347 1.0469184 -2.3880718 -0.39927545 0.16339937 -1.250184 0.20041315 -0.58281267
759 0.9497559 -0.04067171 1.8514806 -3.3797946 -0.6498488 2.2546132 -0.9537148 -0.10307516 -0.7530348 0.54384017 -0.8042353 0.5418869 1.226524 -1.0471747 -1.4048344 1.0122832 1.1328474 -2.117502 -0.64402133 -0.96986365
1428 0.7582607 -1.1953719 1.4572062 -2.3339028 -0.5277924 0.07611463 -0.11504337 1.4658377 -0.63773096 0.18036006 0.6564591 -1.976245 0.080486245 1.5151238 -0.57596886 -0.36031768 3.6387103 -0.075221665 0.4304083 1.6010436
1783 2.1823478 -1.4511868 0.26525623 -3.0596664 -1.6812994 0.61617744 -1.0608424 1.2686155 -2.2534254 0.6821701 0.6205251 -0.1401442 1.262152 1.2886131 1.0212395 -0.80138403 -0.75211525 -0.43183962 0.07754079 0.40786895
2903 1.9157025 0.32125226 0.5663589 -1.1424608 -3.3643212 -0.7078128 -1.8848072 1.3028487 -0.5371312 -1.2405545 -1.0591955 1.0647966 -0.73715585 1.1921027 0.108024836 -0.72402745 1.0039052 -2.1015167 0.5682849 -1.3590873
1194 2.8509872 0.1089038 0.7008855 -1.025439 1.1948197 1.4777946 -1.2600882 0.89114285 -0.8949654 -1.365533 0.11953501 -0.83177286 -0.11683637 3.145029 0.39259985 -0.943919 0.0708932 -0.3330362 0.98417175 -1.7993802
2799 2.2449234 1.6599147 -0.25534847 -0.82409143 0.7599801 1.7472954 -1.7241925 2.024819 -1.857912 -0.044471286 -1.2621738 0.03614771 0.19454604 0.335139 -0.32234418 0.5715088 1.4869236 -1.8926026 0.50011885 0.530854
2084 3.0729806 0.085762635 -0.9010462 -1.9682753 -1.8797896 1.3256027 0.29936367 0.72318536 -0.89865917 -0.8884963 1.2815069 -0.5882632 0.5322945 0.9445102 -0.4177114 -2.3137944 1.5031023 1.2746583 -0.2758488 -0.65173054
4634 2.9938593 -1.2400277 1.369686 -1.8670899 -2.1983683 0.2541801 1.252089 0.4552032 -2.0931168 -1.2525074 0.339849 -0.10554155 -0.6438912 -0.19691418 -1.2708408 -0.439663 -0.4661234 -1.3896029 1.3233144 -2.0842607
620 1.5821313 -0.6850009 1.7637821 -3.342132 -0.17995535 0.07424986 -0.4266253 2.6191614 0.21448898 -0.62640935 0.6500078 2.0095642 0.08182491 -0.87568927 -0.69822586 -2.4217684 0.9299899 -0.59845203 -0.53536505 1.0540946
38 2.959717 -1.9782976 0.39593583 -2.2146168 0.2045007 0.103843585 -1.0023587 1.1295477 0.44346228 -1.3496442 -2.0952432 -0.45368126 -0.16523206 1.6695783 0.77550054 -0.47567403 1.4312841 -0.86330813 0.69657785 2.0157192
3729 2.0339222 -0.67670256 1.6668016 0.10792771 -1.0239904 -0.30820885 -2.1765997 1.5898577 -1.015668 0.40029866 -0.68383354 -1.4437639 -0.021372763 0.00066357444 -0.85031766 1.3887403 1.520395 -1.5823736 -1.9275243 -1.3286777
2117 1.9886998 -1.2884511 1.4990441 -2.9140012 -2.328496 0.66767484 -0.59933907 -0.995034 0.47229102 -1.2279028 -0.06409279 0.10632035 0.7397932 0.23081407 -2.0245397 -1.6054168 -0.007401468 -1.5236009 -1.1358596 -0.9589717
2491 1.5100012 0.052904878 3.8867157 -1.7753568 -0.87538797 0.82640857 -0.9882733 -0.61797893 -2.1615875 1.3813062 -0.67034954 0.5690339 -0.04702737 1.1818968 0.2932179 -0.31715146 1.3147671 -2.399541 0.4932577 -0.6032898
3803 2.9766464 1.7819512 1.2389086 -0.70960116 -0.55226845 -0.38488102 -1.8083872 0.3650078 -1.0577997 1.4299617 1.1074474 -0.7158624 0.6447923 1.6283978 -2.7498157 -0.98608 -0.32279524 -1.6181543 0.36210158 -0.2358628
101 2.7511687 -2.1167762 -0.035723366 -0.8383774 -0.8593006 -0.28204978 -0.68855006 -0.65506524 -2.1007223 -0.6459506 -0.65889525 0.75902086 1.5925429 0.3438713 0.051332958 -1.3349688 2.331297 -0.12610614 0.51892906 -1.8966775
2801 2.1492395 1.7824472 -0.31240967 -1.4959427 0.47602972 1.3778785 -1.9956363 2.354231 -1.6438348 0.49446267 -1.1143577 0.010682658 0.037082627 0.31166324 -0.04927068 0.7718929 1.0332556 -2.1646519 0.4942464 0.7430035
1123 1.5373493 -1.3697476 0.7574678 -0.88744134 -1.7576364 -0.45077923 -1.0267541 1.9575361 0.28442246 -1.9545838 -0.005469049 -1.1680249 0.743527 -0.48182 -1.8845667 -0.8470243 2.6057258 -2.150267 -0.9645743 0.6458932
4129 1.1355208 -0.019708034 0.64034754 -1.7374537 -1.1260972 -0.14482439 -2.4371004 0.6948596 -2.7995381 0.12535012 1.4442415 -0.025946457 -0.9963668 0.83439857 -2.2737446 0.6202758 2.117571 -0.54060215 -1.4449985 1.6814373
2808 2.286148 1.301093 -0.28195885 -0.74384606 0.60677147 2.2095916 -1.5175548 1.882968 -1.6187354 -0.025365751 -1.1324772 -0.121334665 0.13699257 0.47969618 -0.56578034 0.941108 1.6119442 -1.8438413 1.0445365 0.36209854
1065 4.56249 -0.9594207 1.8863915 -0.9576317 -0.92629683 0.158229 -0.25278258 -1.5051395 0.47503144 0.7220059 -0.83739895 0.000977107 0.27994385 -0.21290265 -0.37146798 -1.6414313 1.8392938 0.10512417 0.79528546 0.6554863
1591 3.5343778 -1.5374659 0.0013696315 -1.902987 0.7495714 0.28209463 0.9735382 1.8033105 0.122453 -1.6758446 0.23833035 1.1873189 -1.5780478 -0.36098483 -0.41781223 -1.0850351 1.8502439 0.083459355 0.72152513 0.0049256696
85 1.828469 -0.58012754 1.934277 -2.11774 0.44828472 1.1291738 0.76957655 0.66443527 -0.99171424 -0.013993201 1.7833946 1.816791 1.1168723 3.1191614 -0.32075554 -1.1074275 1.9745446 -1.3841592 0.8158698 -1.3637884
2154 1.9212509 -2.007274 2.1966236 -1.7374152 0.94489896 -0.2284951 -2.7127497 -0.481303 -0.0927173 1.1926575 1.1816651 0.63324624 0.32566196 0.41487584 -1.5804715 -1.2443432 1.7785224 1.0951548 0.27326226 -0.95749205
3473 3.061894 -1.1905068 -0.0133586945 -0.1756556 -1.2409222 0.47757325 -0.7059659 -0.46008858 -1.1607594 0.035210885 0.27679905 -0.60447323 -2.0089443 -1.3997065 -1.6031375 -1.6293423 2.8323097 -0.63136834 -0.18539847 -0.25702938
3060 1.8500776 1.1745607 1.4549294 -2.638286 -1.3890876 -1.2182804 0.48800996 -0.089802824 -1.2083714 -1.0687128 0.5083812 -1.2036229 0.954493 -1.3829266 -0.93630445 -0.07931537 2.4140248 -0.31943408 1.5797894 -1.921385
2601 2.7741973 -0.12108227 -0.49685273 -0.89258075 0.32133964 -0.43368784 -2.7254062 -0.48155797 0.38810584 -1.45973 1.1542536 -1.3098706 -2.1226451 1.5113112 -1.1827245 -0.849783 2.4955668 0.05505567 -0.67692876 -0.56537193
661 3.1815865 -0.32481182 0.2296582 -1.3367728 0.7828177 0.9010135 -1.6620327 0.17311494 -1.6624336 -1.7596815 0.62868625 1.360424 0.37736043 -0.21792331 -1.0734527 -0.73792756 1.5180702 2.1639912 1.0868357 0.4168643
4559 3.9747496 -0.99818397 1.993165 -0.30763075 0.4315239 0.19642454 -0.22312194 0.7315926 0.17722753 -2.0594587 1.5918356 0.80088216 0.00021068448 0.3641509 -0.30080733 0.6816397 0.32620186 -1.3778226 0.18939199 -1.3032613
4651 3.6734452 -0.3471697 0.95809114 -2.7724566 -0.35172078 -0.09821511 -1.1356596 -0.86633104 -0.050478965 0.34355873 -0.65030766 -0.14234331 0.58999884 -0.10567077 -1.8318808 2.277125 -0.3605159 -0.21366698 -0.7936949 -1.7062259
4150 3.5592482 -2.4175668 0.32696047 -1.6606271 1.4072722 -0.1340342 -1.8948224 -0.70235986 -0.28161195 0.24957982 0.892526 -0.39319998 -1.2077659 0.4075059 -1.3824409 -0.3008695 -0.50088143 -0.7383391 0.74700224 -0.1105197
4388 2.6699305 -0.41982847 0.83157486 0.061265163 -2.0303442 -0.7285998 -0.99710345 1.7923871 -3.1790195 -0.88148475 -0.87596077 -1.334358 1.1251811 0.5586603 -0.7726 -0.5373684 0.6801488 -0.94396985 1.2926164 -1.1967951
1010 2.6336522 -2.1348064 0.2723428 -3.0912125 -0.5107381 1.534211 -1.6970617 0.12418292 0.9261944 -1.3819847 0.6317106 0.70902014 0.89449066 0.9280393 -1.3096278 0.71856123 0.25012589 0.59611875 -1.0094519 0.5707265
3006 1.8073058 -0.76014847 -0.6143356 -2.6642551 -0.84099156 1.0433954 -1.6699733 0.24802637 -0.7392207 -1.1334428 -0.76072997 0.49388784 -1.9680704 2.7424064 -1.0094643 -0.46187517 1.3278164 1.2013812 -0.21864459 0.076209806
2493 1.5535288 -0.0113093 3.9016273 -1.8431137 -0.8662179 0.89267874 -0.98436505 -0.6210261 -2.1810324 1.3589115 -0.6664367 0.56714976 -0.08482191 1.0920193 0.2979241 -0.276612 1.2666494 -2.4089243 0.4523989 -0.56354827
3698 1.0208942 -0.69269687 -0.18309732 -2.5815902 -0.048072893 0.57615 -0.75452614 2.6160662 -2.6778903 -0.90287954 -0.5740872 -0.1462993 -0.29372647 -1.4431074 -1.6176482 -1.5071908 0.28648102 -0.82705 0.50756854 -1.269803
1764 1.9252152 -1.4297314 0.26581824 -3.1822731 -1.3600612 0.5329147 -1.2038424 1.5665025 -1.754477 0.2580485 0.66097385 -0.26823062 0.97338915 1.3488941 1.4855319 -0.7063367 -0.6319052 -0.48597667 -0.22592668 0.5252188
437 1.4005725 0.7333405 1.9635155 -1.5940592 -1.7600045 0.06519744 -1.5688506 -0.43344972 -0.6416832 0.9974233 0.5835977 0.6569096 -0.521175 0.27403197 -2.363555 1.1336029 1.3771836 -0.8650198 0.8513241 -2.293637
2920 2.2099488 -1.1112974 0.057689443 -1.0704423 -1.2684565 -0.34464943 -1.8360575 -0.8750875 -2.5453453 -1.5421026 -0.62385607 -0.8834918 0.43351558 1.3718134 -1.4589816 1.4120666 1.6587803 0.5055108 0.035494678 -0.024894299
3133 1.4403926 1.124724 1.8756828 -3.3616552 -0.23806807 0.2562024 -1.5550021 -0.29969785 1.4087709 -0.7368465 0.70831776 -0.044788804 -2.0801015 -0.5765085 -1.0786563 0.028886937 2.2413883 0.25664306 0.14163062 -0.08019379
2020 3.6123238 0.06439887 0.3098643 -1.2819377 -0.4015795 0.23112305 -0.46045727 0.73548317 -2.5216475 1.5537993 -0.725593 -1.8391571 1.4490275 0.13072032 0.9955943 -1.2887957 1.6267731 0.5578714 -1.0416733 -0.55229235
3832 0.79363054 -0.41620216 0.7542596 -3.151925 -0.12994397 1.2184184 -0.06112078 0.78459597 -0.017902745 -2.1457815 0.42123535 -1.1678485 -1.8077015 1.209607 -2.3526826 -1.0379293 0.73208404 -1.217553 -0.78745866 -0.1543128
4141 1.0891795 -0.13218577 2.1198745 -3.237898 0.31899852 -0.822139 -0.89674145 1.1139854 -2.5509856 1.811737 0.18447557 0.8980216 0.72232854 -0.51544595 -1.3024895 0.4582934 1.5164187 0.1166373 -1.4729193 -0.96057576
327 1.3237644 0.09571464 3.5913072 -2.788142 0.32053939 -0.29477206 -0.79470253 2.1836638 -1.3534642 -0.88479114 0.69951797 -0.4205747 -0.016325923 0.38776425 0.31365144 -0.7829393 -0.57652956 -1.6174183 1.5904301 -0.23641028
2707 2.2557569 -1.4307827 0.7564268 0.13861355 -1.7569059 0.38776273 -2.3763583 0.0791985 0.10751034 0.39425597 0.1607093 -1.222865 0.4566611 1.6528437 -2.2215173 -1.3531382 1.6386111 -0.4357673 0.14284481 -2.0760565
902 3.0951726 -1.033206 -0.17450054 -1.7857778 -1.5036469 -0.957783 -1.8176401 1.2131642 0.8676682 1.7429136 0.2078751 -0.38702807 -0.7007993 0.5865316 -2.6909313 -0.67278737 0.6033762 0.1371145 0.64971083 0.7609905
2199 2.0402493 2.3183105 1.2205921 -0.63325316 1.570756 0.26259902 -2.2067895 0.15001099 -0.19056346 -0.1549777 0.4731084 0.33733433 0.15785076 1.355401 -1.3062736 -0.31717387 2.9510024 -2.7892861 -0.08731109 -0.5104038
591 2.4076161 -1.7416918 1.4398125 -2.036878 -2.876108 1.5734965 -1.3498434 -0.17065294 -1.1638775 -0.0791151 -1.4133567 -1.850275 0.1623965 0.13190924 0.49999085 -0.38117006 1.4120747 -0.6758935 -0.09208834 1.4838893
4549 1.7748799 -0.062055346 -0.20300867 -2.7715173 -1.8849065 0.86323327 -2.4474478 1.0317591 -1.4483824 1.8867832 -1.1524409 0.9071078 0.7257027 -1.1883372 -0.0630825 0.18157867 1.3707587 -0.15841736 0.9106743 -1.4680306
3114 1.8860788 0.60212713 0.57106125 -3.9320488 -0.38146833 -0.37019578 -0.8925659 1.8209927 0.945378 1.0554768 0.81741714 -0.7631512 -0.086053185 -0.8850561 -1.5715876 0.31027043 0.35404226 -0.1815816 -1.6448257 -0.75603443
4561 3.9725246 -0.9836599 1.8661636 -0.2785763 0.5360865 0.27893737 -0.31986412 0.86108005 0.10584638 -2.2409875 1.3994464 1.0810568 0.47601262 0.41391963 -0.22241992 0.6938507 0.44842023 -1.371564 0.22795783 -1.1851776
3009 1.8149034 -0.7757251 -0.52607614 -2.9413347 -0.8986071 1.2278352 -1.6122117 0.0128356805 -0.53810334 -1.1585816 -0.9766243 0.49088922 -2.1247408 2.56832 -0.7306653 -0.30122215 1.4812015 1.1438235 -0.51438826 -0.22960173
1852 1.2464976 -0.32486832 1.707646 -2.2082336 -0.92527026 0.57206726 -0.60766906 3.1860971 0.53820044 -0.37701693 0.7334649 -0.09376551 -0.4250145 2.7982657 0.31842116 -0.981768 2.318785 0.93531084 0.18091351 -1.0928432
4440 0.66214806 0.7257201 1.615417 -1.6993376 0.5451504 0.6334042 -1.6946454 1.3207037 -1.3190469 -0.85120356 1.3216594 -0.18698075 2.346659 0.32697433 -1.9961358 -0.29031888 1.4766449 -0.8090554 0.47590145 -2.630434
2816 3.0516346 -0.28668013 1.745918 0.54339665 -0.19206916 0.55570555 -1.7597089 1.7061807 -0.7928022 -1.153935 1.7533911 0.1490266 -1.4140527 -0.19818397 -1.6602722 0.6713214 2.0881782 -0.44329387 1.0677599 1.0437261
3471 3.0468962 -0.9881224 -0.043159593 -0.019833123 -1.2287376 0.5372994 -0.6341137 -0.20605783 -0.988011 -0.09342108 0.24392384 -0.5921565 -1.8971807 -1.2356588 -1.6357887 -1.6783067 2.8693502 -0.67907214 -0.1259985 -0.018163351
2087 2.9129953 -0.2753054 -1.065573 -1.7864133 -1.7762796 1.0884748 0.22989875 0.65199393 -1.4324973 -1.3842112 1.0924144 -0.9468498 0.386704 0.8286315 -0.71612453 -2.141712 1.3513749 1.3553678 -0.095550366 -0.83852285
4189 3.7975047 0.38436309 -0.6670011 -1.205118 -2.3030431 0.6734535 -0.27450684 -0.8334534 -1.2565376 0.9498577 0.12045077 -0.32198808 0.21829337 0.6698139 -0.041224185 -0.024167486 0.6284772 -2.750485 0.5023593 -1.5035169
3248 3.5877259 -0.5071953 -0.32226172 -2.2421498 -0.28684074 1.3235867 -0.63084865 2.2315087 -1.1697179 0.5630467 0.70778215 -0.006805835 -1.5492299 -1.1642777 -0.93375164 0.34927452 -0.7191646 0.098926894 -0.7406289 0.3409347
1999 3.2041044 0.6127603 0.74498487 -2.6672337 1.0841966 -0.2180039 -0.43151188 2.1390548 0.8406171 -0.049865644 -1.296793 -1.0282611 -2.0300744 0.26763394 -0.50780034 0.2486272 0.22135028 -1.1782349 0.47227854 0.4856663
4467 2.7860878 -0.047856774 -0.62507606 -2.1815426 0.4407907 1.5362566 -1.1734254 0.559585 -1.519052 -1.2898796 0.9928318 -0.23403531 -1.199731 -1.2084963 -0.15912005 -2.7785816 0.6995584 -1.338758 -1.5755706 1.0340308
2030 3.3066363 1.1488541 -0.15446582 -1.7041789 0.57223165 -0.5418589 -1.5574692 -0.7910013 -0.6895033 -0.265404 -1.9439472 -0.05023561 -1.864099 0.09976689 -1.0229046 -2.2200887 1.514193 -1.3415878 1.5700747 0.28990373
2037 2.437934 0.9516145 0.92695796 -1.2850951 0.19982666 -1.1144563 -1.1213449 0.4239573 -1.0815811 -0.38543215 -2.1277237 1.1937797 -1.8997918 0.38472953 -1.9701127 -1.3894922 2.0951548 -0.97749364 1.7225932 0.2782209
1121 1.6037438 -1.3250753 0.66032124 -0.9047748 -1.7762976 -0.43259534 -1.0608032 2.0154612 0.3461696 -2.1232452 -0.24384873 -1.0828359 0.89138573 -0.34591112 -1.8180655 -0.8623513 2.4249942 -2.0914114 -0.8781212 0.73829836
3706 1.335062 -2.0107749 2.0620747 -1.438883 -2.296998 2.5053608 -0.94462806 2.2386687 -1.1497478 -0.95423037 1.3420836 -0.22788334 1.2697002 -0.111159034 -0.25698283 0.056353822 0.9657858 -1.177137 -0.26795366 -0.64151186
4176 1.1892346 0.34354654 0.17117383 -3.0568047 0.5992164 0.85793144 -0.44738644 1.7220097 -1.4637324 -1.049888 0.33869132 0.8049461 1.2781438 1.5427431 -2.7920756 -0.9429289 1.2530192 0.6181087 -1.8127218 0.20467535
2861 2.8755138 -0.658181 0.667588 -1.3127291 -0.13719262 0.92078286 0.6516948 1.6826034 -0.6012899 0.8832162 1.9950633 0.3118279 0.46563566 0.44219536 -1.4956281 0.9775356 1.0494604 -0.99580765 0.24181089 -3.1028225
4575 3.9325898 -0.44305837 -0.47719967 -1.2395864 -0.34733677 -1.3784494 -0.8462459 1.8312659 -0.5741627 0.02973959 0.90773916 0.42765522 0.7344779 -1.3169966 0.39822626 -0.18195838 2.6306443 1.160262 -0.4435833 -0.6473608
3206 2.3521235 0.041990194 1.8867221 -0.27474567 -1.670878 1.2896562 -2.5820005 0.0079432065 -0.74663305 -0.9783605 1.2474877 -1.265648 0.7791161 1.825427 -1.1350353 -0.88596815 1.550438 0.1920738 0.05583049 1.5523736
2275 1.1840713 0.4184484 0.61906695 -1.8669187 0.19497555 -0.6417791 0.25263718 -0.904947 -1.854848 -1.0349839 0.7986701 0.6000458 0.5916384 0.68722236 -0.78308696 -0.19100885 3.0413067 -2.8721232 0.49666163 -1.6898592
499 2.4972603 0.31897134 1.9157593 -3.0028927 1.022933 2.2722952 -1.0621432 -1.7494481 -0.8322936 -0.24753681 0.87531924 0.94171435 0.8264818 0.76994723 -2.0404541 -1.1481632 0.056179844 -1.2124223 -0.4448641 0.44231465
785 1.0630615 -2.58216 1.5327526 -2.4302356 -0.7043235 0.7280786 -1.2228155 0.9146967 -1.0563532 -0.7051139 0.72023076 -0.1402102 0.4710159 1.5110555 -2.8694077 -0.93896794 -0.44553092 -0.59013397 1.6328572 -0.8308509
1520 1.8972228 -1.191046 -1.0798377 -1.646113 1.621601 0.55206937 -0.80730915 1.7937696 -1.2974825 -0.72544926 1.0697803 -1.106213 0.93673545 0.002111642 0.11977748 -1.9468162 3.1479485 -0.3607563 0.8902767 -0.012028538
1283 2.4808247 0.34361917 2.801748 -0.95867586 0.41314885 1.3363335 0.8308608 1.7466269 -2.3616705 -0.44575277 0.17077735 1.088966 0.1926649 1.155531 -0.8157637 0.60509676 1.9805467 -0.9495587 0.21070398 1.2791798
566 1.4767078 -0.57314616 -0.7766113 -1.5349178 -1.9994944 1.2532059 -0.9609872 0.59326714 -1.6974627 0.6394798 0.27616695 -1.4012432 2.2996442 -0.13762832 -1.9614434 -1.2008876 2.501321 -0.7224392 -0.428511 -1.0970279
3202 2.0696518 -0.20385885 2.2180073 -0.6512698 -1.3650885 1.0979174 -2.784334 0.1635663 -0.19853115 -0.11888161 1.6199191 -1.5947139 0.87475836 1.9439185 -0.7562328 -0.69795334 1.6689427 -0.08466286 -0.19687366 1.4968684
3410 1.7583102 0.31725028 1.7480997 -1.566733 1.6520361 -0.9956046 -0.033315916 0.8999926 -2.455292 -0.73833764 1.0170591 -1.5219278 -0.3169214 0.10180375 0.28862315 -0.9812241 1.9480869 -1.0287296 -1.7900981 -1.5269886
3128 2.226295 1.7739565 1.9094377 -3.1950922 -1.1212174 -0.14795044 -1.2859119 -0.61430615 0.4979753 -0.49231395 -0.34226725 -0.30328846 -2.049425 -0.5527237 -0.9363849 -0.5865362 1.5737749 1.2935258 0.20825315 0.20271336
1470 2.9693098 0.043444525 0.749338 -0.37195843 -0.8834726 0.08703952 -2.2656338 -0.22812894 -1.4070116 -0.5550928 -1.0144626 -1.9369297 -1.230745 0.07031886 0.26042873 0.09825211 2.306542 0.28182334 2.2547634 0.01511454
3196 1.4434929 0.7179981 1.4420478 -1.6620467 -2.0386553 0.9673906 -3.2245104 0.6130993 -0.0903242 -0.04491789 1.090945 0.9535421 -0.10363226 -1.2392828 0.25607497 -1.8201089 1.9449483 -1.2402174 1.4836564 -1.1119232
3466 2.8811123 -0.12072855 0.34901857 -0.18728518 -1.9894468 1.380024 -0.59036666 0.5301697 -1.1609751 -0.86362624 -0.36221224 -0.43391487 -1.7835819 -0.9658435 -1.9316124 -2.711313 2.353145 -0.4817585 0.24412018 -0.13765366
1510 1.2903758 -1.8125927 1.9665604 -2.1971993 0.35534486 0.6236871 -1.3180367 -0.11859648 0.60969657 -0.345934 0.4716734 -0.5883128 0.45878106 1.2153362 1.1381798 -2.438718 1.7387477 -2.2279365 -0.7340875 -0.6399378
3166 3.1209736 -0.86546534 2.1030567 -2.0031607 0.1531242 -0.99109244 -0.62845105 0.6455686 0.6318687 0.011641711 -0.90120226 0.6602279 0.22468185 0.2356172 -1.2934607 0.9961169 0.33561957 -2.7458005 1.828799 0.9892223
1780 2.250993 -1.5256284 0.3759764 -3.1733685 -1.7424644 0.69718575 -1.0495235 0.5132929 -2.1528563 1.0087755 1.1819893 -0.23219961 1.2698449 0.9532816 1.1459167 -0.90763885 -0.49219388 -0.28111508 -0.1616947 0.17066512
1445 3.8716772 0.62954515 1.1179574 -1.7412493 0.2613974 -0.2550479 1.4990577 0.42800736 -0.8876591 -0.37923437 1.6910728 -0.92791134 1.725677 1.0839258 0.87727505 -0.20809084 1.8623873 -0.27221617 0.26609725 -0.3267872
276 2.4609435 1.3784846 0.8497472 -2.487478 -1.8396584 -0.5605917 -0.6111749 -0.18342078 -1.481668 -1.0905588 0.23074506 -0.15669589 1.1719781 2.8169484 -0.4908075 1.2601871 0.41855776 -1.7184507 -1.2418591 -0.2728265
882 2.7259755 0.12091499 -0.18485695 -3.045707 -1.6714418 -1.6137002 -0.23874155 1.0208341 0.23304214 -2.279412 0.23830886 0.26009017 -0.72376347 0.42485592 -3.1940973 -1.494368 0.88814664 0.6313508 -0.10245462 -0.69061655
2927 2.163285 -1.5520198 -0.5646881 -1.5249435 -1.0428865 -1.5469737 -1.7510991 -1.0810905 -1.993119 -1.3428655 -0.12684186 -1.0894774 0.6222781 2.208529 -1.717381 0.4628737 1.5119036 -0.31827083 0.29548353 -0.31668693
411 2.4173522 -0.06720089 -0.8075675 -2.2453914 -1.6126746 0.9468458 -1.8214011 0.018406197 0.2651839 0.029681453 -0.49514088 -0.13574782 -0.804173 1.8293 0.7174269 -2.9231753 1.1776243 -1.8355608 0.9349898 0.105735965
579 1.9293599 -1.0446837 2.0205414 -1.3695437 -0.46578908 -1.3993725 -1.3121971 0.9735515 -0.5123609 -0.20520958 0.2140137 -0.32650748 -0.76780754 -1.8378581 -0.8199325 -1.0847013 2.846508 -0.796717 2.6609473 0.15928884
3265 4.025073 -0.0819929 0.17196305 -2.0127187 0.5476871 2.2987425 -1.0035346 1.8700982 -0.30051127 0.4056739 0.0787624 1.1249982 -0.29760212 -1.9055301 -0.6328684 0.31226528 -0.47145423 -0.38106328 -0.65893245 -1.019836
334 1.3824089 -0.17516606 3.0175738 -2.5991352 0.58798206 -0.5952253 -0.68289316 2.2348154 -0.6520315 -1.4148321 1.3898556 -0.45286876 -0.59052926 0.65426946 -1.287713 -0.83864653 -0.89423716 -2.1075811 1.4098305 -0.9820201
601 2.6308749 -1.4255934 1.6157182 0.19592747 -0.81475365 1.4758798 -1.648027 0.84562606 -2.9170794 0.3490347 -0.88120854 1.4708911 0.9079739 1.7839888 -1.0343744 -0.22730336 0.69363004 -1.4187312 -0.048136257 -0.43030894
3273 2.2660978 -0.46127307 -0.8415135 -1.4039674 -0.1508302 -0.62451243 -2.3188396 0.005864076 -1.679392 0.72084105 -0.4065842 0.93121976 0.8184187 0.7320044 -2.3225424 0.6136219 0.29747647 -2.379251 -0.8016581 -1.5404524
2883 1.2767533 1.0726739 2.4804778 -2.2662873 1.1372706 0.24409482 -0.60145974 1.4738272 0.9141813 0.03928139 -0.7854135 1.0201269 0.33398336 1.0349224 -0.23312567 -0.36412454 2.0733902 -1.2542295 1.5124079 -1.5127808
1995 1.2789279 -0.70981514 1.8661171 -2.1673975 -0.2600673 -2.5031664 -1.1088474 0.1729124 -1.869993 -1.1395967 1.057511 -0.16673028 0.57659703 0.89519423 0.40037206 -0.29876935 2.2188814 -1.4070482 -0.31997785 1.311857
24 3.2340426 -0.2005279 1.1143045 -0.394144 -1.7561154 1.063047 0.23153764 1.2878059 -0.15054601 -1.413686 -1.7561661 -0.12244493 -0.9673559 1.6237242 -0.6321512 0.88528526 1.2639719 -0.19209564 0.088334605 -0.2303632
2608 2.6967125 -0.1351711 -0.51123 -0.9037946 0.32653075 -0.4635297 -2.7403393 -0.3796069 0.29793397 -1.4297792 1.1956166 -1.2480898 -2.146756 1.4742565 -1.1578875 -0.79421246 2.4604554 0.052868705 -0.74458677 -0.6085295
4139 1.065376 -0.10497383 2.1205246 -3.2509367 0.2826168 -0.78472805 -0.85537684 1.1356938 -2.5358152 1.8821949 0.21211042 0.93478084 0.7771134 -0.41169164 -1.3600879 0.3438518 1.5639341 0.1612814 -1.5730348 -0.91402125
2001 3.1878095 0.49445903 0.64083457 -2.8429532 1.2934685 -0.29313004 -0.46027315 2.075709 0.95229226 0.07442495 -1.2906725 -1.0640875 -2.0194 0.58150196 -0.5881396 0.20267126 0.2696821 -0.9829554 0.5567289 0.7332913
3292 1.4174649 -0.3922164 0.50026804 -2.1769881 -0.6291367 -0.3982263 -1.7971544 -0.04509188 0.016059196 1.2608393 0.24100362 -1.497317 0.7267372 0.07819961 0.7096849 -1.2282317 2.691868 -0.29712346 1.6016527 -2.4582279
2052 1.8667263 -0.8094402 1.8363292 -3.5721655 1.8243096 -0.027478494 -1.3469663 0.88085294 -0.5549652 -1.808863 -0.3618613 -1.0739032 -0.10744224 -1.4872812 -0.8554618 -1.0117873 0.33901918 0.60998046 0.7281875 0.5975267
4578 4.2041507 -0.06284825 -0.6176291 -0.74266034 -0.8493866 -1.2882036 -0.71466607 1.5358087 -0.6077372 -0.14252314 0.3347661 0.19748889 0.28163612 -1.1568774 -0.031324744 -0.16725475 3.1603785 1.3924645 -0.16356775 -0.56222266
1931 1.4856758 0.074226804 1.7289344 -1.543088 0.25346354 0.75376374 -1.7738134 -1.2893792 -2.271279 0.07199261 -1.3300655 -0.30246252 -1.6435107 1.4318606 -2.5330129 0.08156873 1.0597918 -2.1431005 -0.53888685 0.36355376
1441 3.996048 0.9681418 0.65800685 -2.552727 0.38725382 -0.32510442 0.70459646 -0.0118612 -0.7121827 -0.16763082 1.4543786 -1.1933613 1.5197941 1.0081472 1.2031684 0.6231214 1.9230253 0.47350737 0.4182414 0.057300355
1866 2.2452655 0.25831953 0.71899706 -1.7297297 -0.1757353 -0.27406228 -1.2106156 1.4456494 0.8434605 2.0327668 -1.6983919 0.3144924 1.6582078 -0.0067257117 -1.2739776 0.18483901 2.6608012 -0.5925915 -0.75848466 -0.7526899
533 2.6657853 0.05725379 1.1865432 -2.1444125 -1.9933373 1.2860767 -0.48425964 -0.39533648 -1.2215512 0.30667755 -0.5827801 -1.5560536 -2.5640986 -0.6186142 -1.0433593 1.253581 0.79059696 -1.02132 -1.26333 -1.097789
4378 1.5691617 -0.93914217 -0.38289535 -2.241885 -0.9230605 1.3633003 -2.7022517 1.050439 0.24032795 -0.607664 0.8976051 0.32709503 -2.645131 -0.93695295 -0.33075717 0.20021541 1.459883 -1.829469 -1.2424695 -0.74177426
2813 3.1222234 -0.19813775 1.3663173 0.3210426 -0.49626762 0.6317122 -1.9649199 1.4744517 -0.60513014 -0.9692977 1.7012173 0.2800907 -1.105308 -0.47419378 -1.6521825 0.5844904 1.4523425 -1.0813718 0.9689842 1.469957
4156 3.662489 -2.3292434 0.3057878 -1.4551417 1.3486232 -0.19024472 -1.9194701 -0.80188054 -0.6952114 -0.001620599 0.53595036 -0.5454153 -1.038552 0.41001368 -1.4334306 -0.3829341 -0.49393916 -0.5114384 0.8983928 0.23365329
923 1.7775528 -0.54935724 0.21772946 -2.9859302 -0.9691384 -1.3526694 -1.9945415 1.211005 0.6223981 0.59780514 -2.06821 0.17666496 -1.137752 1.2959665 -0.45660904 1.4078846 1.2546254 -1.8585876 -0.8633286 -0.43563747
3460 2.5319245 1.3624845 0.64851296 -1.9326042 -0.72174335 -0.08695736 -0.6556726 2.6827197 -0.1375875 -0.86509305 -1.7218298 0.44219822 0.22921108 0.6985427 -1.448582 -2.410053 -0.4001036 -1.3654107 0.15203346 -0.3452655
164 2.5478964 0.5416021 0.5231815 -1.877361 2.056164 1.109838 -1.9867716 -1.0500078 -0.6538135 -0.5408091 0.9351135 -0.89535797 -0.71498257 0.040847212 1.2872357 -0.68345857 1.4195577 -1.5508933 0.8548623 -1.9583389
2061 2.2482338 -1.9761381 2.5876496 -2.5608695 -0.15683009 0.030597199 -1.9059417 0.7232567 0.76846683 -0.908561 -0.48185253 -1.4348061 -1.1282517 -0.940628 -0.34519723 -0.1556816 -0.19822924 0.47262037 -0.19045979 -0.18220189
2310 1.7532651 -1.9896611 1.8879824 -0.077799216 -1.414797 0.9997748 -0.66122526 1.4196328 -2.5747933 -0.15568377 0.40985698 -1.4187514 -1.4062537 2.3072805 0.051982995 -0.80997366 2.0355935 -0.91641504 -0.1437659 0.1385009
1916 4.039293 0.8326322 1.0824692 -2.587324 0.7095152 0.76381564 0.62421656 -0.3039736 0.261645 -1.1168407 0.85350764 -2.0479221 -0.59751195 0.3665476 -0.94850653 -0.61371434 -0.31143767 -0.429039 1.9170791 -0.774992
1766 2.0436492 -1.4979962 0.11377467 -3.2101438 -1.4503249 0.5809741 -1.0948652 0.7009861 -1.5876075 0.7456707 1.1754876 -0.29520142 1.1006523 0.907115 1.5103785 -0.81668323 -0.25991857 -0.3378223 -0.39517453 0.26469725
3959 3.081459 -0.26093435 1.1145505 -1.061832 0.4535046 0.101315714 -2.4048066 2.19561 -1.4219619 1.0189437 -0.9041611 1.1055489 1.4862713 -0.07827523 -1.2264619 -0.9051754 -0.42680767 0.7810342 0.64393044 -1.184068
2065 2.6756167 -1.8694935 2.1964612 -2.4719574 -0.95504856 -0.5342132 -1.8889266 0.71696275 1.5942348 -1.0143259 -0.42738894 -1.3747345 -0.9933487 -0.62974 -0.39486325 0.6235608 0.1045716 -0.07093031 -0.021953996 -0.00033165267
4630 2.7464135 -1.1626025 1.0715679 -1.9615507 -1.9496825 -0.1049535 1.1447915 0.58492327 -1.4547749 -0.9867252 0.2239512 0.16239351 -1.0109439 -0.44970337 -1.221381 -0.4782521 -0.20263839 -1.4209285 1.0887476 -2.2509677
264 3.1970055 -0.94215226 0.61385363 -2.5056825 -0.9274567 -1.675131 -0.9921047 -0.031572983 -1.9468653 1.5668892 -0.8736556 -0.17029688 -0.58295554 -1.298575 0.09520372 -2.1438613 -0.21855077 -1.2065382 0.49731883 -0.34197566
1849 1.281338 -0.1337828 1.8233984 -2.081931 -0.9759915 0.45658264 -0.72020847 3.4307122 0.4378828 -0.27297845 0.68776083 0.03760784 -0.5430208 2.8111312 0.41577277 -1.0081567 2.3063862 0.72238845 0.33278513 -0.77881706
3208 2.189137 -0.42693114 1.585658 -0.48665988 -1.7693009 1.5291488 -2.6032848 -0.110165484 -0.3831729 -1.5432314 1.054641 -1.0014485 0.49606338 1.7712917 -1.2377685 -0.88977814 1.3806137 -0.07861999 0.17338544 1.5670732
3211 1.9050976 -0.6502665 1.7355002 -0.8147051 -1.6980218 1.4643749 -2.7185817 0.024926646 0.14675887 -1.3513098 1.2659518 -1.0175992 0.37567744 1.8280206 -1.0201253 -0.84863526 1.2438183 -0.38216436 -0.0044926153 1.5307186
150 2.337227 0.30947283 2.2944624 -1.8726696 1.220294 -0.01207475 -0.6245731 0.35734558 -0.51171464 -1.1641092 1.7042595 0.75579405 0.11478244 0.73870796 -0.9969182 -2.8739283 -0.022853334 -0.72470593 -0.78441703 -1.9653387
3628 1.4329238 -0.1115569 2.0255423 -3.0296037 -0.08392795 -0.4529859 -0.2800671 0.06410165 -0.13353726 0.71508485 -0.2504535 -2.27915 0.35890198 1.6279318 -2.0991588 -0.26482674 0.93200076 1.0379161 0.5252358 -1.3821894
1511 1.2679175 -1.5327004 2.0563653 -2.2901058 0.16188914 0.70352364 -1.5690584 -0.07786224 0.8049139 -0.46060473 0.8635568 -0.58788455 0.58235186 1.377918 1.169433 -2.1854606 1.4652388 -2.2481825 -0.6548449 -0.90549934
952 3.861978 0.46831304 0.3778042 -1.7530326 0.052693732 0.558477 -2.5413249 -0.8488469 -0.316458 0.521103 -0.5729223 0.8609965 -2.0272672 -0.11946572 0.70729315 1.4691855 1.1287092 0.0635911 -0.30490285 -0.54083604
2614 1.8595884 -1.2037942 0.6351604 -1.1946975 0.6971598 2.0935018 -3.0243385 1.3269621 -1.3786058 1.7579261 0.5187276 -0.16631635 -0.10376228 -1.5731938 -0.9718885 -0.47207305 1.378901 -2.0073311 -1.3160609 -0.26194385
2090 3.0910525 0.11870628 -0.8592698 -1.962905 -1.7527527 1.441881 0.2774321 0.55750525 -0.7604138 -0.6558459 1.3033627 -0.7987172 0.42766762 0.91920954 -0.11235328 -2.1229086 1.6443216 1.3259107 -0.22891946 -0.48366523
1891 2.364653 -0.1035516 2.444956 -1.0862877 -0.4466511 1.2377762 -0.7585949 0.83596367 -1.3293334 -1.967702 -1.1282312 -1.4642628 -2.0801086 0.12933807 -0.4558163 -1.8126602 -0.3362639 -0.9535382 0.10654794 -1.3919548
1452 3.4400756 -0.16174619 -0.66616106 0.41650587 0.3443535 1.3956802 -0.778679 2.002768 -1.0939156 -0.49654284 0.22845867 1.435459 -0.7999012 1.3322549 -0.509673 -1.0018244 1.8914559 -0.71447283 -1.0288153 -0.74397194
1185 2.9271464 -0.54389495 0.38424632 -1.6999836 1.3151352 0.89893806 -0.8450461 1.1199667 -0.99624133 -1.4891503 1.1591878 -1.4227384 -0.31136557 3.0864217 0.106881365 -0.51531106 -0.23506096 0.48378986 -0.22641121 -1.6525877
3884 1.9167302 -0.05714552 2.347582 -2.3815725 -0.71871096 0.19122833 0.05667431 1.4805418 0.38636526 -0.20842697 -0.45748192 -1.38141 2.3632476 -0.51360005 0.2864705 0.43504792 2.6354997 -1.432559 1.2049668 0.8039832
2147 1.8451675 -2.1317189 2.164439 -1.7252871 1.0200596 -0.1834112 -2.594568 -0.36790568 -0.10866399 1.0395907 1.0848225 0.6075143 0.050206363 0.37989205 -1.7458366 -1.1637903 1.8371388 1.1164286 0.3252164 -1.0076108
2386 3.273829 0.23674858 0.8662275 -0.7337036 -0.22359256 -1.3016403 -2.4249516 -0.17214479 -0.6497127 -0.35542497 0.14319931 0.50452614 0.6356105 1.2002946 0.030939661 -2.9289877 2.0301318 1.3904426 -0.47629827 -0.9996242
4234 1.956021 -0.14650358 0.5693133 -2.110091 2.6360996 1.0547777 -1.5547371 0.6878042 -0.11831933 0.41272312 -0.9531966 -0.42588297 -1.078313 0.6588336 -1.7800684 -1.8808471 0.48210856 -0.823461 -1.0824181 -0.314574
109 2.1227286 0.639022 1.4962138 -3.671708 0.09426374 1.0974618 0.138584 0.43609986 -0.6507469 0.57806635 0.15692534 0.8559562 -1.7730087 1.1982541 1.425011 -1.4452465 0.48238727 -0.3635709 0.85905015 -1.2802095
247 2.4803438 0.005720932 0.8379387 -3.580121 -0.029162405 -1.6716955 -0.17335641 -0.67871416 -0.59414166 0.021715792 2.3911638 1.0057104 -0.035086013 1.4667736 -0.8765604 1.0154506 0.98575 -0.15811208 -0.49249396 -0.19938947
206 3.225387 0.2063227 1.7990524 -2.673457 0.58359087 0.19412106 -1.6494828 0.52020544 -0.22075689 -1.4607108 -1.2474009 -0.1791977 -0.6484452 1.293848 0.33827102 1.8171389 -0.21904163 -0.635128 -1.981935 0.82236737
4101 1.5507072 0.4601127 1.4867606 -3.5864265 -1.6105196 0.77170503 -0.99128336 0.20829622 -2.0156524 1.3794609 0.59953594 1.5936381 -0.6074082 0.89737153 -1.7158664 -0.2950752 -0.4919563 -0.85947746 0.74771595 0.75346965
3194 1.3711689 0.67286813 1.4556522 -1.8342823 -1.8547837 0.9366805 -3.2562795 0.7200689 -0.10470759 -0.05887582 1.1733884 1.1570288 -0.123989515 -1.4668777 0.1497597 -1.7918148 1.8524791 -1.2206736 1.4171131 -1.1570693
1203 3.2384868 0.479149 1.2373749 -3.0459573 -1.7997282 1.0081885 -1.5632392 0.26380283 -0.1389044 0.9199751 -1.5492413 -1.4380456 1.2450318 1.4393054 1.2212524 0.93003017 -0.38056853 -0.21489784 0.4319483 -1.1269273
795 1.3582634 -1.3311836 1.1165589 -3.0531442 -1.4133223 0.22702964 -2.1710184 -0.21332799 -1.7256342 -0.4280039 0.06856624 -0.18706599 -0.19587259 -1.8874235 -2.3666837 0.035093587 0.36333945 -0.28527018 0.11416364 1.1679685
12 2.464173 -0.17338528 1.5821674 -0.60152155 -2.3318393 0.42356285 0.20879738 1.2631723 -0.8255534 -0.119910754 -2.0717685 0.33453256 -0.62370497 1.3155253 -1.9267751 -0.20164181 2.0181258 0.2134959 -1.3130159 -0.502772
3517 1.0669432 -1.2405365 2.0550263 -2.2183251 0.6754562 0.8833256 -1.676955 2.0580082 -2.08369 -1.6844655 0.3754011 -0.022100637 -0.20237942 -0.95681816 0.11622998 -0.37978983 1.7403928 -0.28392947 -2.889398 0.22614801
604 2.5065396 -1.4984423 1.3004135 0.12495044 -0.74190646 1.5677216 -1.9098539 0.6827686 -2.9982479 0.34785748 -0.85886127 1.5499516 0.6854966 1.8776613 -0.9655 -0.24475063 0.71082515 -1.3848836 0.1731681 -0.37149498
4178 0.86566293 0.13797744 0.1654466 -2.9980557 0.42132172 1.3752173 -0.6426274 1.8781474 -1.4715409 -1.2631086 -0.012076895 0.65067047 1.1801758 1.5555383 -2.429419 -0.8414857 1.4527425 0.41576558 -1.7645541 0.3590058
154 2.611658 0.09477728 2.4591107 -2.0576513 0.85176086 -0.8522601 -0.5491081 0.37003776 -1.3859806 1.4653511 -1.8282417 -0.2550362 -0.19343136 2.1471817 -0.6476486 -0.5771486 0.16010936 -0.65381306 -1.5657916 -1.4470218
3404 1.8189955 0.035984673 1.9427973 -1.561008 1.4696308 -1.0696375 0.23090039 0.57716835 -2.8056133 -0.44799757 1.1877619 -1.6043946 -0.36417913 -0.06521232 0.036337547 -1.0228612 2.0038288 -0.9244183 -1.5025122 -1.6098123
569 1.144608 -0.5354059 -0.35858926 -2.0059273 -1.8798177 1.1213189 -0.8589494 0.5791486 -1.7245942 0.8637919 0.68268615 -1.4821825 2.2265997 0.15576956 -2.1974318 -1.1732241 2.091554 -0.39360946 -0.563822 -0.9151599
3514 1.1121897 -1.2073755 2.1247337 -2.1277943 0.3987971 0.622087 -1.8371503 2.023741 -1.7927912 -1.6760194 0.16371831 -0.1471936 0.064280815 -0.72135067 0.1814212 -0.068521224 1.8030348 -0.102214254 -2.9803026 0.27263096
4114 2.0667243 1.9385468 1.6563939 -1.9365814 -0.01984644 0.068148755 -2.681862 0.10271528 0.114476755 -1.5018858 -0.8325581 -0.03707122 0.2554217 -1.4371783 -0.33670974 -0.609595 0.28601727 -1.4608065 -0.3286724 -1.8847469
392 2.06075 -0.45947218 -0.94614375 -3.097979 -1.890918 -1.2769948 -1.5568386 0.3218212 -0.13054195 -0.4254768 0.29636046 0.05547045 0.07960658 0.6268573 -0.81695414 -0.25584134 1.9770896 -1.3802605 1.5148611 2.1661553
2120 1.9769377 -1.4178174 1.506427 -2.9994516 -2.398291 0.7050596 -0.53150445 -0.9335587 0.4608964 -1.3403012 -0.19364816 0.13346119 0.80281776 0.21974511 -2.1673079 -1.5655617 0.11773798 -1.328037 -1.1338524 -0.97733676
3269 2.2947469 -0.787727 -0.69586587 -1.3126359 -0.49152878 -0.3278589 -2.5185306 0.6377722 -1.7158734 0.29993877 -0.41705546 1.0035698 0.6072326 0.19476813 -1.983753 0.802389 -0.21472763 -2.5600004 -0.67708945 -1.5106251
3570 1.7112191 0.893271 1.378679 -1.860286 0.0273763 -0.4072657 -2.1478007 0.28619665 -0.4891614 -0.8779613 1.4139956 0.9953052 -1.1967294 1.0792342 1.1458243 1.4180986 1.61858 -2.123955 -1.2002295 -1.3833085
147 2.1974998 0.5934314 2.258139 -1.9461741 1.08498 0.12796447 -0.65717083 0.29012525 -0.27766162 -0.8025027 1.4610627 0.28745288 -0.117024004 0.5595003 -1.0968288 -3.6086683 0.24006236 -1.098385 -0.5818945 -1.8693272
3323 1.8194337 -0.7912044 0.13304535 -2.1389647 -0.3164067 -1.2627037 -0.13554904 1.6663232 -3.1852279 -0.015608258 -0.85063106 1.1883299 0.00203542 2.1028755 -0.8274876 0.828041 1.2192247 -0.08666554 0.109127566 -0.16597527
16 3.0551322 0.053047184 1.60326 -0.14226428 -1.7691492 0.43603185 0.3005923 1.1171573 -0.7240015 -0.3272051 -1.2010711 0.25174737 -0.7234954 2.1705215 -1.1935681 0.536694 1.6506144 0.048111923 -1.3391309 -1.2360247
2970 3.765805 0.41331416 1.3196417 -2.0121067 -1.1510335 0.7231529 -1.3524135 1.1437641 0.13596186 -0.9420573 0.426707 -1.0194027 0.27179193 -1.3266522 1.5600773 0.2529777 -0.05389739 -2.8905697 0.80656016 0.7352142
1028 1.7354288 0.59777826 1.880184 -2.5074077 -1.4127474 1.3882111 -2.2338517 1.2455862 0.09528157 0.16129918 -0.30041474 0.24748795 -0.23267706 2.1270247 0.40670985 -0.47589663 -0.82425183 -2.848269 -0.6777256 -0.3867024
891 3.5012293 -0.500306 1.218046 -1.1930368 1.6022795 -0.0272612 -0.7176797 -0.54957974 0.47371045 -0.15911369 0.9994179 -1.2911662 0.4803373 -2.1261885 -1.9353281 -1.395716 2.0264654 -0.65545434 0.27803183 -0.38776633
3708 1.2413596 -2.0721025 2.2156248 -1.5827932 -2.2438416 2.334188 -0.95754343 2.2144597 -0.9278132 -0.78870803 1.5308585 -0.048059907 0.91705394 -0.0595986 -0.15701005 0.06157766 1.0554148 -0.9635151 0.062090617 -0.3744702
160 2.4465356 0.16589445 1.1090384 -1.8469759 2.040583 0.9656676 -1.9582831 -1.0004234 -0.4213977 -0.5595121 0.8981266 -0.526324 -0.62309784 -0.18503308 1.318197 -0.58750093 1.1997052 -1.5042945 0.7795012 -2.2054873
3475 2.9004004 -1.1060754 0.12071712 -0.3712872 -1.4688843 0.61402404 -0.6837824 -0.44981387 -1.2924544 0.0041821753 0.12359822 -0.6683032 -1.8959427 -1.575838 -1.6012654 -1.7811233 2.6273267 -0.5198399 -0.18734775 -0.3585611
3170 3.0636737 -1.232726 2.3686206 -2.1399956 -0.0032876171 -2.2010024 0.18443124 0.8937177 -0.25952908 -0.28343824 -0.7290774 -0.57247335 0.24610944 1.58841 -1.7121975 0.16118352 -0.14833495 -1.6317762 1.4140925 0.9522691
1827 2.660492 -1.1996121 0.21049008 -1.6770211 -1.469523 -0.06932229 -0.6121872 1.4557067 1.4053319 -1.3943967 0.55221665 0.8859504 0.15029687 1.141908 1.4024037 -0.24498616 2.5476184 -1.0630844 -1.391439 -0.19853148
491 2.2575083 1.4298123 1.4746815 -1.5094453 0.28038716 1.4393286 0.29443562 -1.027578 -1.3733236 0.5263996 -0.3121195 -0.7074668 0.20081027 -0.34196812 0.2274013 -1.8611685 2.7358239 -1.759471 -0.85575354 -0.40168986
200 2.810469 -0.110789746 1.4552202 -2.865397 0.9901918 1.5801935 -1.7950634 0.69895035 -0.38237393 -1.8161418 -0.8222299 -0.15326142 -0.64975566 0.68737745 0.7907454 1.2885376 -0.6502918 -0.6851504 -1.4979955 -0.18898037
3381 2.1300342 0.11391073 1.2350017 -2.6102161 0.483368 -0.59017783 -2.9550328 1.9782028 -0.0017732241 0.014915083 1.1541382 0.49342385 -0.09624751 -0.41680172 1.1447759 0.62549424 0.5205221 0.74743646 1.5968455 -1.11379
162 2.6529875 0.47176346 0.6970352 -1.8332424 1.9780154 1.2156241 -1.9203424 -1.0397205 -0.51946867 -0.6039333 0.9843661 -0.645292 -0.6090435 -0.108127676 1.2979834 -0.7370259 1.2086549 -1.6469904 0.8118447 -2.1962602
4461 2.5724196 -0.05970704 -0.85731 -1.6487381 0.27227324 1.6903379 -1.4128432 0.37545505 -2.1816099 -1.4931892 0.6810712 -0.29421484 -0.99872595 -0.5470629 -0.9848212 -2.2501943 0.48094022 -1.5890698 -0.7353214 1.3359572
3106 2.047239 -2.059059 0.07689744 -1.3523594 -0.10988445 0.39993694 -1.7027433 0.49755374 -0.05752532 1.039474 -1.0805709 -1.8330976 -2.0297139 1.4171528 -0.4409707 0.42332822 2.9052737 -0.08658657 -0.61799055 -0.5571576
1192 3.0970654 0.10799208 0.41790938 -0.88122094 1.06723 1.7640926 -1.3275002 0.8568154 -0.8956297 -1.2149131 -0.07628703 -0.8263568 -0.0894965 2.94071 0.8026893 -1.4522474 0.06773541 -0.40092346 0.7189177 -1.7098664
3224 3.26408 -0.9704818 -0.06481545 -2.8178868 -1.6965258 -0.3036466 0.4674843 0.057919107 -0.81842065 2.1754348 -0.0039733807 0.34681833 -1.7967458 1.5977471 1.0084344 -0.35538834 2.097798 -1.2444819 -0.60301596 0.55325764
2938 2.5653665 1.7522383 1.722614 -2.2141342 -0.069382235 1.3690768 -0.42200217 1.0129085 -2.8993232 0.08571069 -0.45251164 0.011878261 -0.6414515 0.10755716 0.13877057 -0.56549335 -0.7163944 -1.6529702 -1.695056 -0.5476206
691 3.5154288 -0.01844766 0.99663335 -0.85299504 -0.8373143 -2.4871278 -1.9423099 0.75268704 -0.2400195 -0.09723794 -0.63891655 -1.7370633 -1.1853029 2.0057411 0.67790145 -0.87732095 0.37725532 -0.8065171 0.16018082 -0.7388046
1433 1.4808404 0.28887698 -0.6204751 -2.747298 -0.80776805 -1.2127439 -1.3873038 -0.5048235 -2.3263252 -0.6413359 0.7541924 -0.7587081 -0.7711593 0.6095414 -1.7912701 -1.067265 1.72874 0.8244021 0.21846746 -2.9619324
3279 2.3126748 -0.7802354 -0.5928792 -1.2132175 -0.6061986 -0.46604803 -2.454858 0.86312044 -1.8929774 0.45364034 -0.61116654 1.0341303 0.19738351 -0.0047574765 -2.0878909 0.52630943 -0.21688105 -2.5247984 -0.5990451 -1.5176362
428 1.478342 0.6923669 2.7151196 -2.391368 -0.20790392 0.23447582 -2.131158 -0.21647286 -1.1338848 -1.0707078 0.9582315 -3.1086671 -1.3264083 -0.45852712 -0.85867614 0.41509447 0.84877086 -1.2100831 -0.09186405 1.1278629
3954 3.072127 -0.07574045 1.029 -1.1377033 0.5871516 0.31929198 -2.5470572 2.036681 -1.271542 0.7355202 -0.8623304 1.1557488 1.4103328 -0.031445444 -1.4608839 -0.8475733 -0.50393236 0.7751759 1.0284804 -0.98348135
3738 1.5261841 0.07894372 1.3437222 -0.29292 -0.69038934 0.830539 -1.9309071 1.4157643 -2.5328352 0.10442561 -0.61639655 -2.2713816 0.769939 0.12592699 -1.618208 0.05476349 1.2570807 -1.9526837 -1.641731 0.21196483
2849 2.4924848 -0.63046247 1.9580963 -0.272869 1.8153901 -1.9274062 -1.5974766 0.36030224 -0.6976966 -1.0693363 -0.7864936 -1.4187261 -0.17541675 -0.06997754 -0.8130686 -0.13500597 1.8990879 -2.3737948 0.43321973 -0.6975987
3877 1.6738936 0.2010045 1.6597455 -3.558788 -0.12568377 -0.57066315 -0.10192456 1.1530262 0.54607075 -0.24233419 -0.816976 -1.0223391 1.9702013 -0.47341195 0.23036522 0.41581148 1.933386 -1.0187941 0.54812205 1.0605549
4458 2.4062073 -0.23730403 -0.7949916 -1.3298376 0.1625856 1.951825 -1.8006277 0.3522407 -2.497814 -1.8502053 0.6853136 -0.7564729 -0.6520499 -0.3255147 -1.222542 -2.239123 0.55196136 -1.5927017 -0.78655684 1.1844444
